/* nn_weights.h — AUTO-GENERATED by export_c.py. DO NOT EDIT. */
#ifndef NN_WEIGHTS_H
#define NN_WEIGHTS_H

#define AMC_NUM_CLASSES 19

static const char * const AMC_CLASS_NAMES[AMC_NUM_CLASSES] = {
    "AM",
    "FM",
    "PM",
    "CW",
    "BPSK/DBPSK",
    "QPSK/DQPSK",
    "8PSK",
    "OQPSK",
    "2FSK",
    "4FSK",
    "8FSK",
    "8QAM",
    "16QAM",
    "16APSK",
    "32APSK",
    "64APSK",
    "128APSK",
    "256APSK",
    "OOK",
};

/* L0_CONV_W  [672] */  /* shape (32, 3, 7) */
static const float L0_CONV_W[672] = {
    7.66866803e-02f, 2.18005367e-02f, -5.98185621e-02f, 1.99717984e-01f, 9.41687644e-01f, 7.72116542e-01f, 3.09575498e-01f, -1.10940123e-03f,
    -9.81005607e-04f, 2.25728517e-03f, 1.40978396e-03f, -3.77197546e-04f, -8.67005030e-04f, -1.11016002e-03f, 1.30854163e-03f, -6.72568986e-03f,
    4.39154264e-03f, -2.51783128e-03f, 2.18207538e-02f, 2.17656363e-02f, -1.44488353e-03f, 1.79287896e-01f, 2.47454956e-01f, 3.58655125e-01f,
    -1.17831603e-01f, -3.56452435e-01f, -2.27250859e-01f, -2.38663927e-01f, 9.15997755e-03f, -3.78497364e-03f, 3.57908309e-02f, 3.01408041e-02f,
    5.09563228e-03f, 1.68058332e-02f, 6.06967078e-04f, 3.09531540e-02f, 1.27925336e-01f, 3.86589646e-01f, -1.04179718e-01f, -2.08594933e-01f,
    -3.69671620e-02f, 7.52907321e-02f, 4.58347291e-01f, -3.67468327e-01f, 1.30564198e-01f, -1.11765489e-01f, 4.00597937e-02f, 8.61746818e-03f,
    -6.53952658e-02f, -1.33990627e-02f, -8.09302367e-03f, -2.80212821e-03f, -1.33116567e-03f, 3.80846602e-03f, 1.16192317e-02f, -6.53668167e-03f,
    -1.76266450e-02f, -4.47451264e-01f, -3.32339644e-01f, -5.96017996e-03f, -3.51618417e-03f, 5.04751410e-03f, 7.17156427e-03f, -3.36111477e-03f,
    -1.80127054e-01f, -4.15523201e-01f, 4.13636625e-01f, -1.79293901e-01f, 4.13714983e-02f, 1.27449334e-01f, 7.32479012e-03f, -3.01470351e-03f,
    -4.95848665e-03f, 4.03557308e-02f, -1.18930088e-02f, 2.94119259e-03f, 1.08284168e-02f, 4.15984355e-02f, 4.43291068e-02f, 2.66681552e-01f,
    4.89068180e-01f, -1.60491228e-01f, -1.13201395e-01f, -3.57430764e-02f, -9.05387327e-02f, 4.48995709e-01f, 4.67567414e-01f, -5.21530993e-02f,
    2.20408961e-01f, 1.95002645e-01f, 1.48733765e-01f, -3.74721326e-02f, -6.21342063e-02f, -5.16265668e-02f, -2.28591766e-02f, 1.00424550e-02f,
    2.96991896e-02f, 3.55029479e-02f, 5.21850549e-02f, 6.68465942e-02f, 3.82572830e-01f, 5.32338247e-02f, 7.45527297e-02f, 2.00916678e-02f,
    -2.41675437e-03f, -6.61487281e-02f, -5.71867585e-01f, -4.29607511e-01f, -3.06123942e-01f, 2.77513921e-01f, -2.51744807e-01f, -5.97469024e-02f,
    -7.72324111e-03f, 6.70539448e-04f, -1.52355367e-02f, -1.25180103e-03f, 1.25879962e-02f, 5.90501260e-03f, 1.03904903e-02f, 1.14159007e-03f,
    -3.33643332e-02f, 4.20401752e-01f, -1.79602072e-01f, -4.31751385e-02f, -3.83861363e-02f, -6.44446090e-02f, -4.97833699e-01f, 2.56080329e-01f,
    5.39510250e-01f, 4.96900141e-01f, 9.32020321e-02f, -1.06321789e-01f, 3.47474478e-02f, 1.02511495e-02f, 2.08492298e-02f, 2.69742329e-02f,
    3.48365097e-03f, 1.30696120e-02f, 4.22157766e-03f, -1.43090263e-02f, -9.19176713e-02f, 2.17714943e-02f, -2.81768024e-01f, -2.84221530e-01f,
    -8.88356268e-02f, -2.18000580e-02f, -2.56572179e-02f, -1.91768929e-01f, -3.62971187e-01f, -1.46985963e-01f, -3.30716014e-01f, 1.81400895e-01f,
    -8.14613402e-02f, -3.93978767e-02f, -4.49735019e-03f, 6.34569488e-03f, -7.71135651e-03f, -2.38800189e-03f, 9.54403193e-04f, 3.27562168e-03f,
    -5.08647552e-03f, 1.09041203e-02f, 4.13911836e-03f, -5.03245115e-01f, 8.32916796e-02f, 3.93694080e-02f, 8.19203258e-03f, -1.81822982e-02f,
    -8.95913020e-02f, -8.10001865e-02f, 2.07344234e-01f, 5.60753822e-01f, 4.34155464e-01f, -5.67910433e-01f, -8.33088830e-02f, 8.36135261e-03f,
    -1.11631313e-02f, -1.18788462e-02f, -2.86700148e-02f, -1.82929784e-02f, 1.07017544e-03f, -6.83474308e-03f, -1.43164862e-02f, -2.92448066e-02f,
    -3.74580435e-02f, -7.82816857e-02f, -3.93225886e-02f, 3.38615030e-01f, 1.02057636e-01f, 1.27328455e-01f, 2.93252736e-01f, 2.44055450e-01f,
    1.96304798e-01f, 9.24078941e-01f, 2.59387374e-01f, 2.10982054e-01f, 4.90641873e-03f, 2.24867975e-03f, -1.34989480e-03f, 1.25937052e-02f,
    -2.68345755e-02f, -5.69052342e-03f, -5.15135610e-03f, -4.37587835e-02f, -6.31138459e-02f, -1.20974496e-01f, -1.52572766e-01f, -2.29380310e-01f,
    1.06209703e-01f, 8.27606842e-02f, 2.76623785e-01f, 2.95606852e-01f, 1.00899890e-01f, -3.66569042e-01f, 8.81743789e-01f, 1.30272612e-01f,
    -1.51730135e-01f, 4.86302786e-02f, 1.21436007e-02f, -6.84267189e-03f, 3.03259455e-02f, -4.04936075e-01f, -9.65756178e-02f, -1.63284224e-02f,
    1.59804802e-02f, 3.99112217e-02f, 2.93877553e-02f, -2.78571546e-02f, -1.57714449e-02f, -4.09315228e-02f, -7.11814780e-03f, 2.11969111e-02f,
    2.81157374e-01f, -7.93513283e-02f, -3.47174853e-01f, -3.06035280e-01f, -2.59961814e-01f, -1.59097150e-01f, -4.79976006e-04f, -8.62012268e-04f,
    -8.83665308e-03f, 1.26684867e-02f, 1.93231814e-02f, 8.08291044e-03f, 8.72828625e-03f, -3.83226164e-02f, -1.14839561e-01f, -4.56494898e-01f,
    -1.57116711e-01f, -8.85581896e-02f, -5.38423508e-02f, -4.53755595e-02f, -1.16650850e-01f, -2.94312686e-01f, -2.64355063e-01f, 2.94597477e-01f,
    -2.01048002e-01f, 8.64849240e-02f, 2.44495980e-02f, 6.12510256e-02f, 5.98447397e-02f, -1.89788789e-02f, -2.74592917e-02f, -1.30573250e-02f,
    3.32887517e-03f, 2.56760744e-03f, -1.94224015e-01f, -3.69833410e-01f, -3.72552752e-01f, -3.63321841e-01f, 3.86525951e-02f, 1.42224766e-02f,
    8.86248332e-03f, -1.36216171e-02f, 1.84667166e-02f, 2.85286784e-01f, 4.02869880e-02f, -1.11084864e-01f, 3.39510024e-01f, 2.02591032e-01f,
    1.11964252e-03f, 7.29341293e-03f, -2.44804565e-03f, -1.87383238e-02f, -2.62013581e-02f, -2.55709421e-02f, -1.12669645e-02f, -1.55262360e-02f,
    -1.79139897e-02f, -6.01484478e-02f, -3.48779351e-01f, -4.60726827e-01f, -4.68127370e-01f, -1.85610190e-01f, -2.21370026e-01f, -3.52965415e-01f,
    -1.80867001e-01f, 3.29678357e-01f, 5.13438404e-01f, 5.62970817e-01f, -2.49506831e-02f, 2.02901214e-02f, -9.18048024e-02f, -4.70407009e-02f,
    -8.34393408e-03f, -1.81428462e-01f, -2.46113911e-01f, -5.57638556e-02f, -1.04681179e-02f, 2.86211707e-02f, -1.61038473e-01f, -1.74058661e-01f,
    1.00406967e-01f, 4.66025993e-02f, 4.16806294e-03f, -1.75327405e-01f, 3.99550736e-01f, -1.95778519e-01f, -1.69503197e-01f, -6.95853084e-02f,
    -1.38399720e-01f, -7.31166378e-02f, -1.24189688e-03f, -1.13776897e-03f, 5.62471943e-03f, -2.11344962e-03f, -1.02843181e-03f, 4.55369940e-03f,
    1.66900305e-03f, -5.95241087e-04f, -1.33419847e-02f, 3.76617074e-01f, 3.61225635e-01f, 2.21097112e-01f, 7.73696154e-02f, 3.22596133e-02f,
    -1.16672635e-01f, 3.56819630e-02f, 4.98770386e-01f, 2.45004743e-01f, 2.36875527e-02f, 4.09584455e-02f, 2.59279162e-02f, -2.48399183e-01f,
    1.88739732e-01f, 3.30935061e-01f, 1.94691002e-01f, 3.78831290e-02f, -4.94074523e-02f, -1.00027062e-02f, 7.28158578e-02f, -8.26527849e-02f,
    4.51866724e-02f, 2.09395937e-03f, -3.15970182e-02f, -2.36356240e-02f, -4.01608609e-02f, 5.07254116e-02f, 4.15191621e-01f, 3.75995487e-01f,
    1.06031504e-02f, 3.54421139e-01f, 1.61810040e-01f, 1.95814952e-01f, -6.72050714e-02f, -2.07685217e-01f, -2.45357826e-01f, 2.89618105e-01f,
    2.81799704e-01f, 1.64594743e-02f, -1.65953711e-02f, 4.04852033e-02f, 8.56660306e-02f, 9.47779268e-02f, -3.65230115e-03f, 9.10985768e-02f,
    1.73226334e-02f, 4.52237669e-03f, 8.37548748e-02f, 1.48355886e-01f, 6.45999685e-02f, -2.57832795e-01f, 1.71617299e-01f, 7.29973465e-02f,
    -3.50690372e-02f, 1.36176527e-01f, 3.06509346e-01f, 2.78224856e-01f, -3.30717385e-01f, 1.80252001e-01f, -3.88207547e-02f, -6.94592744e-02f,
    4.27330844e-02f, 4.15340289e-02f, 4.23086341e-03f, -6.56682625e-02f, -8.60199481e-02f, 1.96294878e-02f, 1.13413334e-02f, 8.49412940e-03f,
    -1.92675292e-01f, 1.64347261e-01f, -2.49855608e-01f, -7.91225955e-02f, -3.35527621e-02f, -3.49133983e-02f, -4.97870892e-03f, -2.57763360e-03f,
    -2.26040706e-02f, 9.21170053e-04f, 1.44642368e-02f, 2.83418503e-03f, -4.67306282e-03f, -1.34655694e-02f, -2.20355089e-03f, -1.27667875e-03f,
    4.26240146e-01f, 3.86153817e-01f, 2.03182399e-01f, 3.62528563e-02f, -4.73868579e-01f, 1.03048801e+00f, -2.20787287e-01f, 2.22144037e-01f,
    4.06859070e-02f, 1.55003756e-01f, 1.80087626e-01f, 6.80521950e-02f, -1.19373180e-01f, 1.53098246e-02f, 1.54970922e-02f, -9.15442593e-03f,
    -3.14167282e-03f, 4.00873367e-04f, 9.64741502e-03f, -1.38962280e-03f, 1.19907409e-02f, 3.08177937e-02f, 1.54796001e-02f, -2.23213644e-03f,
    1.51108799e-03f, -1.08389944e-01f, -5.51611073e-02f, 1.75059170e-01f, -1.91909432e-01f, 1.65745825e-01f, 5.70504010e-01f, -7.13095115e-03f,
    4.77016643e-02f, 1.21027306e-01f, 3.08131307e-01f, -1.15987808e-02f, -1.31561890e-01f, -3.01466495e-01f, -3.64063904e-02f, 5.93670039e-03f,
    2.84070652e-02f, 5.53949028e-02f, 2.13403970e-01f, 1.45276666e-01f, 1.02048323e-01f, 6.21424206e-02f, 3.92633945e-01f, 5.52423358e-01f,
    3.29316407e-01f, -2.93554179e-02f, -6.54896557e-01f, -5.02503335e-01f, -1.68340892e-01f, -3.33529525e-03f, 9.79880802e-03f, 8.00469518e-03f,
    -2.58433516e-03f, -1.96635947e-02f, 3.32393521e-03f, 8.93223006e-03f, -6.70213765e-03f, 6.16462086e-04f, -7.16381846e-03f, -1.34905465e-02f,
    -3.01544624e-03f, -4.14532190e-03f, -9.54197836e-04f, 6.81583071e-03f, -2.14518949e-01f, -3.40159297e-01f, 9.29418862e-01f, -1.25630185e-01f,
    4.47695842e-03f, -2.23114416e-02f, 1.40878800e-02f, 2.93266661e-02f, -7.38600548e-03f, 2.69608498e-01f, 3.12943831e-02f, 4.41495962e-02f,
    4.82698455e-02f, 2.45214403e-02f, -1.36806294e-02f, -3.12706432e-03f, 2.96813659e-02f, 2.72910036e-02f, 1.57949720e-02f, 1.58455670e-02f,
    2.55144775e-01f, 1.51847303e-01f, -1.99305662e-03f, 1.83302760e-02f, 8.53839051e-03f, 9.58598629e-02f, 1.17082164e-01f, 1.74202435e-02f,
    1.53902806e-02f, -3.65183013e-03f, -1.23240324e-02f, -1.88791770e-02f, -5.45674586e-04f, -1.15375721e-03f, 8.19952548e-01f, 1.59175485e-01f,
    -3.28223192e-04f, 1.80665627e-02f, -6.01901533e-03f, 1.22217974e-02f, -5.96115505e-03f, -9.55307186e-02f, -2.39878193e-01f, -1.52188361e-01f,
    3.65857124e-01f, -3.12365234e-01f, -4.53640759e-01f, -3.89826864e-01f, 4.87413928e-02f, 5.70254661e-02f, -7.69707561e-02f, -2.08979949e-01f,
    2.65257861e-02f, -3.49441677e-01f, -1.47715583e-01f, 2.69631911e-02f, -2.37863325e-02f, 1.50048770e-02f, 2.25942265e-02f, -6.79084212e-02f,
    -2.35274568e-01f, -6.31815121e-02f, 2.19316669e-02f, 2.57966280e-01f, 8.39051962e-01f, -6.06997609e-01f, 2.14772448e-01f, 2.87341714e-01f,
    8.62800106e-02f, -6.92755589e-03f, 1.00733470e-02f, 7.14908242e-02f, -4.50114273e-02f, 1.87773514e-03f, 8.11860338e-03f, 1.32819731e-02f,
    2.46745255e-02f, -4.90842946e-03f, -3.34378369e-02f, -6.33035600e-02f, -9.14091151e-03f, 8.40466842e-03f, 8.91598407e-03f, 2.43588048e-03f,
    -1.68026835e-01f, -5.42886496e-01f, 1.93357557e-01f, -4.22924664e-03f, -9.83585566e-02f, -1.19087018e-01f, -1.71962962e-03f, -1.86975375e-02f,
    -1.82769746e-02f, -5.71360206e-03f, -2.31905002e-03f, 3.54935037e-04f, -5.41767105e-03f, 1.14765372e-02f, 1.56306311e-01f, 3.44760299e-01f,
    4.25879389e-01f, 7.07718804e-02f, -9.20667965e-03f, -3.48711689e-03f, -4.62588400e-01f, 3.85552973e-01f, -7.14352578e-02f, -1.02961265e-01f,
    -2.04704725e-03f, 6.68949410e-02f, 5.03428616e-02f, 5.72282216e-03f, 1.21424953e-02f, 2.54028873e-03f, 1.96868787e-03f, -3.55603034e-03f,
    -6.17143640e-04f, -1.56669423e-03f, -3.82661968e-01f, -5.50642848e-01f, 3.69672403e-02f, 5.31245954e-02f, 3.85017954e-02f, 3.99803035e-02f,
    3.17842811e-02f, -1.38403431e-01f, -1.01549774e-01f, 9.82820615e-02f, -6.74002290e-01f, -1.27832815e-01f, -1.85053125e-01f, 2.10122019e-02f,
    -2.69338349e-03f, 2.55927090e-02f, 1.47440210e-02f, -7.23213330e-03f, -1.00324163e-02f, 2.88707390e-02f, 2.02046297e-02f, -3.15417610e-02f,
    -2.48616580e-02f, -2.54345797e-02f, 4.51963574e-01f, 3.45934868e-01f, -5.84418215e-02f, -9.89415031e-03f, -2.87030246e-02f, 1.20783038e-01f,
    3.19888085e-01f, 2.42974192e-01f, -9.17953774e-02f, -1.40123725e-01f, 4.13800687e-01f, -3.64362858e-02f, -7.19730109e-02f, -4.49862666e-02f,
    -1.29431263e-01f, 7.15669766e-02f, -3.57177071e-02f, 3.82154226e-01f, -6.88946918e-02f, -1.52439505e-01f, -2.50428498e-01f, -1.51183128e-01f,
    -3.30741219e-02f, 1.44890165e-02f, -3.16963270e-02f, -2.45593339e-01f, -4.92398858e-01f, -6.95245683e-01f, -5.69915533e-01f, -3.60940337e-01f,
    -1.08180292e-01f, 2.25837883e-02f, 4.23815893e-03f, 1.36903776e-02f, 3.41434851e-02f, -4.57321182e-02f, -3.40524055e-02f, 1.15525909e-02f,
    1.84002388e-02f, -4.36661858e-03f, -5.95227852e-02f, -1.10859081e-01f, -8.67235288e-02f, -5.02708405e-02f, 5.47184795e-03f, 2.32052691e-02f
};


/* L0_CONV_B  [32] */
static const float L0_CONV_B[32] = {
    2.39000797e-01f, -9.30516645e-02f, -2.93109789e-02f, 1.65284261e-01f, 1.13392416e-02f, -2.25650258e-02f, -1.02993380e-02f, 1.90006658e-01f,
    2.50501096e-01f, -3.35985608e-02f, -2.65138708e-02f, 7.63513090e-04f, -1.80520266e-01f, 1.99099272e-01f, -2.00855553e-01f, 4.41471813e-03f,
    1.45591900e-01f, 3.49054523e-02f, -1.32501945e-01f, -8.94705132e-02f, 1.14780091e-01f, -1.91810936e-01f, 1.53249398e-01f, -1.69755638e-01f,
    -1.70386851e-01f, 2.39710376e-01f, 2.14681283e-01f, 1.71139300e-01f, 8.80953819e-02f, 1.59780332e-03f, -1.86768323e-01f, -1.61638930e-02f
};


/* L0_BN_SCALE  [32] */  /* gamma/sqrt(var+eps) */
static const float L0_BN_SCALE[32] = {
    2.20711946e+00f, 1.22625303e+00f, 1.49770010e+00f, 1.37339008e+00f, 1.25602078e+00f, 1.10539484e+00f, 1.17017710e+00f, 1.41940475e+00f,
    1.47786164e+00f, 1.49397850e+00f, 1.00251353e+00f, 1.45913446e+00f, 1.03761911e+00f, 1.28122401e+00f, 8.11802030e-01f, 1.62107968e+00f,
    8.65390599e-01f, 7.73600936e-01f, 8.02355766e-01f, 1.24630773e+00f, 1.31018889e+00f, 7.43678451e-01f, 2.05982256e+00f, 1.08437431e+00f,
    9.95496988e-01f, 6.89185798e-01f, 1.72321773e+00f, 1.44054818e+00f, 1.39066327e+00f, 1.08484399e+00f, 7.80077279e-01f, 1.66944110e+00f
};


/* L0_BN_SHIFT  [32] */  /* beta - mean*scale */
static const float L0_BN_SHIFT[32] = {
    -4.31985331e+00f, 1.87393546e-01f, -4.29230869e-01f, 1.11074131e-02f, -1.62878704e+00f, 1.86383796e+00f, -4.20747548e-01f, 1.25821412e+00f,
    -9.00516331e-01f, -2.65148687e+00f, -1.00402808e+00f, 1.09475315e+00f, 9.29161787e-01f, -1.01392555e+00f, -5.47965169e-01f, 4.07613635e-01f,
    -8.74278367e-01f, -8.19222927e-01f, -2.79485404e-01f, 4.64057773e-01f, -8.73782277e-01f, -4.84465539e-01f, -4.09351826e-01f, 2.80208513e-02f,
    -6.25271678e-01f, 5.70574522e-01f, -1.84190583e+00f, 2.16049075e-01f, -3.92725021e-01f, 7.72740781e-01f, -7.04984546e-01f, 3.74318004e+00f
};


/* L1_CONV_W  [10240] */  /* shape (64, 32, 5) */
static const float L1_CONV_W[10240] = {
    9.54706408e-03f, -7.75581896e-02f, 4.65478450e-02f, -7.37261623e-02f, 1.88492108e-02f, 1.76555365e-02f, 2.46457905e-02f, -2.23821755e-02f,
    7.19682649e-02f, 2.61269920e-02f, -6.53714836e-02f, -8.66010338e-02f, 9.46653113e-02f, -7.18941540e-02f, 1.43253312e-01f, 4.82366187e-03f,
    1.60332739e-01f, -7.93900639e-02f, -3.34699936e-02f, -4.31147702e-02f, -1.62717197e-02f, -1.73368141e-01f, -1.62616074e-02f, 4.18917984e-02f,
    1.14764854e-01f, 5.17396303e-03f, -6.75351247e-02f, 1.42946124e-01f, -1.87018756e-02f, 1.07979758e-04f, -4.90355156e-02f, 3.43561708e-03f,
    3.63022536e-02f, -1.61554590e-01f, -7.85229206e-02f, 7.43523911e-02f, -4.87611480e-02f, 9.10252929e-02f, -1.41081307e-02f, 7.66325817e-02f,
    -3.16590369e-01f, 4.04782780e-02f, 1.13731949e-02f, 5.53627983e-02f, 3.29557136e-02f, -1.39949828e-01f, 1.18021913e-01f, -1.81792788e-02f,
    5.83000593e-02f, 1.32546332e-02f, 3.51512022e-02f, 3.27038288e-01f, 2.41629034e-01f, 1.42609060e-01f, -1.29625782e-01f, 4.02576961e-02f,
    -7.75670484e-02f, 7.71425888e-02f, -1.66326642e-01f, 7.29763508e-02f, 2.52178330e-02f, -1.89227492e-01f, 1.16854943e-01f, 2.24071760e-02f,
    3.21310498e-02f, -7.44125098e-02f, 6.92704692e-02f, -1.45454362e-01f, 5.70073836e-02f, -6.64029866e-02f, -3.99982668e-02f, 1.00854887e-02f,
    5.22986203e-02f, 4.32415716e-02f, 2.05410607e-02f, 1.99303497e-02f, -6.31669313e-02f, 1.31649509e-01f, 3.88475880e-03f, 1.60582244e-01f,
    -2.78813820e-02f, 2.46392995e-01f, 1.43094033e-01f, -1.62482679e-01f, 6.28086785e-03f, -3.48775163e-02f, 1.59518838e-01f, 2.10808113e-01f,
    1.48667023e-01f, -8.45102891e-02f, 2.61898190e-01f, 2.66675413e-01f, 1.08682215e-01f, -2.28252299e-02f, -9.55616683e-02f, -1.42034948e-01f,
    1.79840222e-01f, -1.16259970e-01f, 1.08742513e-01f, 2.66338810e-02f, -2.67541260e-02f, -8.79893973e-02f, 9.84458998e-03f, 1.73743725e-01f,
    8.99996981e-02f, 2.74992704e-01f, 2.26053402e-01f, 1.92182995e-02f, 3.54794562e-02f, -5.14199957e-03f, 3.47607136e-02f, 5.74065559e-02f,
    1.67759527e-02f, -1.20826617e-01f, 1.26977731e-02f, 2.71471322e-01f, 1.08958341e-01f, -1.10138394e-01f, -1.43646732e-01f, -5.88706993e-02f,
    4.82248478e-02f, 7.48444274e-02f, 3.59046832e-02f, 9.02200341e-02f, -1.52317986e-01f, 1.17300108e-01f, 8.25480670e-02f, 1.10983498e-01f,
    3.49723846e-02f, -4.32032682e-02f, 7.39493072e-02f, 1.57931015e-01f, -8.50969255e-02f, -1.60434008e-01f, -5.24162687e-02f, -1.30067319e-02f,
    -1.83110803e-01f, 1.40467092e-01f, -2.36121714e-02f, -4.20095474e-02f, -1.04273679e-02f, 1.26768291e-01f, -6.30360022e-02f, 1.01040050e-01f,
    -3.39527205e-02f, -2.69284081e-02f, 1.53265493e-02f, -2.45076090e-01f, -5.12044504e-03f, -1.64142698e-01f, 7.49939159e-02f, 8.41077715e-02f,
    4.76048440e-02f, -8.85039866e-02f, -1.51993454e-01f, 2.31645964e-02f, 1.74098849e-01f, 2.01827541e-01f, -3.45427804e-02f, -6.82487851e-03f,
    -2.46133447e-01f, -3.61599892e-01f, 1.25591412e-01f, -5.27252331e-02f, 5.38682826e-02f, -2.95549739e-06f, 1.40962303e-01f, 1.70957781e-02f,
    -2.66486909e-02f, -1.02253944e-01f, -1.45482812e-02f, 9.50327725e-04f, 7.61015788e-02f, 6.54985607e-02f, -1.29479006e-01f, -2.02067643e-01f,
    -1.72296781e-02f, 5.01426309e-02f, -5.72802313e-03f, -7.03976452e-02f, -9.85151157e-02f, -2.05353335e-01f, -6.73035756e-02f, -7.52677247e-02f,
    -9.89376381e-02f, -1.34577036e-01f, 2.40855440e-02f, -1.26987454e-02f, 1.59932062e-01f, -1.07816413e-01f, 9.34064910e-02f, -1.70946702e-01f,
    -2.29001924e-01f, -3.48426327e-02f, 1.26192458e-02f, -7.66670927e-02f, -6.83127251e-03f, 7.27716237e-02f, 1.23822838e-01f, -1.16392709e-01f,
    9.22616944e-02f, -4.27362397e-02f, -3.84366184e-01f, 2.10689418e-02f, -1.08179301e-01f, -1.42326862e-01f, -1.33757830e-01f, -6.55912384e-02f,
    -6.14993908e-02f, 6.59208447e-02f, 2.92501133e-02f, -8.51837394e-04f, -2.67744157e-02f, -9.02843028e-02f, -9.74715799e-02f, -6.91966265e-02f,
    1.14325948e-01f, 1.26094878e-01f, 2.42235120e-02f, -3.22603360e-02f, 3.53250490e-03f, 4.50684801e-02f, 6.73971623e-02f, 5.26734702e-02f,
    -1.37300745e-01f, -6.77070245e-02f, 1.02574296e-01f, -1.08286157e-01f, -7.91221261e-02f, 2.97947843e-02f, -4.36430424e-02f, -6.35463074e-02f,
    6.32167459e-02f, 1.40297543e-02f, -3.77330445e-02f, -6.66637048e-02f, 1.04602247e-01f, 9.37680528e-02f, -1.07718296e-01f, 2.89843371e-03f,
    -4.24961261e-02f, 2.39893398e-03f, 7.11107850e-02f, 3.47797163e-02f, -3.05225644e-02f, -1.58142466e-02f, -5.98337874e-02f, -9.28987190e-02f,
    -3.36207524e-02f, -3.69186550e-02f, -4.27364185e-02f, 1.73642244e-02f, 3.97795215e-02f, 7.06706792e-02f, 6.28558174e-02f, 3.18243243e-02f,
    7.34906644e-02f, 5.75338863e-02f, -1.26736432e-01f, 3.45222838e-02f, 1.56820100e-02f, -1.15916401e-01f, -1.36946455e-01f, -1.27453402e-01f,
    -1.44222707e-01f, 5.78572154e-02f, 1.85985491e-02f, 8.90171062e-03f, -3.86170298e-02f, 1.10127643e-01f, -3.48154455e-02f, -1.10074878e-01f,
    -4.25395697e-01f, -3.15665513e-01f, 6.02509417e-02f, -2.49694362e-02f, -1.02210701e-01f, -1.98316183e-02f, -5.59435785e-02f, 3.71406898e-02f,
    6.45143986e-02f, -1.65339991e-01f, -2.49714423e-02f, 2.33340394e-02f, 1.80467337e-01f, 4.87796776e-02f, 1.23606056e-01f, 1.89443287e-02f,
    1.00669451e-01f, -9.10239294e-02f, 9.82740778e-04f, -3.73163149e-02f, -1.57102391e-01f, -1.26351461e-01f, -3.33967507e-02f, 4.26991396e-02f,
    4.08005640e-02f, 1.06651545e-01f, -1.15615432e-03f, -1.09113909e-01f, 7.35275820e-02f, -1.46815196e-01f, 9.15215760e-02f, 1.87398985e-01f,
    9.16077718e-02f, -5.30431867e-02f, -2.05981527e-02f, 1.43057555e-01f, -6.30409047e-02f, 8.92052874e-02f, 1.90662462e-02f, 2.17021424e-02f,
    -1.77386969e-01f, -3.20266187e-02f, 8.87664482e-02f, -9.03078690e-02f, -1.19868830e-01f, 3.49808745e-02f, 1.22036427e-01f, 1.96178444e-02f,
    2.70111971e-02f, -2.99635585e-02f, 9.25303325e-02f, 3.36780585e-02f, 4.18654755e-02f, 3.52910124e-02f, -4.46278974e-02f, -4.52617556e-03f,
    -5.08198589e-02f, -5.99217005e-02f, -2.59067547e-02f, -1.42068155e-02f, -2.71311821e-03f, 4.37034965e-02f, 5.51299416e-02f, 3.31558799e-03f,
    2.73047220e-02f, 1.52767180e-02f, -2.77382582e-02f, -7.06913769e-02f, -1.50465339e-01f, -1.82729483e-01f, 9.34559032e-02f, -1.21563725e-01f,
    1.18422713e-02f, 4.72179726e-02f, 3.52626778e-02f, 3.17714643e-03f, -4.67876270e-02f, -1.07286582e-02f, 8.84881839e-02f, 6.21290356e-02f,
    -5.52155916e-03f, -5.29994769e-03f, -3.31292674e-02f, 5.81459180e-02f, -4.35253493e-02f, 2.91113984e-02f, -1.52242202e-02f, -5.87567315e-02f,
    -8.15852880e-02f, -1.94899528e-03f, 3.02116219e-02f, -4.70910817e-02f, -6.37261197e-02f, -2.75690053e-02f, 2.93590408e-02f, -7.89618567e-02f,
    -2.79283319e-02f, -1.35580096e-02f, -1.31269932e-01f, 1.58515736e-01f, 4.64535989e-02f, -3.20843279e-01f, -2.97810167e-01f, 3.26851159e-02f,
    -4.30670381e-02f, 5.96014448e-02f, -5.50220162e-02f, -1.49972429e-02f, 2.42239628e-02f, -6.43938854e-02f, 5.42964265e-02f, -2.65996084e-02f,
    -1.02805682e-02f, -5.47402203e-02f, 5.68787344e-02f, 5.17881140e-02f, 1.00961560e-02f, -3.56142558e-02f, 3.11381146e-02f, 1.50785804e-01f,
    -8.71679336e-02f, -4.14350569e-01f, -1.79243073e-01f, 3.14832712e-03f, -3.86013947e-02f, -1.26272552e-02f, -5.31377085e-03f, -4.96615432e-02f,
    -4.45859842e-02f, 8.79111141e-02f, -4.03729826e-02f, -1.00715227e-01f, 1.87154606e-01f, -6.32108971e-02f, -7.23210648e-02f, -1.00546144e-01f,
    3.53003055e-01f, 6.59415871e-02f, 3.01718801e-01f, 2.10241407e-01f, -4.30573300e-02f, -1.13824666e-01f, 9.97224473e-04f, -2.30457820e-02f,
    4.71596159e-02f, -1.98317915e-02f, 3.57831903e-02f, -8.01390558e-02f, 2.12867465e-02f, -2.76053920e-02f, -1.17584970e-02f, 2.40582287e-01f,
    -1.34311700e-02f, 6.16614148e-02f, 2.11652637e-01f, -8.33796114e-02f, -4.01732713e-01f, -9.15238187e-02f, 1.62795056e-02f, -1.22455098e-01f,
    -5.46001010e-02f, -2.07938869e-02f, 9.73676145e-03f, 3.15550745e-01f, 2.39521757e-01f, -2.06964642e-01f, -1.89864840e-02f, 2.80013144e-01f,
    2.92924810e-02f, 5.94547950e-02f, 6.29556403e-02f, 1.04064336e-02f, -9.14527699e-02f, 1.04532531e-03f, 5.32691786e-03f, 4.77881841e-02f,
    -2.86898404e-01f, -1.59446403e-01f, 1.63165018e-01f, 1.86156243e-01f, -2.11998701e-01f, -1.16721384e-01f, 1.88495249e-01f, 9.82539803e-02f,
    -2.29473673e-02f, 8.84425715e-02f, 6.42240718e-02f, -4.87324856e-02f, 2.14955695e-02f, 4.44390066e-02f, 7.72038475e-02f, 1.32790525e-02f,
    2.81512309e-02f, 6.45473450e-02f, 1.14104562e-01f, -5.57584129e-02f, 7.46994093e-02f, 8.34966227e-02f, -7.95541629e-02f, -1.71476811e-01f,
    1.22303978e-01f, 2.23305337e-02f, 9.16026905e-02f, 3.19354534e-02f, 3.37847741e-03f, 4.83896472e-02f, -5.05731776e-02f, -4.09374163e-02f,
    -1.79362714e-01f, -3.00178025e-02f, 1.10509470e-01f, -8.24210942e-02f, -5.11729717e-02f, -7.06508532e-02f, 1.32599339e-01f, 8.79159868e-02f,
    -5.11497520e-02f, 4.85480800e-02f, -8.57277215e-02f, -3.14268619e-01f, 1.37617067e-01f, 2.20331959e-02f, 1.92566365e-02f, -2.07772866e-01f,
    -1.73668265e-02f, 1.64983228e-01f, 1.56609323e-02f, 8.74469802e-02f, -1.03508405e-01f, -2.14771852e-01f, 2.71751564e-02f, -1.69106368e-02f,
    1.17749587e-01f, -1.32967141e-02f, -1.62646621e-01f, 1.68258116e-01f, -1.10680796e-02f, -2.93601546e-02f, 1.32418610e-02f, -9.96016525e-03f,
    -7.78937861e-02f, 1.14396334e-01f, -1.23297190e-02f, -2.19918806e-02f, -1.31276101e-01f, 1.95810050e-01f, 9.81917325e-03f, 6.04776926e-02f,
    1.36377692e-01f, -7.90951680e-03f, 8.40168819e-02f, 1.31927788e-01f, -2.57215556e-02f, -6.30998909e-02f, 1.27493432e-02f, -6.38151020e-02f,
    -3.84401791e-02f, 4.82843891e-02f, -6.05795793e-02f, 2.45650448e-02f, 1.50835607e-02f, -3.55639569e-02f, -1.73775293e-02f, -6.10415861e-02f,
    -5.65537065e-02f, 8.74956921e-02f, 3.81506719e-02f, -7.00957030e-02f, -9.11633074e-02f, -6.29126430e-02f, -8.35382566e-03f, 1.64843630e-02f,
    7.11682513e-02f, -1.41214818e-01f, 1.60885260e-01f, 5.48109226e-02f, 9.26651955e-02f, 8.13342780e-02f, 1.17039001e-02f, -1.21666551e-01f,
    -1.92421265e-02f, 2.95306798e-02f, 6.35041595e-02f, -2.38269374e-01f, -2.60553565e-02f, 1.03013270e-01f, 3.66629213e-02f, -7.74197327e-03f,
    -1.02698607e-02f, 5.78102097e-03f, 5.77001795e-02f, -1.18932948e-02f, -2.95594856e-02f, -1.04092568e-01f, 7.42355883e-02f, -4.93894145e-02f,
    2.61487532e-02f, 6.72692731e-02f, 3.86993624e-02f, 1.39921084e-01f, 7.43577331e-02f, -1.56467338e-03f, 2.14408431e-02f, -3.06454509e-01f,
    6.03391826e-02f, -3.93689908e-02f, 4.30157781e-02f, 5.52563630e-02f, -2.06872597e-02f, -1.61219433e-01f, -1.14250228e-01f, 2.15235204e-02f,
    5.13270944e-02f, -1.06253028e-02f, 5.14262207e-02f, -4.58436236e-02f, 5.02522402e-02f, -3.12564592e-03f, 2.37728655e-02f, 3.37522775e-01f,
    6.72733486e-02f, -1.08618632e-01f, -1.87706817e-02f, 1.26555920e-01f, -8.85554403e-02f, 2.20276136e-02f, -1.54600609e-02f, -1.24959700e-01f,
    -9.87386853e-02f, 4.32810895e-02f, -1.79312542e-01f, 1.68744013e-01f, 1.03786737e-01f, 8.58566314e-02f, -4.65224497e-02f, -3.28295417e-02f,
    3.31870615e-02f, -2.54374258e-02f, -1.29116224e-02f, 8.54031220e-02f, -1.01553209e-01f, -9.81609151e-02f, 5.03285490e-02f, -1.30508021e-01f,
    -2.62498766e-01f, 1.73914358e-01f, 7.53829405e-02f, -6.34508654e-02f, -1.09347224e-01f, -2.14812070e-01f, -1.72980800e-01f, 1.95410430e-01f,
    7.73676038e-02f, -2.15775996e-01f, 1.21616080e-01f, -3.16873305e-02f, 2.27971226e-02f, -9.26330388e-02f, -8.23217258e-02f, 2.27314401e-02f,
    1.85850970e-02f, -5.12670865e-03f, 3.43921706e-02f, -1.01205826e-01f, -1.26751363e-01f, 7.14036748e-02f, -5.14064431e-02f, -1.00637101e-01f,
    7.56407827e-02f, 7.84117803e-02f, 3.32503319e-02f, 1.29389316e-01f, 8.98697898e-02f, 2.81899627e-02f, -6.24665692e-02f, 1.51925441e-02f,
    4.87812497e-02f, 2.52769757e-02f, -3.99532467e-02f, -2.93237045e-02f, -3.43049467e-02f, 1.85721125e-02f, 7.03302845e-02f, 1.75779627e-03f,
    1.14414938e-01f, -7.30146244e-02f, 5.75537644e-02f, -2.04857737e-02f, -6.75857589e-02f, 2.27350593e-02f, -6.67126477e-02f, -5.15942015e-02f,
    -1.61331836e-02f, -1.27684250e-02f, 1.09776989e-01f, -1.33001059e-01f, 3.92737351e-02f, 6.81135058e-02f, -3.71939614e-02f, -4.77640815e-02f,
    -7.45081156e-02f, -1.00287430e-01f, -1.00353613e-01f, -1.81540195e-02f, 4.43401337e-02f, -5.67070991e-02f, 2.57292781e-02f, -3.08837947e-02f,
    3.34933773e-03f, -1.15080453e-01f, 4.14015055e-02f, 2.84234006e-02f, 1.39495963e-02f, -2.90036742e-02f, 1.10019863e-01f, 2.25397404e-02f,
    1.24576353e-01f, -5.71501292e-02f, 5.71753383e-02f, 2.67870039e-01f, -8.12421441e-02f, -4.37632740e-01f, -1.86178818e-01f, 4.67433929e-02f,
    2.27362458e-02f, 3.17838974e-02f, 1.30791396e-01f, 2.08018459e-02f, 1.18534110e-01f, 9.59827676e-02f, 2.50348169e-02f, -3.73126045e-02f,
    1.38399377e-01f, 2.52141953e-02f, -6.65605143e-02f, 1.31106868e-01f, 8.81752893e-02f, 6.60875216e-02f, -2.02947371e-02f, 3.34055200e-02f,
    -2.11747199e-01f, -1.70201436e-01f, -2.65970051e-01f, -1.91640388e-02f, 5.36027327e-02f, 6.72719851e-02f, 2.41854817e-01f, 9.75961685e-02f,
    -4.45218757e-03f, 8.88710562e-03f, -2.41478816e-01f, -3.12561542e-01f, -8.03259835e-02f, 5.15432395e-02f, -2.00150125e-02f, 6.29840866e-02f,
    -4.59099859e-02f, -2.30409592e-01f, 9.64968652e-02f, -9.19851065e-02f, -2.68914461e-01f, -2.65330821e-01f, -2.18873650e-01f, 7.66122760e-03f,
    3.01088970e-02f, 4.09196541e-02f, 3.47405337e-02f, 3.89809604e-03f, 5.40544167e-02f, -2.24206522e-02f, 7.71388710e-02f, 1.36077374e-01f,
    4.82258052e-02f, 5.57050668e-02f, 1.39705092e-01f, -2.35395193e-01f, -1.03863500e-01f, -7.68395588e-02f, -9.82370507e-03f, -1.55395627e-01f,
    -8.48381519e-02f, -1.41367868e-01f, 8.71176124e-02f, -1.69081992e-04f, -2.09965512e-01f, -3.13448489e-01f, -1.42427996e-01f, -5.85728325e-02f,
    9.24232323e-03f, 3.22446451e-02f, -6.99419470e-04f, -1.56039461e-01f, -1.76493600e-02f, 5.22925965e-02f, -2.82873213e-01f, 1.26124322e-01f,
    -1.95505381e-01f, -9.16222781e-02f, -4.90084887e-02f, -2.51590926e-02f, -8.40276629e-02f, -6.95131049e-02f, 3.38754952e-02f, 5.51560372e-02f,
    4.68416139e-02f, 1.85411498e-02f, 6.54874891e-02f, -2.36487295e-02f, 2.13121306e-02f, -2.64762565e-02f, 4.26129512e-02f, -2.56345630e-01f,
    1.87359720e-01f, 5.06533086e-02f, -1.30508780e-01f, -1.58422962e-01f, 1.10355206e-02f, -1.76711287e-02f, -9.71816629e-02f, -8.56295526e-02f,
    -4.22484353e-02f, -1.58388659e-01f, -7.80651793e-02f, 1.08179161e-02f, 4.50101122e-02f, -2.22036447e-02f, 5.46051189e-02f, 2.25261264e-02f,
    -2.08561458e-02f, 2.60581970e-02f, -1.97038930e-02f, 4.15524803e-02f, -6.05535470e-02f, -7.04141334e-02f, 8.77912492e-02f, 5.69857657e-02f,
    5.98098524e-02f, -6.50362745e-02f, -4.95287441e-02f, -2.47589603e-01f, -1.68149918e-01f, 3.55247408e-02f, -3.81415151e-02f, -4.61505800e-02f,
    9.54850689e-02f, -7.72316158e-02f, 1.54991206e-02f, 4.82862704e-02f, 3.43663618e-02f, 2.09053636e-01f, -1.65533591e-02f, 4.61404324e-02f,
    -4.94886823e-02f, -1.49838135e-01f, -2.96002999e-02f, -1.39837131e-01f, 2.86400947e-03f, 6.31347224e-02f, 1.43138152e-02f, -2.38122061e-01f,
    3.47944312e-02f, 6.72392473e-02f, 2.71695014e-02f, -2.67635249e-02f, 1.35892764e-01f, -1.78928450e-01f, 5.91789223e-02f, 7.78257921e-02f,
    -1.28188148e-01f, 1.42763212e-01f, -3.59205790e-02f, -9.87704098e-03f, -4.84026372e-02f, -3.02164346e-01f, -2.23572448e-01f, 4.65435013e-02f,
    -5.19118570e-02f, 1.64506808e-02f, -2.28521675e-02f, 7.23380446e-02f, 5.66724129e-02f, -1.64711103e-02f, 7.11070886e-03f, -1.00091919e-01f,
    -7.43351877e-02f, -1.24739945e-01f, 7.86310509e-02f, -6.33398071e-02f, 1.50273973e-02f, -4.10893828e-01f, -1.49075314e-01f, -5.80034219e-02f,
    -2.84782089e-02f, -4.78529781e-01f, -1.28143713e-01f, 8.60893801e-02f, 2.52612550e-02f, 4.45693918e-02f, 3.64107974e-02f, -3.08608562e-02f,
    -2.49921698e-02f, 8.21972340e-02f, 3.20554487e-02f, 1.86000187e-02f, 4.89813685e-02f, -1.98911875e-01f, 1.11806370e-01f, -4.97607701e-02f,
    1.05052236e-02f, 6.86597005e-02f, -4.04044241e-02f, 8.18095803e-02f, -3.68338986e-03f, 1.40025467e-01f, 3.19624878e-02f, -6.88698947e-06f,
    -3.74752060e-02f, -3.08598597e-02f, -4.21397947e-02f, -1.22738471e-02f, -4.34942544e-02f, -3.01463734e-02f, -6.25200104e-03f, 1.20920621e-01f,
    -1.11463353e-01f, -4.91246441e-03f, -1.00658394e-01f, -4.09441143e-02f, 6.11074045e-02f, 2.02513370e-03f, 1.31938353e-01f, 1.85315590e-02f,
    -2.05652369e-03f, 2.07507551e-01f, -1.28317326e-01f, -3.32179107e-02f, -5.22046089e-02f, -3.50406058e-02f, 2.39666607e-02f, -3.73190083e-02f,
    9.12841409e-02f, 4.82428670e-02f, -9.49727558e-03f, -9.63256359e-02f, 1.25202343e-01f, -7.92799070e-02f, 4.39137742e-02f, -2.59192977e-02f,
    6.45081997e-02f, -3.28717493e-02f, 3.09140921e-01f, -1.56078652e-01f, 8.43187124e-02f, -1.21748149e-01f, 3.04351989e-02f, -7.32053667e-02f,
    -4.54244651e-02f, -4.32726294e-02f, 7.64954090e-03f, -8.71995743e-03f, 7.28195980e-02f, 3.37398574e-02f, -3.06106592e-03f, -1.62751943e-01f,
    2.16022283e-01f, -1.30704179e-01f, 4.25016098e-02f, 4.95195873e-02f, 5.70471287e-02f, -1.58539563e-01f, 7.55395368e-02f, -1.75537884e-01f,
    5.16449921e-02f, 1.64192855e-01f, -1.65111810e-01f, 5.13120443e-02f, 1.71042944e-03f, 1.08505167e-01f, 5.59996814e-02f, -1.59821346e-01f,
    2.85530593e-02f, -2.48697549e-02f, -3.58586647e-02f, -3.88413146e-02f, 3.43709514e-02f, -8.06174800e-02f, 4.98912707e-02f, -8.08360279e-02f,
    -1.04625739e-01f, -9.66339484e-02f, -1.22383535e-02f, -6.93626478e-02f, -1.68585014e-02f, 8.87725689e-03f, -4.83451746e-02f, 4.24292386e-02f,
    3.62168290e-02f, -3.65191624e-02f, -6.41967542e-03f, -3.83996218e-02f, 9.33031961e-02f, 1.30339742e-01f, -8.94626677e-02f, 2.23091189e-02f,
    -1.23021565e-01f, 1.32610217e-01f, 2.29430720e-02f, -4.14210968e-02f, 6.35839924e-02f, 9.17312577e-02f, 1.65916413e-01f, 1.16690353e-01f,
    2.84381360e-02f, -3.79391760e-02f, 1.36966528e-02f, -8.27025920e-02f, 9.12515447e-02f, 1.48909329e-03f, -5.36392853e-02f, 2.31728870e-02f,
    3.96204703e-02f, 6.00923039e-02f, -4.91249077e-02f, -5.42699732e-02f, -1.07844947e-02f, -5.73631711e-02f, 1.57724783e-01f, 4.41393107e-02f,
    -7.66073763e-02f, -5.99012300e-02f, 9.08376649e-03f, 5.38606616e-03f, 2.67002545e-03f, 9.63090640e-03f, -4.49598432e-02f, 1.25049844e-01f,
    3.58481668e-02f, -6.80572307e-03f, 5.31718507e-02f, 9.96710211e-02f, 1.75132245e-01f, 1.91217482e-01f, 7.90318698e-02f, -3.64452600e-02f,
    5.12582809e-02f, -6.73734862e-03f, 6.55318722e-02f, -7.96775669e-02f, -5.80056831e-02f, -9.25306976e-02f, 2.07521409e-01f, 5.86857088e-02f,
    -1.26044318e-01f, -8.69687423e-02f, 1.41193599e-01f, -1.26252562e-01f, -1.33504167e-01f, 1.58780080e-03f, 1.76118284e-01f, 1.53209746e-01f,
    1.61496565e-01f, 1.42709225e-01f, 9.45753530e-02f, -1.26538679e-01f, 7.08491355e-02f, 1.52865171e-01f, -1.72997698e-01f, -1.60496578e-01f,
    4.74887118e-02f, 2.12719992e-01f, 2.40344614e-01f, 2.44926915e-01f, 1.31910920e-01f, -3.79083417e-02f, 1.37796730e-01f, 2.08676845e-01f,
    1.12646326e-01f, 1.28589213e-01f, 1.39426127e-01f, 2.05115110e-01f, 2.53917664e-01f, 1.41755477e-01f, 1.47238076e-01f, -1.63167208e-01f,
    9.25282836e-02f, -5.17625944e-04f, -1.87490836e-01f, 2.56590005e-02f, -3.03861629e-02f, -6.35307357e-02f, -2.30632760e-02f, -8.79545510e-02f,
    -6.32431358e-02f, 1.25640929e-01f, 6.58120513e-02f, 1.56878620e-01f, 9.45588574e-02f, 6.64671585e-02f, -5.45955636e-02f, -8.99686813e-02f,
    -1.90400500e-02f, 3.53918821e-02f, 1.71414949e-02f, 1.03734598e-01f, 1.03964880e-01f, 6.48591593e-02f, 7.31371418e-02f, 8.76219198e-02f,
    -3.85136940e-02f, -6.51223771e-03f, 1.68173276e-02f, -3.10172383e-02f, 1.02018893e-01f, 1.48035765e-01f, 1.45471513e-01f, 1.20602533e-01f,
    9.33454707e-02f, 4.73828055e-02f, 1.92868449e-02f, -5.73522449e-02f, -7.79016837e-02f, -2.53340993e-02f, -6.22181110e-02f, -8.63470957e-02f,
    -4.39929478e-02f, 2.54625708e-01f, 5.60048670e-02f, -2.15164330e-02f, 1.70959942e-02f, 1.89647302e-02f, -8.83190781e-02f, 5.29602543e-02f,
    1.06110955e-02f, 2.27218829e-02f, 1.60936471e-02f, -4.70038271e-03f, 1.18698040e-02f, 1.45164384e-02f, 9.86193344e-02f, 6.29516169e-02f,
    1.60573885e-01f, 9.13135484e-02f, -1.46524962e-02f, 1.29917786e-02f, -7.85407722e-02f, -1.11189485e-01f, -6.68266341e-02f, 7.18451589e-02f,
    2.36217659e-02f, 3.53475730e-03f, -7.10045397e-02f, -1.30165014e-02f, -5.35757327e-03f, 2.27171313e-02f, -8.90049487e-02f, -8.99938643e-02f,
    7.48402923e-02f, -7.11464435e-02f, 2.12943703e-02f, -6.21769167e-02f, 4.21922728e-02f, -3.87374073e-01f, 2.01909974e-01f, 1.37745298e-03f,
    1.37608528e-01f, -1.38481006e-01f, 7.50212446e-02f, 7.78812468e-02f, 8.88075307e-03f, -1.41799394e-02f, 2.44232267e-02f, -7.51726925e-02f,
    5.30269835e-03f, 9.07064378e-02f, 4.49940637e-02f, -5.18197119e-02f, -7.82107189e-02f, 7.19712973e-02f, -1.74543578e-02f, -5.15925437e-02f,
    -5.83967119e-02f, -1.94165081e-01f, 3.39303464e-02f, 8.68384093e-02f, 7.55971894e-02f, -2.15364937e-02f, -1.74547702e-01f, 1.25102431e-01f,
    8.85881633e-02f, -1.08949497e-01f, 3.25164571e-02f, -1.21392393e-02f, 1.53348250e-02f, -3.31226178e-02f, -2.56024189e-02f, -1.92859024e-01f,
    1.50207477e-02f, 2.15240307e-02f, 3.74748632e-02f, 2.81280160e-01f, 1.71636846e-02f, -1.06613763e-01f, -1.46459803e-01f, -6.56051636e-02f,
    -6.93666786e-02f, -9.65585560e-03f, -1.53586626e-01f, 4.78127003e-02f, 1.71061363e-02f, -6.08367249e-02f, -7.11618084e-03f, -1.35089979e-01f,
    -5.09093655e-03f, 1.27226844e-01f, 5.45369647e-02f, -1.01728469e-01f, 1.99651539e-01f, 6.01829551e-02f, -1.76467337e-02f, 7.10592419e-02f,
    -3.10172495e-02f, -1.59923404e-01f, -6.57290816e-02f, -8.70501436e-03f, -1.47873759e-01f, -1.00031264e-01f, -7.39269927e-02f, 1.00582093e-01f,
    2.07622610e-02f, -1.26210665e-02f, -8.08163136e-02f, -2.71684974e-01f, -1.03813127e-01f, 4.71075252e-02f, 1.23756990e-01f, 2.52807587e-02f,
    1.04461581e-01f, -6.57391734e-03f, 1.57009866e-02f, -5.39208241e-02f, -2.01653391e-01f, -4.29538302e-02f, 3.51456404e-02f, 1.32980682e-02f,
    -6.48557767e-02f, -1.64395452e-01f, 1.52415276e-01f, -5.31402230e-02f, 1.09913982e-01f, 5.14651760e-02f, 1.19385891e-01f, 3.34974229e-01f,
    7.73733258e-02f, -7.78248608e-02f, 7.22656399e-02f, -1.52334347e-01f, -1.10890768e-01f, 1.05216034e-01f, 6.96324781e-02f, -9.80179310e-02f,
    6.11379137e-03f, 1.07541084e-01f, 1.34833917e-01f, 4.16606031e-02f, -9.82974693e-02f, 2.09336970e-02f, -1.35495007e-01f, 1.04278274e-01f,
    1.09854586e-01f, -6.08959384e-02f, 5.08377738e-02f, -4.67623584e-02f, -1.40849173e-01f, -6.81594834e-02f, -3.01193416e-01f, 9.60753560e-02f,
    -7.67422467e-02f, -1.72098801e-02f, 6.40897974e-02f, 3.24749611e-02f, 7.15057552e-02f, 1.35644125e-02f, 7.26793632e-02f, 4.02089767e-02f,
    -1.98229477e-02f, -1.66517332e-01f, -2.21209615e-01f, 5.12738936e-02f, 3.65563668e-02f, 6.46075755e-02f, 1.01985015e-01f, -1.35343209e-01f,
    -8.70078132e-02f, -1.15873646e-02f, -7.36752152e-02f, -3.08553994e-01f, 5.38820624e-02f, 5.45495860e-02f, -2.66316552e-02f, -2.39054799e-01f,
    4.58732620e-02f, -7.52431750e-02f, 4.61239107e-02f, 7.58814886e-02f, -1.78591199e-02f, -9.03089046e-02f, -1.83698446e-01f, -4.20767255e-02f,
    1.30428402e-02f, -4.85309847e-02f, -8.35244954e-02f, -6.06805943e-02f, -4.38068509e-02f, -3.62880970e-03f, -1.87655687e-02f, -8.37089717e-02f,
    -3.09677087e-02f, -5.36517589e-04f, 5.24059543e-03f, 1.51362224e-03f, -1.95840318e-02f, 4.47093882e-02f, 4.57253344e-02f, 4.16181572e-02f,
    5.83759323e-02f, -1.75610885e-01f, -1.03394620e-01f, -7.17006996e-02f, -1.16454415e-01f, 5.55572733e-02f, 3.52422707e-02f, -1.75962467e-02f,
    9.42351595e-02f, 2.31976584e-02f, 7.98504129e-02f, 2.55624820e-02f, 5.02580851e-02f, 3.73273343e-02f, 4.29558605e-02f, -2.59754676e-02f,
    -3.12007312e-02f, -3.24821658e-02f, -5.65460883e-03f, 2.82130856e-02f, 6.40100092e-02f, 4.34274599e-02f, 3.40142325e-02f, -1.40907457e-02f,
    2.82101240e-02f, -1.46991909e-02f, -1.14530493e-02f, -8.34372342e-02f, 2.44020335e-02f, 4.81362864e-02f, 5.21595255e-02f, -6.75751343e-02f,
    -1.04461610e-01f, -1.01706170e-01f, 1.19050510e-01f, 2.82303959e-01f, 2.50201702e-01f, 7.13540092e-02f, 7.81541988e-02f, -4.81751561e-03f,
    -1.48551371e-02f, -1.39749363e-01f, 3.94578325e-03f, 5.70055582e-02f, 1.48752198e-01f, 3.39645930e-02f, -4.01338525e-02f, -1.62119299e-01f,
    -6.25324473e-02f, 5.95428646e-02f, -9.12003145e-02f, 3.91458124e-02f, -1.10548653e-01f, -5.05195260e-02f, -1.34506896e-01f, 6.70960844e-02f,
    4.70640436e-02f, 9.01193097e-02f, 2.88468171e-02f, -4.87015173e-02f, 3.44845504e-02f, -1.40368477e-01f, 5.93578257e-02f, -1.06494918e-01f,
    -2.83973128e-01f, -1.70608759e-01f, -2.44366065e-01f, 4.39957231e-02f, 1.22892410e-01f, -1.46480963e-01f, -8.35487470e-02f, 1.03334077e-01f,
    2.49839306e-01f, 2.26847902e-01f, -1.78878129e-01f, -1.26963213e-01f, -4.27343920e-02f, 1.28760248e-01f, 2.54116774e-01f, 6.06371947e-02f,
    -1.54775575e-01f, -9.56281573e-02f, -4.18928899e-02f, -1.25706553e-01f, 1.65966582e-02f, 9.76880342e-02f, 1.61966696e-01f, 2.28545114e-01f,
    9.54074189e-02f, 4.96014394e-02f, 1.39318049e-01f, 1.17762543e-01f, 4.76576462e-02f, -2.67446600e-02f, -2.64585670e-02f, -5.35211936e-02f,
    -8.56966674e-02f, -6.33914396e-02f, 3.40996287e-03f, -2.44658634e-01f, -2.01801479e-01f, -8.45564455e-02f, 1.54653892e-01f, 2.65560478e-01f,
    4.71096002e-02f, 5.34466095e-02f, 8.40814859e-02f, -6.39243126e-02f, 3.30929160e-02f, -4.18588845e-03f, 2.62366924e-02f, 1.53113693e-01f,
    1.64648175e-01f, -2.03523356e-02f, 2.34508198e-02f, -6.36069477e-02f, -1.65649027e-01f, -1.38876200e-01f, 5.82510489e-04f, -1.01132393e-01f,
    -4.80543002e-02f, -1.58582568e-01f, 4.25268039e-02f, -1.86197609e-02f, -3.45518556e-03f, -7.28749510e-05f, 5.12340479e-02f, -8.89830366e-02f,
    -1.52288061e-02f, -3.21220197e-02f, 7.01227635e-02f, 1.02422424e-02f, 4.90569882e-02f, 9.53910351e-02f, -9.97240841e-02f, 1.96999505e-01f,
    3.08728129e-01f, 3.02309215e-01f, 3.02830011e-01f, -7.67480955e-02f, -2.32522991e-02f, 9.85483676e-02f, 3.29160457e-03f, 2.98925117e-02f,
    -5.87886870e-01f, -1.66934654e-01f, 9.41224545e-02f, -1.22467421e-01f, -4.68842909e-02f, 1.28445968e-01f, 1.30053490e-01f, -2.85787862e-02f,
    -4.80382815e-02f, -9.16621462e-02f, -5.40711321e-02f, 8.18507448e-02f, 2.05388784e-01f, -1.39206946e-02f, -3.97486165e-02f, 6.06236868e-02f,
    1.85464710e-01f, 8.50364715e-02f, -6.89761415e-02f, -7.04494119e-02f, -4.55617085e-02f, 2.66365465e-02f, 2.29601040e-02f, -1.58622372e-03f,
    4.22813296e-02f, -6.01059794e-02f, 1.33084998e-01f, 5.05160242e-02f, -3.45629267e-02f, -4.27899100e-02f, -1.13051549e-01f, 1.88098736e-02f,
    1.12361610e-01f, -6.66883066e-02f, -1.95971839e-02f, -1.57509729e-01f, 1.28395930e-01f, 1.27758145e-01f, -7.27771968e-02f, -7.59423226e-02f,
    1.16839767e-01f, 3.76263037e-02f, -4.87220846e-02f, -6.00943416e-02f, -8.58493745e-02f, -2.87455469e-01f, -1.51362240e-01f, 3.07920426e-02f,
    -2.20211633e-02f, -4.91666282e-03f, -3.93987373e-02f, -3.58189829e-02f, -1.28902018e-01f, -1.00992098e-02f, -1.95572320e-02f, -5.37160188e-02f,
    6.95957914e-02f, 3.55212577e-02f, -1.11820260e-02f, 2.65959464e-02f, -2.94952933e-02f, 6.72395527e-02f, 1.26907378e-01f, -7.78865907e-03f,
    1.53276827e-02f, 7.74836317e-02f, 4.81327437e-02f, -7.23487604e-03f, 7.15355296e-03f, 3.12151923e-03f, -9.64109898e-02f, -5.67420060e-03f,
    3.23463492e-02f, 3.50223319e-03f, -1.56260990e-02f, -1.59778967e-01f, 1.49625242e-02f, -9.41696577e-03f, -5.02630696e-02f, 3.96870859e-02f,
    -2.72390153e-02f, -1.75569840e-02f, 2.58620419e-02f, 6.87668892e-03f, 2.97240037e-02f, -6.11055568e-02f, -5.10341823e-02f, -5.19320220e-02f,
    6.95992783e-02f, 1.45899570e-02f, 9.77507010e-02f, 1.64703041e-01f, 4.91031185e-02f, 4.38353308e-02f, 1.46406414e-02f, -1.43834129e-02f,
    6.58293813e-02f, 7.26502016e-02f, 4.77601364e-02f, -1.51462166e-03f, 1.09942751e-02f, -2.58816928e-02f, -7.01478347e-02f, -1.95919871e-02f,
    -8.66417736e-02f, -2.66322829e-02f, -1.98629778e-02f, 1.75479855e-02f, 4.63069901e-02f, 4.37837839e-03f, 3.29737067e-02f, 1.92283336e-02f,
    -2.72891611e-01f, -1.15153730e-01f, -7.94094801e-02f, -2.94658467e-02f, -6.15398847e-02f, -2.13795081e-02f, -2.63291504e-02f, -6.46467805e-02f,
    -1.30746700e-02f, -2.45430991e-01f, -2.89710797e-03f, 5.49212322e-02f, -1.90821234e-02f, 2.79137827e-02f, -1.79593321e-02f, -1.90628693e-02f,
    -9.73608904e-03f, -7.50621259e-02f, -1.56614855e-01f, -1.57409430e-01f, -2.24654898e-01f, -5.39988764e-02f, -1.11425512e-01f, -1.10910863e-01f,
    2.33488791e-02f, -4.09955531e-02f, 1.99518986e-02f, 4.96816188e-02f, -1.98173616e-02f, -1.09888524e-01f, 1.25071242e-01f, 7.83046633e-02f,
    -3.19404937e-02f, 9.76437330e-02f, -2.15119440e-02f, 1.11368977e-01f, -4.70167957e-02f, -1.93073768e-02f, 1.08315442e-02f, 7.71333277e-03f,
    5.08137643e-02f, -1.33536560e-02f, 3.39513458e-03f, 5.64177223e-02f, 7.80722452e-03f, 4.18719612e-02f, 5.32779209e-02f, -3.16177048e-02f,
    2.00213492e-02f, -5.20942993e-02f, -7.33481497e-02f, -1.25090703e-01f, -1.54713497e-01f, -9.16136652e-02f, 3.29839103e-02f, -7.54529163e-02f,
    -6.46532699e-02f, -1.47730917e-01f, 5.12376018e-02f, 1.26938879e-01f, 5.43201081e-02f, 4.37759683e-02f, -1.80692691e-02f, -1.60264134e-01f,
    9.65839103e-02f, -4.62614186e-02f, -6.78760931e-02f, 1.21920817e-01f, 1.06484227e-01f, 1.97928399e-01f, 3.63148935e-02f, -1.46083347e-02f,
    9.17588472e-02f, -5.79989627e-02f, -1.73758194e-02f, 1.09992601e-01f, 1.11088611e-01f, 6.62361756e-02f, -2.35087853e-02f, -6.84317648e-02f,
    5.55655956e-02f, -4.84054014e-02f, -6.56804815e-02f, -4.42233309e-02f, -2.11435221e-02f, 3.00418790e-02f, -5.81287779e-03f, 3.15116048e-02f,
    -1.78559169e-01f, 3.00495625e-02f, -1.11956589e-01f, -4.60761674e-02f, -4.22520079e-02f, -1.91071332e-01f, -9.72797722e-02f, 2.23007780e-02f,
    5.35615385e-02f, -8.54658410e-02f, -9.12258774e-02f, -1.09670088e-01f, -8.72903764e-02f, -6.35364056e-02f, 7.74347363e-03f, 1.25377223e-01f,
    1.67526737e-01f, -7.80590624e-03f, 6.14900887e-02f, 8.46988782e-02f, -8.09551775e-02f, -1.52546447e-02f, -2.81943791e-02f, -8.34691450e-02f,
    -4.95275557e-02f, 1.09474853e-01f, -1.40251711e-01f, -1.35760993e-01f, 8.76690447e-02f, 1.49599820e-01f, -5.90367541e-02f, -1.44846633e-01f,
    -3.83991636e-02f, -3.87217253e-02f, -1.45366654e-01f, 1.42275706e-01f, 1.76337197e-01f, -2.49009490e-01f, 4.06225286e-02f, 1.24292951e-02f,
    4.93287295e-02f, 1.57357991e-01f, 1.78000908e-02f, 2.24768389e-02f, -1.00168251e-01f, 2.93206424e-01f, 1.30039528e-01f, -2.49096304e-02f,
    -8.21932629e-02f, -1.49652258e-01f, -7.26148114e-03f, 1.59140043e-02f, 4.73670773e-02f, 5.56493960e-02f, 4.45944332e-02f, 4.61447760e-02f,
    -7.05881491e-02f, -4.08009626e-02f, -3.58859822e-02f, -1.28699154e-01f, -5.21522388e-02f, 6.22317046e-02f, 4.10778308e-03f, -4.46586460e-02f,
    6.19557090e-02f, 1.96501315e-01f, -5.15850373e-02f, 2.38149725e-02f, -1.48094773e-01f, -1.22291803e-01f, -4.93243672e-02f, -2.28706505e-02f,
    3.92387435e-02f, -4.70573865e-02f, -9.26801562e-02f, -5.74660450e-02f, 1.07457459e-01f, 6.38699010e-02f, -1.03151277e-01f, -2.61071354e-01f,
    1.90266907e-01f, -2.15355027e-02f, 8.46050680e-02f, 6.41962364e-02f, 6.10987283e-02f, -6.18153550e-02f, -1.36969974e-02f, -6.05262928e-02f,
    9.46322735e-03f, 1.71803087e-02f, -7.03411996e-02f, -4.75114733e-02f, -4.56960872e-02f, -4.80517820e-02f, -5.83450943e-02f, -6.31258637e-02f,
    2.59303868e-01f, -3.61945108e-02f, -9.97713879e-02f, -7.70353824e-02f, 2.42307759e-03f, 1.07204858e-02f, -3.08255423e-02f, -8.49827826e-02f,
    -5.83834806e-03f, 5.29285334e-02f, -1.70765847e-01f, 9.17875841e-02f, -2.91773141e-03f, -8.87881368e-02f, 2.55496651e-01f, 1.19249560e-01f,
    -1.01234160e-01f, -1.90070570e-01f, -2.23800138e-01f, -3.54844630e-02f, -2.99906116e-02f, -5.29931299e-02f, -7.34472349e-02f, -7.84430057e-02f,
    4.63433377e-03f, 3.13512646e-02f, 7.15460107e-02f, 9.28921700e-02f, 6.67107403e-02f, -4.77091521e-02f, 1.30200237e-01f, -6.23093918e-02f,
    -5.95453680e-02f, 1.08334711e-02f, -1.15118762e-02f, 8.80275965e-02f, -6.50569946e-02f, 9.74069387e-02f, -1.84664935e-01f, -4.89270948e-02f,
    1.45750448e-01f, 6.04718402e-02f, -5.86206876e-02f, -1.03545554e-01f, 9.32306647e-02f, 1.59911633e-01f, -1.25111565e-01f, 5.71626052e-02f,
    3.23172435e-02f, 6.32986054e-02f, 1.51486229e-02f, 7.49451518e-02f, 1.50380194e-01f, -1.24091335e-01f, 4.77391444e-02f, -1.66361675e-01f,
    -8.16847980e-02f, 6.30088001e-02f, -7.40088075e-02f, 1.13218073e-02f, 6.91603422e-02f, 6.29186034e-02f, 9.28897858e-02f, -1.48156837e-01f,
    -2.08655179e-01f, 5.30327857e-02f, 2.45106984e-02f, 3.21796723e-02f, -1.13708086e-01f, 2.32802276e-02f, -1.35102384e-02f, 8.31437763e-03f,
    -2.73613818e-02f, -1.25679784e-02f, -8.10021237e-02f, -2.33899876e-02f, -8.22771266e-02f, -4.87518758e-02f, -1.48796886e-01f, -1.71272699e-02f,
    1.04245625e-01f, -7.17981579e-03f, 1.76872000e-01f, -6.59071133e-02f, -1.14128005e-03f, 2.63806414e-02f, -3.41024548e-02f, 1.12978555e-02f,
    -1.66273601e-02f, 5.38760237e-02f, 4.52047549e-02f, 1.90040618e-01f, -7.41721243e-02f, 1.32990718e-01f, -7.39805773e-02f, -1.09498955e-01f,
    -1.13439210e-01f, -6.38231859e-02f, -2.29063436e-01f, -9.10594221e-03f, 7.16552064e-02f, -7.73373060e-03f, 1.19919710e-01f, -1.22773521e-01f,
    -2.09513232e-02f, -1.03612550e-01f, -8.62802789e-02f, -1.72603026e-01f, -2.09754989e-01f, 3.35562713e-02f, -8.87541622e-02f, -1.25161290e-01f,
    -1.60786733e-01f, -9.11163464e-02f, -1.26098558e-01f, -1.18451677e-01f, -1.50773570e-01f, -3.11392754e-01f, -2.01185599e-01f, 2.22748537e-02f,
    1.85566097e-02f, 7.78160617e-02f, -8.86880457e-02f, 2.53833886e-02f, -1.06033487e-02f, -1.24294255e-02f, -9.32975858e-02f, -5.44289611e-02f,
    1.04056381e-01f, 4.03971672e-02f, -3.51355672e-02f, 4.11006324e-02f, -2.23990515e-01f, -2.75558472e-01f, -4.62219901e-02f, 1.91371012e-02f,
    6.49986342e-02f, -6.86673746e-02f, -8.79402608e-02f, -1.22452661e-01f, 9.39717703e-03f, -6.50010929e-02f, -2.79045142e-02f, 5.11071980e-02f,
    1.87517434e-01f, 3.39626260e-02f, 1.88556582e-01f, -3.39285657e-02f, 1.29069924e-01f, -5.76635934e-02f, -5.45735471e-02f, -1.99973419e-01f,
    1.76554844e-02f, -2.93454349e-01f, -4.20874245e-02f, 4.93214279e-02f, 2.00125538e-02f, -3.64215821e-02f, 1.11275785e-01f, -7.29363561e-02f,
    2.11122856e-02f, -6.86307698e-02f, 1.15639046e-01f, -2.50170290e-01f, 4.96714003e-02f, 3.12184058e-02f, 2.97018569e-02f, -2.67368071e-02f,
    6.25372976e-02f, 1.49929926e-01f, -2.33720183e-01f, 3.01921982e-02f, -1.82602942e-01f, 7.46882707e-02f, -2.00257435e-01f, -1.84295177e-01f,
    -2.10037470e-01f, -7.97204822e-02f, 6.93616718e-02f, -8.58705118e-02f, -5.77182658e-02f, -2.17691679e-02f, 6.86385110e-02f, -1.15379311e-01f,
    8.64995867e-02f, -4.90840618e-03f, 4.57331575e-02f, 3.86252850e-02f, 1.18619420e-01f, -3.93317305e-02f, 1.42338946e-02f, 6.13424443e-02f,
    -2.01620445e-01f, 1.66976750e-01f, -2.23773140e-02f, 2.16810554e-02f, 9.25671682e-02f, -1.58871725e-01f, 1.29583664e-02f, 4.79724593e-02f,
    -4.06133272e-02f, -6.64906800e-02f, -5.35094105e-02f, 7.99417198e-02f, -1.12991720e-01f, -1.18493766e-01f, -1.06909508e-02f, -8.14421400e-02f,
    2.41063133e-01f, -5.24301641e-03f, -4.61589843e-02f, -2.56977044e-02f, -2.06353605e-01f, 1.30148366e-01f, 1.81060322e-02f, 2.64507290e-02f,
    -4.43389490e-02f, 8.48909765e-02f, -2.08638459e-01f, -2.08893809e-02f, -1.86168328e-02f, 4.15813476e-02f, -1.25134677e-01f, 1.05214849e-01f,
    8.41846876e-03f, -1.03907429e-01f, 3.74134660e-01f, -6.28560456e-03f, 1.24300718e-01f, 1.13457721e-02f, 4.53955494e-02f, 1.24844767e-01f,
    -3.53018660e-03f, -2.02632084e-01f, -1.96378026e-02f, 1.44030759e-02f, -2.67363824e-02f, -6.27927482e-02f, -3.84875312e-02f, 2.42280657e-03f,
    -5.29312454e-02f, -5.86072542e-02f, -2.55727172e-01f, -2.77475957e-02f, 1.18766166e-02f, 4.75486703e-02f, 2.43089627e-03f, -1.65802687e-02f,
    -2.65507877e-01f, 5.38157187e-02f, -2.05362868e-02f, -2.55030036e-01f, -1.56782001e-01f, -8.70379061e-02f, 6.99217469e-02f, 3.46677303e-02f,
    8.66502002e-02f, 8.57035220e-02f, 1.89355258e-02f, -3.82212400e-02f, 4.91199642e-03f, -3.49637158e-02f, -2.91011622e-03f, 2.06799850e-01f,
    -6.09558783e-02f, 2.81354282e-02f, -4.44445107e-03f, 4.48974073e-02f, 1.11863308e-01f, -3.88654545e-02f, -6.18820377e-02f, -1.19121142e-01f,
    7.98191652e-02f, -1.08293844e-02f, -4.47272584e-02f, -4.79705334e-02f, -3.54541801e-02f, -1.28173545e-01f, -6.91061020e-02f, 2.88551860e-02f,
    9.82603803e-02f, -4.33644466e-02f, 9.42188352e-02f, 5.68129681e-02f, -6.17072694e-02f, -4.26187506e-03f, -1.68194417e-02f, -5.07455468e-02f,
    4.72209929e-03f, -5.23135811e-02f, -1.25334579e-02f, -8.12376216e-02f, 2.38676444e-01f, 3.56001854e-02f, -1.16856480e-02f, 3.24728265e-02f,
    -4.85407561e-02f, -1.13809370e-02f, -1.52736187e-01f, -3.45465504e-02f, 6.40299618e-02f, 1.24545358e-01f, -1.95065141e-02f, 3.03666573e-02f,
    -1.88719928e-01f, -5.35899103e-02f, -6.82222098e-02f, 5.76670393e-02f, -1.68753982e-01f, 9.91443824e-03f, -5.91666102e-02f, -6.61809593e-02f,
    -6.99523464e-02f, -1.78433098e-02f, -6.23859763e-02f, -1.31814957e-01f, 8.65968037e-03f, -5.83863817e-02f, -1.41630098e-01f, 8.05810094e-02f,
    3.78729589e-02f, 6.13353327e-02f, -8.29765052e-02f, 2.80791998e-01f, 2.10573282e-02f, -7.64229298e-02f, -3.45891006e-02f, 2.37855669e-02f,
    -2.20797718e-01f, 2.65207794e-02f, 1.57455996e-01f, -3.76462601e-02f, 1.58968166e-01f, -2.56767962e-02f, 1.51734864e-02f, -7.77604466e-04f,
    6.45271391e-02f, 6.13190793e-02f, -1.39992148e-01f, -5.13244532e-02f, 8.51198286e-03f, 1.17294431e-01f, -9.87096503e-02f, -6.28727823e-02f,
    -1.56870097e-01f, 1.04923911e-01f, -1.24799460e-01f, 3.29680666e-02f, -1.77020505e-02f, -2.07800847e-02f, -8.83398205e-03f, -2.18802616e-02f,
    1.02822095e-01f, 2.91559678e-02f, -7.26974756e-02f, 8.50149542e-02f, -1.79978892e-01f, 5.52553535e-02f, -4.76125851e-02f, -5.23584038e-02f,
    6.62047975e-03f, -6.72397465e-02f, 5.29985875e-02f, 9.43500847e-02f, 7.29659852e-03f, -1.13623803e-02f, -8.32997262e-02f, 4.42602560e-02f,
    -1.03406534e-02f, -4.25519794e-02f, 1.00187279e-01f, -3.24969068e-02f, 7.52340257e-02f, 4.79447050e-03f, 1.41066052e-02f, 4.92391922e-02f,
    -1.53128468e-02f, 1.80280693e-02f, -6.74267188e-02f, -1.21419104e-02f, 2.52723340e-02f, -8.74391794e-02f, 9.28657129e-02f, -1.36003988e-02f,
    2.88604889e-02f, 4.57564695e-03f, -8.83257110e-03f, 2.13686172e-02f, 2.59358436e-02f, 3.17941122e-02f, 1.45223169e-02f, 8.43750834e-02f,
    -5.29913232e-02f, 6.96011484e-02f, -1.68525219e-01f, -4.68834609e-01f, 2.18328014e-02f, 8.50960165e-02f, 2.10116943e-03f, -1.35619789e-01f,
    1.55054674e-01f, -1.90609396e-01f, 1.62195966e-01f, -8.58014375e-02f, -9.26090926e-02f, 4.57291529e-02f, -1.67030897e-02f, -1.21880703e-01f,
    1.62980724e-02f, 7.45301545e-02f, -4.58773971e-02f, 1.89152882e-01f, -6.33546486e-02f, 1.36121243e-01f, -1.85373962e-01f, -1.71254463e-02f,
    -1.18753508e-01f, -1.18670106e-01f, -7.57857487e-02f, -8.54806304e-02f, 5.57612069e-02f, -9.81686488e-02f, 7.07441568e-02f, -2.80098896e-02f,
    -1.66155398e-01f, -8.18762854e-02f, -5.77918850e-02f, -1.20019019e-01f, -2.30232194e-01f, 3.27661969e-02f, -9.55244377e-02f, -1.17217399e-01f,
    -1.42127648e-01f, -2.61965059e-02f, -1.71897992e-01f, -1.39639661e-01f, -6.44509047e-02f, -2.18443066e-01f, -1.04161933e-01f, 8.85887444e-02f,
    -1.08416252e-01f, 2.80594714e-02f, -6.16721548e-02f, 1.81672975e-01f, 1.17133602e-01f, 6.48603737e-02f, -1.67038497e-02f, -1.05024703e-01f,
    8.94252509e-02f, -2.70563573e-01f, -1.84421465e-01f, 5.96874813e-03f, -8.87458846e-02f, -6.50419816e-02f, -5.66281304e-02f, 1.27342612e-01f,
    9.97331515e-02f, 9.08396672e-03f, 5.97231649e-02f, -1.32047340e-01f, 1.98946938e-01f, 3.74966972e-02f, -5.13614155e-02f, -3.49832885e-02f,
    1.09657444e-01f, -1.08054116e-01f, 1.48970872e-01f, 1.49377109e-02f, 1.79023281e-01f, -1.32968843e-01f, -6.27559125e-02f, -2.45426416e-01f,
    -7.18818605e-02f, -7.05693141e-02f, -1.08170062e-02f, 7.75847360e-02f, 2.33879343e-01f, 7.65302330e-02f, 8.38901103e-02f, -1.60829484e-01f,
    7.72017613e-02f, -1.21559553e-01f, 8.59197974e-02f, -1.59745872e-01f, 1.46704167e-01f, -6.81522638e-02f, 1.36470616e-01f, -1.29480764e-01f,
    1.01298645e-01f, 9.22028869e-02f, -1.22141823e-01f, 9.30531472e-02f, -1.55481502e-01f, 5.45229353e-02f, -8.26606750e-02f, -9.39970389e-02f,
    -3.23679566e-01f, 2.10730229e-02f, 6.38387576e-02f, -9.49246734e-02f, -5.14240079e-02f, -9.95604023e-02f, -7.41993263e-02f, -6.10844530e-02f,
    -1.81143731e-01f, -8.68866369e-02f, -3.92128006e-02f, 8.69481862e-02f, 8.77989456e-02f, -3.25722061e-02f, -3.13001931e-01f, -7.59125277e-02f,
    -3.33687700e-02f, 2.09161639e-01f, -4.24352139e-02f, -1.29539594e-01f, -1.36433691e-01f, -4.86313701e-02f, 5.03580756e-02f, -6.57654554e-02f,
    -1.47220165e-01f, -6.44845292e-02f, 4.75269593e-02f, 1.56257227e-01f, -1.54710829e-01f, -1.39191076e-01f, 5.28963022e-02f, 7.55695403e-02f,
    1.48526013e-01f, 3.11578438e-02f, 1.18253127e-01f, 2.36983132e-02f, -6.65045008e-02f, 2.11863294e-02f, 1.39281318e-01f, 1.78626776e-01f,
    9.55145732e-02f, 2.36633476e-02f, -1.17280349e-01f, -9.28711146e-02f, 9.01888236e-02f, 1.45617472e-02f, 1.29308486e-02f, 9.31715369e-02f,
    6.67085201e-02f, -4.14128080e-02f, 1.55942172e-01f, -3.67361829e-02f, 1.52479544e-01f, 4.37159836e-02f, -4.47536074e-02f, 8.70850682e-02f,
    -1.24253407e-01f, -1.49844691e-01f, -1.95890442e-02f, -3.08596138e-02f, -6.67947233e-02f, 5.22614969e-03f, 7.70219937e-02f, -7.91162625e-02f,
    -2.04142593e-02f, -2.21532062e-02f, 1.23997685e-02f, -5.48433810e-02f, 3.48017104e-02f, 4.05982360e-02f, -7.32306018e-02f, 3.08177248e-02f,
    6.03852607e-02f, 7.76870623e-02f, -7.48700425e-02f, 2.13295780e-02f, 9.94699895e-02f, -7.94291943e-02f, -1.85732869e-03f, 2.10621562e-02f,
    -6.56508803e-02f, -1.88574996e-02f, -8.61589387e-02f, -3.94417465e-01f, -3.60599905e-01f, -1.09119579e-01f, 1.14398085e-01f, 1.67033449e-01f,
    5.58116361e-02f, 1.12370923e-01f, -1.76748149e-02f, -3.57329436e-02f, -2.80226022e-02f, -1.04891203e-01f, -1.96052566e-01f, -9.44270790e-02f,
    -8.10820144e-03f, 4.92908582e-02f, 6.66444153e-02f, -1.32115686e-03f, -1.08756691e-01f, -4.26423177e-02f, 3.00283004e-02f, -3.36296558e-01f,
    -1.03586994e-01f, -3.34518999e-02f, 8.34678039e-02f, -2.45126546e-03f, 6.28658459e-02f, -1.44465249e-02f, 9.96212736e-02f, 9.47132334e-02f,
    3.85889560e-02f, -1.46107227e-01f, -1.00519463e-01f, -6.89111203e-02f, 1.44456953e-01f, 1.78538859e-02f, 9.39059705e-02f, -1.09578921e-02f,
    4.82497141e-02f, 7.06008822e-03f, 1.17707312e-01f, 1.59884021e-02f, 2.27721520e-02f, 2.63973288e-02f, -1.03837095e-01f, -5.36359772e-02f,
    -2.22250327e-01f, 1.97584536e-02f, -1.38388887e-01f, -3.10582537e-02f, -8.96739513e-02f, -1.93213671e-01f, -1.61085859e-01f, -2.58120708e-03f,
    -8.78701657e-02f, 4.33597900e-02f, 1.01645663e-02f, 6.35268092e-02f, 1.97442360e-02f, -8.40510428e-02f, -2.60375086e-02f, -6.21239319e-02f,
    -1.40513524e-01f, -4.13707457e-02f, -4.85435762e-02f, 1.23097241e-01f, -5.54864947e-03f, -2.58035332e-01f, -2.34818831e-01f, 2.08941400e-02f,
    4.27354388e-02f, -3.51866968e-02f, -2.71221530e-02f, -1.00449219e-01f, 1.03573874e-01f, -3.28792306e-03f, 4.82777692e-02f, -1.23553490e-02f,
    7.97204114e-03f, 4.78656264e-03f, -7.40260184e-02f, -7.39945024e-02f, -1.20112203e-01f, -1.46389659e-02f, -4.19216901e-02f, 9.94445458e-02f,
    -3.09099387e-02f, 2.07795892e-02f, -4.77110595e-02f, -1.02542331e-02f, -6.22310042e-02f, -1.18781969e-01f, -1.87133700e-01f, 5.86885586e-02f,
    6.18770160e-02f, 4.42664623e-02f, -1.67043149e-01f, -3.47748250e-01f, -2.99024522e-01f, -8.90864991e-04f, 1.13957003e-01f, -1.37935191e-01f,
    -1.83280647e-01f, 1.42802047e-02f, 1.03759505e-01f, 1.37675554e-01f, 7.07696602e-02f, 2.01518554e-02f, 7.94007629e-02f, 6.36974350e-04f,
    1.04432032e-02f, -4.05161753e-02f, -6.09041415e-02f, -5.09766638e-02f, -3.17997672e-02f, 1.16349727e-01f, -2.43679821e-01f, -1.31478250e-01f,
    -3.30795944e-02f, 4.27487977e-02f, -2.23609172e-02f, -8.83860216e-02f, -1.31787628e-01f, -1.83120847e-01f, 7.42307827e-02f, 9.02932659e-02f,
    4.54978421e-02f, -1.47805072e-03f, 1.02692820e-01f, -8.43870547e-03f, -5.16144782e-02f, -8.14073086e-02f, -1.51556641e-01f, -1.79137334e-01f,
    9.26786885e-02f, -3.46227027e-02f, 8.52000155e-03f, -4.11804169e-02f, 1.97546389e-02f, -3.55729312e-02f, -7.76816607e-02f, -1.80278674e-01f,
    -1.83280528e-01f, -2.29391336e-01f, 6.71626255e-02f, 1.84063856e-02f, -4.70357239e-01f, -4.41388994e-01f, -3.82011265e-01f, -4.89955954e-02f,
    3.70818637e-02f, -5.08789718e-01f, -3.16298127e-01f, 2.41345204e-02f, 6.41541407e-02f, 1.29172087e-01f, 1.07611448e-01f, 4.78400849e-02f,
    -3.44768539e-02f, -6.38413057e-02f, -1.08628631e-01f, -4.74659875e-02f, -3.89026552e-02f, -2.13514955e-04f, 3.31348777e-02f, 7.27567077e-02f,
    2.00787820e-02f, 1.30283963e-02f, -5.52277938e-02f, -5.15240282e-02f, -3.96931842e-02f, 1.79134496e-02f, 9.43768248e-02f, -1.27701657e-02f,
    -9.23070591e-03f, 8.05730280e-03f, 1.01275099e-02f, -6.38542026e-02f, -9.17668734e-03f, 4.76260781e-02f, -1.14981690e-03f, -3.65336575e-02f,
    -6.85460940e-02f, 4.82368320e-02f, 5.23040369e-02f, -1.02064228e-02f, 1.02674305e-01f, 6.88086823e-02f, 7.60403723e-02f, 1.98020432e-02f,
    1.44987972e-02f, 2.37146784e-02f, -7.63806179e-02f, -9.95103940e-02f, -1.07503999e-02f, 3.59622426e-02f, 4.28295601e-03f, -7.04286173e-02f,
    1.49816424e-01f, 3.37407477e-02f, 2.45862380e-02f, 6.26251176e-02f, 4.91289087e-02f, -2.59361006e-02f, -1.51872709e-02f, 6.46702051e-02f,
    -1.14360498e-02f, 2.76280995e-02f, -4.48519252e-02f, -1.31951775e-02f, -1.11983068e-01f, -5.96198253e-02f, -1.41964138e-01f, 8.47738758e-02f,
    -7.61919022e-02f, 4.67574969e-02f, 4.69347052e-02f, 5.34788854e-02f, 3.32552642e-02f, 5.84916882e-02f, 4.20315266e-02f, 3.08248866e-02f,
    -4.78410125e-02f, -1.63330398e-02f, 4.10555564e-02f, -1.15934628e-04f, -3.11883241e-02f, -2.81700432e-01f, -1.92921489e-01f, -1.82657734e-01f,
    5.68244010e-02f, -8.89831632e-02f, -7.79142454e-02f, -4.99461591e-03f, 5.98532008e-03f, 2.17720494e-02f, -7.00684339e-02f, 2.27362346e-02f,
    -8.22634846e-02f, 2.29891911e-02f, 6.84725791e-02f, -9.07353461e-02f, -1.84878841e-01f, -1.03264511e-01f, 2.07528360e-02f, 4.32992689e-02f,
    1.26125906e-02f, 5.51385805e-02f, -8.44704658e-02f, -5.93577512e-02f, -1.75795946e-02f, -1.65297285e-01f, -2.84349412e-01f, -2.49469146e-01f,
    -1.02125332e-01f, -1.62635818e-02f, 2.65899766e-02f, -8.34560096e-02f, -8.40066373e-02f, -2.25407839e-01f, -3.09249032e-02f, 4.68694158e-02f,
    -9.22739953e-02f, -2.21793935e-01f, -1.70509011e-01f, -5.79247884e-02f, 1.39018223e-02f, 1.85905918e-02f, 3.88990343e-02f, 1.01932529e-02f,
    -8.77211839e-02f, 1.20583538e-03f, -1.96312234e-01f, -2.51253217e-01f, -4.84343648e-01f, -3.64691503e-02f, -3.76744792e-02f, 6.13476709e-02f,
    2.41137538e-02f, -9.04842466e-03f, -1.01218976e-01f, -4.65753675e-02f, -1.25055820e-01f, -2.73393780e-01f, -6.25984907e-01f, -4.95398715e-02f,
    -4.40030955e-02f, -9.63453129e-02f, 9.05608758e-02f, 4.67849076e-02f, -2.32314896e-02f, -7.15497285e-02f, 2.60820854e-02f, -1.11174649e-02f,
    -5.96542805e-02f, 3.05409916e-03f, 5.31474464e-02f, 4.95699197e-02f, 8.02886039e-02f, 1.43613055e-01f, -5.00308983e-02f, -1.89824142e-02f,
    -9.48771834e-02f, -1.06760763e-01f, -4.84990925e-02f, 8.34575947e-03f, 5.57647347e-02f, 2.26645730e-02f, -3.79044302e-02f, -8.32547471e-02f,
    3.29698734e-02f, -4.66857152e-03f, 1.64731834e-02f, -4.71489690e-02f, -1.06537323e-02f, 1.18279336e-02f, 2.85739172e-02f, -1.04014743e-02f,
    -2.99069136e-02f, -1.38430193e-01f, -4.51096743e-02f, -3.80657613e-02f, -2.27845814e-02f, -1.08248927e-01f, -8.46730694e-02f, -2.98567619e-02f,
    6.59723133e-02f, 8.29310194e-02f, 6.77378178e-02f, 5.13113067e-02f, 3.19797965e-03f, 1.17635736e-02f, 7.27983564e-02f, 4.70682755e-02f,
    1.63044408e-01f, 6.29852265e-02f, 8.23125616e-03f, 1.90402090e-04f, -2.41315048e-02f, 1.01234568e-02f, 2.56455280e-02f, -1.28995103e-04f,
    -9.36332643e-02f, -2.62649238e-01f, -1.39079154e-01f, -1.13046532e-02f, -1.03821486e-01f, -2.85423864e-02f, -4.67087477e-02f, -8.45721513e-02f,
    -6.18429668e-02f, -3.53406742e-02f, 5.49516492e-02f, -4.48006056e-02f, -2.03389116e-02f, -3.83806322e-03f, -3.16701420e-02f, -1.55470341e-01f,
    -8.95788223e-02f, 5.88581413e-02f, 2.99319532e-02f, -2.46222652e-02f, 7.37899691e-02f, -7.56412977e-03f, -7.02535287e-02f, -1.98570155e-02f,
    -5.56515008e-02f, 1.67338178e-02f, -2.56327856e-02f, -2.52308417e-02f, -2.16749027e-01f, -6.08424731e-02f, -1.43882588e-01f, -6.32640421e-02f,
    -1.90457888e-02f, 4.08716314e-02f, -3.22061218e-02f, 7.24385232e-02f, -2.75596231e-02f, 1.40748531e-01f, -3.29808928e-02f, 3.45380902e-02f,
    -4.95895110e-02f, 1.01185292e-02f, -7.00690076e-02f, 4.42699902e-03f, -1.02351308e-01f, 2.79796440e-02f, -1.97598442e-01f, -2.79415101e-01f,
    -2.55186528e-01f, -1.01246737e-01f, -1.21357158e-01f, -3.63452256e-01f, -1.49417967e-01f, 2.34135594e-02f, -6.92126676e-02f, 5.45032546e-02f,
    -2.34641600e-02f, 3.62205170e-02f, -1.36580858e-02f, 7.71283433e-02f, 4.72285552e-03f, -8.97589102e-02f, 4.24645953e-02f, 6.57832101e-02f,
    1.00607919e-02f, 1.34722978e-01f, -1.83953002e-01f, -6.59671724e-02f, 1.55757200e-02f, -1.32240709e-02f, 1.19757779e-01f, 4.08641770e-02f,
    -3.66781019e-02f, -3.77634428e-02f, -9.68509763e-02f, -4.60107699e-02f, -1.77500650e-01f, -1.18861169e-01f, -1.73538681e-02f, -1.08339936e-01f,
    1.39294341e-01f, -1.40917182e-01f, 9.79621336e-02f, 4.53359559e-02f, -5.90623356e-02f, 6.81382269e-02f, -9.56656337e-02f, 5.16189486e-02f,
    -7.24306479e-02f, -7.98547193e-02f, 2.72465441e-02f, 2.37192605e-02f, 1.35637950e-02f, 5.93758002e-02f, 1.09077573e-01f, -7.35795349e-02f,
    1.42610967e-02f, 9.52363536e-02f, 1.50389493e-01f, -3.90052497e-02f, 6.52217269e-02f, -1.08315960e-01f, 8.71624146e-03f, -3.23245227e-02f,
    4.10793088e-02f, 6.33987337e-02f, 4.68233414e-03f, 1.39898837e-01f, -3.34217921e-02f, 6.49958989e-03f, -1.80772752e-01f, 3.55256349e-02f,
    -1.19907469e-01f, -1.35710970e-01f, -1.07659418e-02f, -9.91154239e-02f, 3.00493538e-02f, -1.14662811e-01f, -1.67734832e-01f, 8.42753332e-03f,
    -1.17695890e-01f, -7.33586475e-02f, -1.25525668e-02f, 1.68604210e-01f, -6.07122630e-02f, -5.14566720e-01f, -1.74452085e-02f, -2.20652483e-02f,
    1.13618627e-01f, -1.89976454e-01f, 9.51956492e-03f, 6.62880465e-02f, 7.70862848e-02f, 2.02585101e-01f, 1.24703310e-01f, -9.69908684e-02f,
    -1.31033421e-01f, -4.92038801e-02f, -6.25159368e-02f, -1.60309300e-01f, 1.75892308e-01f, -2.95924246e-01f, 9.30375382e-02f, 5.07395566e-02f,
    1.91414729e-02f, 2.72374116e-02f, -9.90335494e-02f, -1.29389763e-01f, -1.83184631e-03f, -5.42909354e-02f, -1.21633999e-01f, 5.91490828e-02f,
    5.86547982e-03f, 3.69205978e-03f, -4.35951538e-02f, -4.22338359e-02f, -7.36893713e-02f, 1.25678154e-02f, 2.08369996e-02f, 8.76693334e-03f,
    5.29326983e-02f, 8.51973332e-03f, -2.22573634e-02f, -5.78801706e-03f, 3.65472324e-02f, 8.79303366e-02f, -5.19763790e-02f, -7.67895654e-02f,
    -4.89159375e-02f, -7.43098930e-02f, -6.10850230e-02f, -2.02105016e-01f, -2.35261619e-02f, -1.27230749e-01f, 1.17095429e-02f, -5.47403097e-02f,
    6.12558890e-03f, -1.80394240e-02f, 8.30027089e-02f, 2.07996499e-02f, -2.99024116e-02f, -1.19357154e-01f, -2.48194020e-02f, 2.61991601e-02f,
    1.27130881e-01f, -1.58681318e-01f, 1.06508657e-01f, -8.26638862e-02f, 1.05500117e-01f, -8.45032260e-02f, -4.91746590e-02f, -1.68085396e-01f,
    -1.79311838e-02f, -1.34708002e-01f, 6.04232475e-02f, -1.17739076e-02f, 9.50619876e-02f, -2.81922054e-02f, 1.48596391e-02f, -2.54822642e-01f,
    5.33027686e-02f, -1.47912189e-01f, 5.15362015e-03f, 6.22724555e-03f, -1.12906506e-03f, -1.81839794e-01f, -1.28280699e-01f, -8.07251856e-02f,
    6.53941883e-03f, 7.15373829e-02f, 3.55494395e-02f, -1.63439006e-01f, 1.01710103e-01f, 1.87507793e-01f, -4.97224703e-02f, -6.37477189e-02f,
    -7.83239231e-02f, 7.34849647e-02f, 1.93753868e-01f, -4.87782471e-02f, -1.91082750e-02f, -1.77757129e-01f, -3.74495573e-02f, -4.64844778e-02f,
    1.47989362e-01f, 3.38465944e-02f, 1.51528586e-02f, -2.77828753e-01f, -8.53309929e-02f, 7.96137527e-02f, 4.19766130e-03f, 7.80640841e-02f,
    2.43113562e-02f, -2.88454920e-01f, 2.31718849e-02f, -9.65303928e-02f, -6.87598959e-02f, -1.73105463e-01f, 9.54926293e-03f, -5.13465442e-02f,
    -2.44717542e-02f, 7.75278881e-02f, 9.61420611e-02f, -6.96482211e-02f, 9.77069810e-02f, 8.40277150e-02f, 1.17105976e-01f, 7.43480958e-03f,
    -2.91660190e-01f, 4.40507419e-02f, 4.32671933e-03f, 1.11088201e-01f, 5.31021059e-02f, 1.30425766e-01f, -6.66826963e-02f, -9.24661309e-02f,
    -1.45399809e-01f, 1.26447588e-01f, 2.87609130e-01f, 5.14195375e-02f, -3.95793393e-02f, 6.77061304e-02f, -6.72914088e-02f, 7.61098117e-02f,
    3.57254446e-02f, -1.95859373e-01f, -1.60690118e-02f, 1.84185967e-01f, 4.31803390e-02f, 5.59934005e-02f, 1.16247497e-02f, -1.84489980e-01f,
    2.27035165e-01f, 7.62984306e-02f, -1.98721942e-02f, -3.54480371e-02f, 1.14180177e-01f, 4.25303653e-02f, -3.48351039e-02f, 1.09867811e-01f,
    -3.89470756e-02f, -1.09232359e-01f, -1.70238003e-01f, 6.54244870e-02f, 2.89237555e-02f, -9.06245876e-03f, -1.64630383e-01f, -7.56226107e-02f,
    -2.25231890e-02f, -2.34226733e-01f, -1.63453773e-01f, -9.35900137e-02f, 1.58035919e-01f, 4.75154538e-03f, -1.26244491e-02f, -7.40590040e-03f,
    1.16486967e-01f, -8.85451064e-02f, 6.59173727e-02f, 8.49002078e-02f, -1.16087765e-01f, 6.93906918e-02f, -3.32814932e-01f, -1.68167189e-01f,
    -3.90709756e-04f, -1.62160937e-02f, -1.72743611e-02f, -1.96417365e-02f, 2.69357208e-02f, -4.82285619e-02f, 2.31195204e-02f, 3.90719250e-02f,
    5.64295948e-02f, -1.45379622e-02f, 3.16814147e-02f, 5.29078431e-02f, 4.38574478e-02f, 5.82713410e-02f, -1.88141670e-02f, -9.70160514e-02f,
    8.71037599e-03f, -1.46400452e-01f, -2.39225462e-01f, -5.03308661e-02f, -4.15971912e-02f, 7.50936940e-02f, -8.15109257e-03f, 5.19417375e-02f,
    -6.68748096e-02f, 1.70945161e-04f, 2.04282571e-02f, -4.11872454e-02f, -3.28629054e-02f, -5.51630780e-02f, 2.11321679e-03f, -4.71461825e-02f,
    -1.70887951e-02f, -5.76051660e-02f, -1.22385938e-03f, 1.38969362e-01f, -2.89019495e-02f, 6.38024658e-02f, -9.37742740e-02f, -7.44197099e-03f,
    -3.79786752e-02f, 9.53539908e-02f, -3.08180377e-02f, 1.69043213e-01f, -7.41952285e-02f, 1.05312904e-02f, 2.29896465e-03f, 3.82148325e-02f,
    -1.11997396e-01f, -2.01063305e-02f, -3.38743329e-02f, -6.29458949e-02f, 6.42128140e-02f, 7.61447996e-02f, -7.17896968e-02f, 1.02471754e-01f,
    -1.87717751e-01f, -1.68573000e-02f, -2.03736573e-01f, -9.35234129e-02f, -1.44697845e-01f, 8.99812505e-02f, -6.48130029e-02f, 6.67148009e-02f,
    -1.63601652e-01f, 1.05692837e-02f, -4.60622087e-02f, -5.12493216e-02f, -2.41858587e-02f, 1.28307315e-02f, -4.40667495e-02f, -5.68660013e-02f,
    -2.12949496e-02f, 4.78964895e-02f, 6.79548457e-02f, 6.80422261e-02f, 4.78481278e-02f, 8.63798782e-02f, -1.92002335e-03f, -7.33148456e-02f,
    2.55335160e-02f, 4.99248765e-02f, -2.00624745e-02f, 9.04587954e-02f, -3.98596898e-02f, -1.39090434e-01f, 3.16433907e-02f, -2.00656392e-02f,
    3.18834297e-02f, 7.32031912e-02f, -4.57128920e-02f, 1.39330970e-02f, 7.90089071e-02f, -3.48484144e-02f, 3.20105776e-02f, 5.20329997e-02f,
    -6.50233999e-02f, -7.00992122e-02f, 6.73996136e-02f, 2.21570432e-02f, -9.99717228e-03f, 4.66660857e-02f, -6.54572796e-04f, -9.84330103e-02f,
    6.96839299e-03f, -1.33047998e-02f, -4.57177386e-02f, 4.12619486e-02f, -4.62466069e-02f, 6.42831773e-02f, 6.29544109e-02f, -9.21837762e-02f,
    1.00320153e-01f, 1.40446646e-03f, 1.02747157e-02f, 3.08384597e-02f, -3.26542556e-02f, -1.97075680e-02f, 5.39651439e-02f, 3.88126262e-02f,
    1.01475172e-01f, 5.52781150e-02f, 1.15329809e-01f, -2.92568412e-02f, 5.14426902e-02f, -1.16979191e-02f, -9.34854802e-03f, 1.72646192e-03f,
    -3.16185243e-02f, -6.74657598e-02f, 1.54880747e-01f, 2.35145241e-01f, 4.56609614e-02f, 3.94196332e-01f, 1.75324991e-01f, 3.13949510e-02f,
    1.12614082e-03f, -6.03296980e-02f, -3.67386546e-03f, 2.94526014e-02f, 1.58576425e-02f, -6.29660636e-02f, -4.28918265e-02f, 8.47119689e-02f,
    3.76603045e-02f, 6.40641339e-03f, -7.71988854e-02f, 1.89980954e-01f, -6.97347661e-03f, -3.70347798e-02f, 4.38214764e-02f, 5.83423786e-02f,
    8.64748359e-02f, 2.02555925e-01f, 1.63945645e-01f, -9.98112466e-03f, -8.00202861e-02f, -2.31613629e-02f, 7.75790736e-02f, -9.44409333e-03f,
    -3.48549962e-01f, -4.50546831e-01f, -4.12831128e-01f, -8.28192756e-02f, -9.16170254e-02f, 1.14643499e-02f, -7.57395923e-02f, 7.42687508e-02f,
    8.18605796e-02f, -1.03165522e-01f, -2.32638791e-01f, -2.86538512e-01f, -4.45816994e-01f, -9.22746062e-02f, 6.72301427e-02f, -2.46386379e-02f,
    4.81487848e-02f, 2.98130736e-02f, 7.18453079e-02f, -1.53782144e-01f, -1.27219677e-03f, 1.87565386e-01f, 1.43337816e-01f, 1.92691371e-01f,
    1.32754087e-01f, -1.97868925e-02f, 9.87791419e-02f, -1.18508793e-01f, 9.44054499e-02f, 1.17180549e-01f, -8.82249475e-02f, -6.69769794e-02f,
    -7.89260343e-02f, -4.76362184e-02f, -9.06914100e-02f, -2.90545702e-01f, -2.84853309e-01f, -9.89305526e-02f, -3.44114983e-03f, -9.94843394e-02f,
    3.56654599e-02f, 1.17659930e-03f, -2.33244766e-02f, -4.68471609e-02f, 8.16729385e-03f, -7.65601695e-02f, 1.38698846e-01f, 8.51792246e-02f,
    1.35759801e-01f, 4.34417278e-02f, -1.19942762e-01f, -1.88473210e-01f, -2.26669520e-01f, -2.49154076e-01f, -1.01809844e-01f, -2.21148506e-02f,
    -9.11020786e-02f, -1.52617440e-01f, -3.38124926e-03f, 9.67519134e-02f, -5.41382097e-03f, -3.42485961e-03f, -2.50931829e-02f, -2.25638207e-02f,
    -1.86631270e-02f, 6.26344641e-04f, -1.05877362e-01f, 4.42269742e-02f, 9.55913663e-02f, 3.17168497e-02f, -1.58011362e-01f, 1.29472002e-01f,
    -6.86175451e-02f, 1.60124730e-02f, 1.94497660e-01f, -2.93772481e-02f, -1.69136062e-01f, -8.53709728e-02f, 7.32374340e-02f, 9.14217606e-02f,
    9.78002921e-02f, -2.19887439e-02f, 9.51786637e-02f, 5.20410165e-02f, 5.24426401e-02f, 4.71663959e-02f, 3.94049771e-02f, -1.11159027e-01f,
    7.62453452e-02f, -3.24580036e-02f, 6.14858530e-02f, 1.38660088e-01f, 4.76890296e-01f, 1.19276464e-01f, -2.83379257e-02f, 1.75514087e-01f,
    2.33609915e-01f, -1.58619173e-02f, -6.85408572e-03f, -5.11811860e-02f, 1.19577967e-01f, -2.49335524e-02f, -1.39157563e-01f, -2.58432124e-02f,
    1.50144668e-02f, -2.57748514e-02f, -4.30636816e-02f, 6.99995160e-02f, -2.74020862e-02f, -7.95815587e-02f, -4.83666398e-02f, 1.93725638e-02f,
    1.32653907e-01f, -5.34368232e-02f, -1.77247822e-01f, -3.59124690e-02f, -6.57243729e-02f, 5.67754470e-02f, -3.99910621e-02f, -2.36155335e-02f,
    -1.01459645e-01f, 1.31356940e-01f, 2.61302795e-02f, 3.15757878e-02f, -1.06251193e-02f, -2.83900738e-01f, 5.39077148e-02f, 1.97721004e-01f,
    1.25245703e-02f, -1.14873638e-02f, -3.46713280e-03f, 9.44805816e-02f, -3.38424854e-02f, -5.60505502e-02f, -2.82421801e-02f, 8.45705196e-02f,
    1.16930842e-01f, 1.23342931e-01f, 3.30356620e-02f, 2.04316545e-02f, -8.13841522e-02f, 1.32173091e-01f, 3.36283088e-01f, -2.69869808e-02f,
    6.57575279e-02f, 1.81528747e-01f, 3.65977913e-01f, 2.13715702e-01f, 5.36252670e-02f, -9.80637521e-02f, -7.24869315e-03f, -1.67938367e-01f,
    -4.77696210e-02f, 4.07805182e-02f, 5.73078953e-02f, 3.28290723e-02f, 1.26965404e-01f, 1.25479236e-01f, 1.46697730e-01f, 1.22202085e-02f,
    1.02922255e-02f, -7.85622299e-02f, -4.35364880e-02f, -3.53416987e-02f, 3.28643769e-02f, 9.76407677e-02f, 1.82120383e-01f, 4.62856516e-02f,
    -1.43355593e-01f, -4.41186912e-02f, 3.72340009e-02f, 1.93730332e-02f, -2.80875266e-02f, 3.86280753e-02f, 4.15313281e-02f, -1.36460485e-02f,
    1.87071577e-01f, 1.39308333e-01f, 8.76774720e-04f, 9.19124112e-02f, -6.04591006e-03f, 9.54656396e-03f, -1.55962974e-01f, -2.04730574e-02f,
    -3.68062519e-02f, -1.84483659e-02f, 6.69978857e-02f, 1.66036099e-01f, 1.92974806e-02f, 4.67063449e-02f, -3.26919630e-02f, 6.31471798e-02f,
    -3.51748019e-02f, -3.02721597e-02f, -3.54390480e-02f, 8.94332863e-03f, -1.22335330e-01f, -6.85153157e-02f, -9.33281705e-03f, 1.25770504e-03f,
    8.08035731e-02f, -4.76087220e-02f, 5.93079850e-02f, -3.97019088e-02f, -7.91973472e-02f, 4.06682156e-02f, -2.18808670e-02f, -8.36513862e-02f,
    7.72314966e-02f, -2.68142447e-02f, -8.63349810e-03f, 4.42749187e-02f, -7.62984157e-02f, -3.67492996e-02f, 3.22495438e-02f, -6.68606907e-02f,
    1.70468256e-01f, 9.20679644e-02f, 1.03347607e-01f, -4.58526202e-02f, -3.45638618e-02f, 3.44297453e-03f, 7.01349154e-02f, 2.05759063e-01f,
    2.56576896e-01f, 3.37050036e-02f, -2.04902864e-03f, 5.90279400e-02f, 1.73713863e-02f, -3.60950530e-02f, -5.74465543e-02f, 1.45609286e-02f,
    1.06097206e-01f, 4.01553623e-02f, -5.03599877e-03f, -6.59721047e-02f, 1.11033104e-01f, 5.97618986e-03f, -1.65234637e-02f, 4.46329415e-02f,
    -1.69055406e-02f, 4.55116965e-02f, 7.34794587e-02f, 2.99321920e-01f, 9.19546001e-03f, -2.29546316e-02f, -4.85042781e-02f, 1.10813096e-01f,
    -1.78710725e-02f, -2.71680113e-02f, 2.18946580e-02f, 2.91548893e-02f, -1.71258990e-02f, 1.90848559e-01f, 3.87121066e-02f, 3.03663593e-02f,
    -4.38586213e-02f, 1.39575750e-01f, 2.80710042e-01f, -7.37326592e-03f, -1.64892827e-03f, -6.69390783e-02f, 3.12814713e-02f, -1.44489342e-02f,
    7.71997124e-02f, 2.21864339e-02f, -1.39883365e-02f, 5.73202558e-02f, 1.78440467e-01f, 1.17668912e-01f, -9.12537202e-02f, -3.06701995e-02f,
    -2.62222742e-03f, -2.42566075e-02f, 9.35224220e-02f, 6.81414157e-02f, -2.95455032e-03f, 1.29845273e-03f, 1.47953242e-01f, 1.17449850e-01f,
    2.36239061e-02f, 9.19200033e-02f, 2.09451392e-02f, -2.15380862e-02f, 1.32170301e-02f, 2.66575236e-02f, -9.52387825e-02f, 2.80484054e-02f,
    1.34407878e-01f, -4.48848270e-02f, 3.96791697e-02f, 5.99753596e-02f, 5.74342236e-02f, -7.50080347e-02f, -4.64959741e-02f, -9.83592644e-02f,
    9.25066173e-02f, 7.04816729e-02f, 2.84388930e-01f, 9.98195708e-02f, 2.33739503e-02f, -5.25229499e-02f, -5.59208691e-02f, 1.52957350e-01f,
    4.10387181e-02f, -3.73156071e-02f, -1.65628493e-01f, 1.13168836e-01f, 2.78734416e-02f, -4.33532186e-02f, -2.23640203e-02f, 8.50762241e-03f,
    -2.16399029e-01f, -2.60436665e-02f, 7.29015023e-02f, -1.28836287e-02f, 6.63295984e-02f, 4.88459021e-02f, 2.55065292e-01f, -1.86033808e-02f,
    -3.55072133e-02f, -3.16385888e-02f, 8.48028213e-02f, 8.89277980e-02f, 7.46569186e-02f, 6.68297932e-02f, -9.63466913e-02f, 2.29222625e-02f,
    -4.65224013e-02f, -8.56609717e-02f, 5.68862110e-02f, -1.98644660e-02f, 8.74646381e-02f, 5.10588959e-02f, -7.12584006e-03f, 3.92989479e-02f,
    -3.88905331e-02f, 1.46014035e-01f, 1.27724931e-01f, -1.69124417e-02f, -1.92327134e-03f, -3.10809966e-02f, -4.60542999e-02f, -1.10466510e-01f,
    -1.04232080e-01f, 2.81492304e-02f, -7.89813772e-02f, 1.36725903e-01f, 8.09957087e-02f, 3.19020525e-02f, 1.05376029e-02f, 9.50960964e-02f,
    2.57640660e-01f, 9.27323028e-02f, -1.39686957e-01f, -3.25940736e-02f, 1.99087709e-02f, -1.39497772e-01f, -9.28711742e-02f, -3.44006367e-05f,
    -2.32133809e-02f, 8.82673950e-04f, -1.38943255e-01f, -1.84432372e-01f, -1.39016043e-02f, 6.16101101e-02f, 3.99851762e-02f, 5.57904765e-02f,
    -3.03928312e-02f, 3.05674542e-02f, 2.17438340e-02f, 8.85177217e-03f, 3.12551111e-02f, -1.76978946e-01f, -1.01387665e-01f, 2.96224970e-02f,
    2.53207516e-02f, -1.13488495e-01f, 2.60588825e-01f, -3.08004059e-02f, -1.30022895e-02f, 6.20471947e-02f, -5.03150150e-02f, -6.36907294e-02f,
    3.11914504e-01f, -5.31246811e-02f, -4.35240492e-02f, 1.56964868e-01f, 9.14072245e-02f, 2.46724673e-02f, -5.35690859e-02f, -4.14695218e-03f,
    3.91050329e-04f, 8.82473513e-02f, 7.14984350e-03f, -2.45749881e-03f, -1.34698665e-02f, 9.74766463e-02f, 3.50177616e-01f, 1.19212747e-01f,
    3.34647372e-02f, -1.80067211e-01f, -1.40044436e-01f, -7.00171739e-02f, -4.30424735e-02f, 3.34957987e-02f, -2.62874246e-01f, 4.94567305e-02f,
    -3.98917086e-02f, 8.76229778e-02f, -2.56981351e-03f, -9.27040875e-02f, -7.19151199e-02f, -1.26640201e-01f, 1.14583060e-01f, 1.40245274e-01f,
    -1.73616901e-01f, -1.26163602e-01f, -1.49664298e-01f, 3.00484635e-02f, 6.33198209e-03f, -3.01357694e-02f, 6.91602528e-02f, -7.71717578e-02f,
    6.46237060e-02f, 1.32630318e-01f, 4.45677303e-02f, -4.78572212e-02f, -6.55536950e-02f, 6.89933524e-02f, 6.36026487e-02f, 9.12142023e-02f,
    -6.69090375e-02f, 1.11200260e-02f, 5.08559793e-02f, 1.80210117e-02f, 1.35201439e-01f, -9.83244553e-02f, -8.03249180e-02f, 2.23579910e-02f,
    4.53485921e-02f, -2.98331857e-01f, 1.41802892e-01f, -5.32314144e-02f, 7.01941177e-03f, 1.47069067e-01f, -1.04472019e-01f, -1.07857689e-01f,
    3.31550986e-02f, 2.20889337e-02f, -1.22024436e-02f, 2.89555509e-02f, 1.09080985e-01f, 1.41670229e-02f, -7.67437881e-03f, -3.15209366e-02f,
    -1.20315090e-01f, -1.01110674e-01f, -8.75799805e-02f, 1.68874003e-02f, 1.22511566e-01f, -2.15878319e-02f, -2.49068797e-01f, -1.55988902e-01f,
    -7.03840032e-02f, 8.60700905e-02f, -1.81244552e-01f, -2.37774150e-03f, 6.41939491e-02f, -9.35967080e-03f, 2.04587981e-01f, 2.38066092e-01f,
    7.13187270e-03f, -1.17714759e-02f, 1.60631014e-03f, -8.44668299e-02f, -9.26017910e-02f, -1.58717602e-01f, -1.37134805e-01f, 4.18703817e-02f,
    -4.60803043e-03f, 5.13206758e-02f, 6.63112849e-02f, -5.76074012e-02f, -2.96793804e-02f, 8.07614345e-03f, -5.29913381e-02f, -3.15347463e-02f,
    1.04382463e-01f, 3.74793308e-03f, 2.35597827e-02f, -5.72192445e-02f, -4.46353033e-02f, 1.60379987e-02f, -1.49074914e-02f, 3.36331241e-02f,
    1.36034302e-02f, -2.48462826e-01f, -1.68471113e-02f, -9.07891095e-02f, 5.82184345e-02f, -2.08453648e-02f, 1.09610073e-01f, 1.87636241e-01f,
    4.10281494e-02f, 2.78272238e-02f, 9.60300788e-02f, -9.61218476e-02f, -1.96870174e-02f, -4.37278971e-02f, 1.74869578e-02f, -1.74872160e-01f,
    -4.42636646e-02f, 1.60665557e-01f, 6.66886568e-02f, 6.52882904e-02f, 7.59739578e-02f, 1.31715611e-01f, 1.31611619e-02f, 5.26622161e-02f,
    -5.06689772e-02f, 1.70816720e-01f, 5.11624888e-02f, 1.79127365e-01f, -3.50562125e-01f, -9.07415524e-02f, -1.10074282e-01f, 9.49936658e-02f,
    -2.58983355e-02f, 1.09530039e-01f, 1.31805893e-03f, 3.32240164e-02f, 1.46053895e-01f, 7.95897469e-02f, 5.91069572e-02f, 7.15053454e-02f,
    -1.53692579e-02f, -8.27010572e-02f, -3.55585039e-01f, 1.29245389e-02f, 1.13979317e-01f, 6.88345954e-02f, 2.72158738e-02f, -2.52959758e-01f,
    -1.16321273e-01f, 6.51441365e-02f, 9.54305828e-02f, -3.30192536e-01f, 7.83369765e-02f, 3.12001701e-03f, 5.88676855e-02f, 5.93856834e-02f,
    -3.71807558e-03f, -5.77000086e-04f, 8.66045896e-03f, 2.66830605e-02f, -7.51981512e-02f, -3.39673430e-01f, -1.17267407e-01f, 3.85236368e-02f,
    2.93724239e-02f, 1.58552483e-01f, 3.69314924e-02f, -2.64873542e-02f, 1.25862043e-02f, -4.59069684e-02f, -2.78363582e-02f, 9.40706506e-02f,
    -1.70994848e-01f, 4.40710969e-02f, -1.97434983e-05f, -1.20731406e-01f, -1.68962017e-01f, -9.07670632e-02f, -1.75246671e-02f, 5.00012152e-02f,
    8.06146208e-03f, 2.40845621e-01f, -1.80763692e-01f, 1.54406607e-01f, 5.47310784e-02f, 6.63130602e-04f, 1.19770087e-01f, -9.76750031e-02f,
    3.44523862e-02f, 5.80247752e-02f, 2.45470926e-02f, -3.39266881e-02f, 1.33744344e-01f, 1.42048066e-02f, -7.23737255e-02f, -9.49639380e-02f,
    -7.63201788e-02f, 1.67291671e-01f, 7.66685009e-02f, 2.38197669e-02f, 3.03978119e-02f, 1.40967416e-02f, 1.92971453e-01f, 5.37722744e-02f,
    1.36427237e-02f, -1.80450901e-01f, 1.80669188e-01f, 5.35864499e-04f, 9.14780945e-02f, 1.44113883e-01f, -7.39482639e-05f, -3.07194721e-02f,
    -4.91672009e-03f, 4.96920943e-02f, -2.67717764e-02f, -6.54463377e-03f, -3.61846127e-02f, -1.11186989e-01f, -1.98327214e-03f, -5.74908443e-02f,
    -1.85210988e-01f, -2.90284514e-01f, 2.25674007e-02f, 1.55037776e-01f, -6.85809786e-03f, -3.48717459e-02f, -2.05783203e-01f, -1.56161308e-01f,
    1.10439844e-01f, -2.51612782e-01f, -7.30819851e-02f, -1.13801852e-01f, 1.28087550e-01f, 1.21204741e-01f, 5.60856946e-02f, -6.60650712e-03f,
    -4.00964133e-02f, -1.00265987e-01f, -1.67556144e-02f, -1.24335602e-01f, 2.29271017e-02f, -1.95646107e-01f, -1.87503323e-01f, 6.30828068e-02f,
    3.10974661e-02f, 3.95644568e-02f, -3.67240421e-03f, -6.41492009e-02f, -9.34291258e-02f, -2.97250203e-03f, 1.28236175e-01f, 2.92856097e-02f,
    1.57534727e-03f, 7.54088014e-02f, -4.02421355e-02f, -7.84989744e-02f, -9.83826816e-02f, -1.10759042e-01f, 9.56627447e-03f, -1.15730107e-01f,
    -3.58185098e-02f, -3.87048274e-01f, 5.10439202e-02f, 7.58297518e-02f, 1.12310965e-02f, 9.25407335e-02f, 1.13951601e-01f, 2.70916410e-02f,
    6.00985736e-02f, -3.74115445e-02f, -2.32332274e-02f, -1.59679636e-01f, 3.95898297e-02f, -3.31293084e-02f, -8.86479113e-03f, -3.95128727e-02f,
    -3.47479194e-01f, -3.91833484e-02f, 2.18212269e-02f, -2.41548941e-02f, -1.46793723e-02f, -3.88995856e-02f, 1.00710049e-01f, -2.54609734e-02f,
    -5.51998466e-02f, 1.20751977e-01f, -1.25308618e-01f, 6.27730787e-02f, -6.62431717e-02f, 5.38457278e-03f, 7.51734897e-03f, -5.74639179e-02f,
    -6.64039142e-03f, 4.51878039e-03f, 7.03203231e-02f, 3.10846046e-02f, -8.61229282e-03f, 7.59046525e-02f, 1.38873747e-02f, -8.78949277e-03f,
    -1.50192752e-01f, -1.10871673e-01f, -2.57050723e-01f, 1.48722790e-02f, -4.06614356e-02f, 4.04607365e-03f, -1.60582542e-01f, 3.88604738e-02f,
    -7.08785430e-02f, -1.32080913e-01f, 6.97876210e-04f, -8.53003040e-02f, 9.91590023e-02f, 3.61317769e-02f, -6.19854033e-02f, -1.54998198e-01f,
    -6.42951205e-02f, -5.49008250e-02f, 2.59394981e-02f, -1.60490330e-02f, 3.22108194e-02f, 1.95400640e-01f, 3.01363249e-03f, -3.14845927e-02f,
    -5.39886579e-02f, 7.49154910e-02f, -5.67497164e-02f, 7.64440373e-02f, -5.71746305e-02f, 7.26707187e-03f, -4.11549918e-02f, -1.35102823e-01f,
    -1.22368827e-01f, 3.61811230e-03f, -5.09651676e-02f, -3.63500454e-02f, -1.59715191e-02f, -2.15144940e-02f, 1.24292269e-01f, 1.15705905e-02f,
    -1.62441693e-02f, 7.05840215e-02f, -1.26758784e-01f, -6.41665682e-02f, -3.93044204e-02f, 2.58145574e-03f, -2.10274756e-03f, 2.04702970e-02f,
    -4.84292358e-02f, 4.03565355e-04f, 6.34072674e-03f, 3.03015821e-02f, -6.70238212e-03f, -2.57274583e-02f, 7.43752941e-02f, 1.04004435e-01f,
    1.17262587e-01f, 7.87858665e-03f, -3.08555849e-02f, -1.81959271e-02f, 6.77375272e-02f, -1.68228652e-02f, 1.01700490e-02f, -5.16370982e-02f,
    2.89803687e-02f, 7.99683668e-03f, 6.80952594e-02f, 5.30094579e-02f, 9.53917801e-02f, -2.62741372e-02f, -4.47711796e-02f, 1.06783919e-02f,
    -1.15412325e-01f, 2.09753402e-02f, 1.57574326e-01f, -1.78695068e-01f, 3.28991979e-01f, 8.52178708e-02f, -2.02901274e-01f, 3.54401134e-02f,
    -5.95815219e-02f, -2.87616681e-02f, -3.52096260e-02f, -5.30546568e-02f, 1.42505765e-01f, 3.20319757e-02f, 1.01887673e-01f, 5.54138757e-02f,
    -1.02006033e-01f, 6.63843229e-02f, -1.36786290e-02f, 1.14361234e-01f, 7.23146647e-03f, 6.51986152e-02f, -2.67514680e-02f, -4.38808426e-02f,
    9.93399620e-02f, -1.51083469e-01f, 2.35922411e-02f, 1.05536971e-02f, -7.78359100e-02f, -2.94085387e-02f, 1.85149480e-02f, -2.89334543e-02f,
    -4.24057581e-02f, 6.72853971e-03f, 1.72309522e-02f, -3.00739795e-01f, 4.19776626e-02f, -7.73070902e-02f, 1.95164993e-01f, -2.50151753e-01f,
    1.81709588e-01f, 4.31088179e-01f, 1.44442365e-01f, 9.70628932e-02f, -1.52758017e-01f, -5.34288250e-02f, -4.32133861e-02f, 3.38507108e-02f,
    7.47733787e-02f, 2.65314383e-03f, 5.67129515e-02f, 6.03499711e-02f, -6.15124814e-02f, -5.41361719e-02f, -8.87905508e-02f, -1.15449809e-01f,
    2.17930034e-01f, 9.82131362e-02f, 1.93374716e-02f, 1.74731404e-01f, -1.40729725e-01f, -1.37840733e-01f, 4.04048525e-02f, -2.14442555e-02f,
    3.02042626e-02f, 2.15227325e-02f, -2.32683122e-02f, 2.53752079e-02f, 3.20479013e-02f, -7.08131567e-02f, -3.85528713e-01f, 2.95448899e-01f,
    2.05488093e-02f, 6.61298707e-02f, 5.24042025e-02f, 5.28563038e-02f, -2.52154805e-02f, -2.33664494e-02f, -1.36733716e-02f, -6.19367696e-02f,
    1.12791747e-01f, -9.06104073e-02f, 1.27592096e-02f, -2.65566129e-02f, -4.53953296e-02f, -2.65456051e-01f, -5.31696640e-02f, 1.88682172e-02f,
    1.40259653e-01f, 3.05741187e-02f, 9.18977037e-02f, -1.52738630e-05f, 3.99973392e-02f, 3.06951366e-02f, 2.56382152e-02f, -7.57878821e-04f,
    -8.16564783e-02f, 1.59075018e-02f, -6.26472384e-02f, -5.02665006e-02f, -5.28772958e-02f, 1.10799976e-01f, 6.46854043e-02f, -1.04706120e-02f,
    9.15611815e-03f, 2.51123607e-01f, 1.34280428e-01f, 3.13217267e-02f, -4.33009006e-02f, -1.54175147e-01f, 3.99587974e-02f, -9.22638774e-02f,
    3.37555483e-02f, -4.36647870e-02f, -5.81883006e-02f, 1.03586242e-02f, 1.39745772e-02f, -3.38160358e-02f, -9.52503756e-02f, -2.24807090e-03f,
    -1.72036365e-01f, 1.74701944e-01f, 5.12078181e-02f, -4.52331193e-02f, 8.21215436e-02f, -1.14027865e-01f, -1.71840385e-01f, 9.98056903e-02f,
    8.43173042e-02f, 4.06306013e-02f, -8.84508193e-02f, -5.32052666e-02f, -3.33007351e-02f, -3.68100032e-02f, -3.97736998e-03f, -1.31961867e-01f,
    1.20575815e-01f, 9.92487371e-02f, 3.58887687e-02f, 9.12464857e-02f, -3.61763276e-02f, 5.75081408e-02f, 9.52932462e-02f, -2.07287017e-02f,
    6.75964653e-02f, -1.34137973e-01f, -3.00498664e-01f, 4.51803431e-02f, 3.66704613e-02f, 7.91396052e-02f, 7.66297206e-02f, 1.14780441e-01f,
    5.91980442e-02f, -1.70498993e-02f, 2.43278258e-02f, -1.98234230e-01f, 8.78112912e-02f, 3.02209556e-02f, 2.13533472e-02f, 1.87808678e-01f,
    1.63178388e-02f, -1.56291485e-01f, 1.47438683e-02f, -5.57203265e-03f, 2.49619037e-02f, -3.53919305e-02f, 3.61070149e-02f, 1.65850535e-01f,
    -5.28154075e-02f, 8.36184621e-02f, -1.30944952e-01f, -3.96403313e-01f, 1.66844606e-01f, -1.69256181e-02f, 3.68205085e-02f, -2.62589138e-02f,
    -5.07849276e-01f, 7.61586353e-02f, 1.71361670e-01f, -2.61915028e-01f, -6.68542027e-01f, -7.22596943e-02f, 5.93912415e-03f, -1.34552002e-01f,
    -7.77253658e-02f, 5.33650517e-02f, -2.66735852e-02f, 4.41940241e-02f, -3.69245820e-02f, -6.27446771e-02f, -1.60577312e-01f, -9.16302130e-02f,
    4.01859842e-02f, -5.13362885e-02f, -1.46149425e-02f, 3.64239365e-02f, -1.32017341e-02f, 5.41567942e-03f, -8.08176305e-03f, -4.54363748e-02f,
    9.65463743e-02f, 2.21980568e-02f, 2.34739278e-02f, -1.56102683e-02f, 1.17165986e-02f, 3.10326787e-03f, 1.05189756e-02f, -1.00269616e-01f,
    6.14646450e-02f, -1.89400107e-01f, 2.25134492e-02f, -7.38199949e-02f, -2.65963990e-02f, 5.79937994e-02f, 1.75503828e-02f, 1.54227227e-01f,
    2.25366876e-02f, 3.74569893e-02f, 4.26571779e-02f, -7.42696524e-02f, 6.38804510e-02f, -1.45993978e-01f, 4.67118509e-02f, -6.95040002e-02f,
    3.29441279e-02f, -7.06713647e-02f, 1.15292214e-01f, -7.33704120e-03f, -5.65365180e-02f, 6.67094588e-02f, -2.88032331e-02f, 1.54640958e-01f,
    -5.05817533e-02f, 8.42811167e-02f, 5.64272888e-02f, 3.43825594e-02f, -1.62544787e-01f, -4.36268970e-02f, -3.01859211e-02f, -1.88067872e-02f,
    -1.38410389e-01f, -5.35525046e-02f, 1.56829029e-03f, 2.96108816e-02f, -3.90219055e-02f, 7.61811510e-02f, 5.26673645e-02f, 1.42465413e-01f,
    -2.55130995e-02f, 3.82300206e-02f, -2.78452516e-01f, -1.24464937e-01f, -4.89496142e-02f, 1.07351080e-01f, -2.55427416e-02f, -5.16402088e-02f,
    -4.13123965e-02f, 7.99439475e-02f, 6.80530369e-02f, -1.05875432e-01f, -7.08597749e-02f, -8.86407048e-02f, 4.28480692e-02f, -5.36570959e-02f,
    3.45524065e-02f, -3.69960964e-02f, -1.02389656e-01f, -4.59755287e-02f, -6.05289899e-02f, -1.28434211e-01f, -5.10629267e-02f, 1.19991135e-02f,
    1.10541321e-01f, 8.44285116e-02f, -1.91885568e-02f, -1.00691102e-01f, -6.91504590e-03f, 1.68250147e-02f, -1.99073348e-02f, -2.52235513e-02f,
    2.97331717e-02f, -3.77586372e-02f, 1.83852594e-02f, -4.95118499e-02f, 2.33875915e-01f, -3.00901104e-02f, -5.20962924e-02f, -6.46089856e-03f,
    2.15415154e-02f, 1.36341736e-01f, -7.02292472e-02f, -9.86924842e-02f, 5.14868982e-02f, -3.48797999e-02f, 1.40138388e-01f, 2.07088832e-02f,
    -6.32724864e-03f, 1.72455776e-02f, -3.92907634e-02f, -1.05593018e-02f, -7.20099881e-02f, -1.61887184e-02f, 2.57393718e-02f, -1.09674223e-02f,
    -2.11293157e-03f, 1.74591206e-02f, 4.38270979e-02f, -2.15247385e-02f, -9.07827318e-02f, 5.85230179e-02f, -1.21664129e-01f, -6.30531237e-02f,
    1.52931184e-01f, -5.95692173e-02f, 3.92533503e-02f, 2.63581537e-02f, -6.17623515e-02f, -3.01712798e-03f, 2.03322936e-02f, -2.90872566e-02f,
    -1.93266175e-03f, 2.21552551e-02f, 5.23183076e-03f, 1.25349620e-02f, 1.22746136e-02f, 6.66524097e-02f, 1.92279853e-02f, 1.01950236e-01f,
    7.01091662e-02f, 1.23626016e-01f, -1.10339202e-01f, -2.15229355e-02f, -1.37134595e-02f, 1.32642668e-02f, 2.98163861e-01f, 1.50083169e-01f,
    -1.52338251e-01f, 8.48119240e-03f, 2.55755693e-01f, -5.89563772e-02f, -5.18344305e-02f, -2.67540906e-02f, 2.56865527e-02f, 4.96222526e-02f,
    -4.64507602e-02f, 4.30942252e-02f, 1.84947494e-02f, 1.02858879e-02f, 1.86592624e-01f, 2.15899661e-01f, -2.59099871e-01f, -3.72878350e-02f,
    4.77152988e-02f, 5.46094663e-02f, 3.17394622e-02f, 4.52159569e-02f, 7.34376833e-02f, -4.51199934e-02f, 1.02100886e-01f, 5.67054413e-02f,
    3.29242982e-02f, 3.16298939e-02f, -9.53773875e-03f, 8.13709199e-02f, 8.49378034e-02f, 8.08702037e-02f, 6.81802109e-02f, 1.98121257e-02f,
    2.83337951e-01f, -3.61764096e-02f, -8.83758888e-02f, -6.69281930e-02f, -4.67703529e-02f, 3.39148263e-03f, -3.51715349e-02f, -1.70450248e-02f,
    -1.30206589e-02f, -1.90756135e-02f, 1.02114223e-01f, 5.11721745e-02f, 3.56999077e-02f, -4.65025455e-02f, 1.00597002e-01f, 4.20848429e-02f,
    -5.64767346e-02f, -2.45666951e-02f, -8.27991590e-03f, 1.02801376e-03f, -5.21706231e-02f, 1.20416582e-02f, -5.44016659e-02f, -1.09144598e-02f,
    -1.45440269e-02f, -5.20667396e-02f, -2.83634234e-02f, 1.04795918e-01f, -1.28548518e-01f, 1.16534367e-01f, -3.89356054e-02f, 5.03670750e-03f,
    2.88515687e-02f, -4.23398353e-02f, -7.33722672e-02f, -6.11083694e-02f, -3.60746533e-02f, 3.00413854e-02f, 1.00921737e-02f, 3.59429345e-02f,
    1.14785165e-01f, 3.82202268e-01f, -5.76175861e-02f, 1.24700442e-02f, -4.02157940e-02f, -8.44813287e-02f, 1.93506815e-02f, 2.15522826e-01f,
    -1.66870832e-01f, -3.05088740e-02f, 2.25911647e-01f, 7.99140632e-02f, 5.43728936e-03f, 1.70021243e-02f, -2.98251323e-02f, -1.78031474e-02f,
    1.08749159e-01f, 9.53627843e-03f, 4.36186306e-02f, 5.51168360e-02f, 1.56354070e-01f, 1.82834879e-01f, -8.14052299e-02f, 2.71744590e-04f,
    -2.11904347e-01f, 1.24683250e-02f, 1.99500173e-01f, 2.17271317e-03f, -7.68667087e-02f, -7.74693787e-02f, 1.10969674e-02f, -2.40254566e-01f,
    9.83522311e-02f, 1.00368410e-01f, -1.79507405e-01f, 6.45543728e-03f, -3.60809192e-02f, -4.03033085e-02f, 2.25684009e-02f, -1.07498765e-02f,
    9.07886401e-02f, -1.35157049e-01f, -3.82232852e-02f, 1.50284871e-01f, -4.20306809e-03f, -1.55493226e-02f, -1.46129448e-02f, 2.09445894e-01f,
    3.44010554e-02f, -1.72645897e-01f, 2.98977853e-03f, -1.88083515e-01f, 7.69472215e-03f, 8.99920985e-03f, 1.22515187e-01f, -4.44953740e-02f,
    5.40694594e-02f, -1.31869167e-01f, -3.84121202e-02f, -2.05822036e-01f, -5.31452298e-02f, -5.98807484e-02f, -5.80188185e-02f, 1.03662997e-01f,
    -7.67306462e-02f, 6.35927618e-02f, -2.09891960e-01f, 1.19197011e-01f, 2.69889254e-02f, 2.54913066e-02f, 5.16422689e-02f, 1.86551392e-01f,
    8.47194940e-02f, 6.00371659e-02f, 7.68939555e-02f, -4.73452508e-02f, -5.82125224e-02f, 2.78110970e-02f, 5.48892133e-02f, -4.90648821e-02f,
    7.13949034e-04f, 3.88450548e-02f, 1.08373091e-02f, 4.61756997e-02f, 1.14761308e-01f, -3.83236334e-02f, 1.46932065e-01f, -3.30470681e-01f,
    -4.02037986e-02f, 6.50214627e-02f, 1.46754198e-02f, 4.57390677e-03f, 8.11101720e-02f, 1.99231714e-01f, -7.93444067e-02f, -2.27207914e-02f,
    1.41968712e-01f, -4.47568595e-02f, -5.28740771e-02f, -1.85573533e-01f, 1.37235094e-02f, -1.36120886e-01f, 1.94261342e-01f, 5.66665754e-02f,
    4.18384448e-02f, 5.75544201e-02f, 3.61121707e-02f, 6.06643558e-02f, 6.24264628e-02f, 8.86693895e-02f, 6.66550696e-02f, 9.34686586e-02f,
    5.16079478e-02f, 2.17201829e-01f, 1.58791430e-02f, 6.37713149e-02f, -7.11335838e-02f, 2.80471127e-02f, -1.11790774e-02f, 2.60846224e-02f,
    -9.19721350e-02f, 1.20055333e-01f, 4.82615866e-02f, 1.56388849e-01f, -3.95145416e-02f, -2.61603785e-03f, 3.09112016e-02f, -6.51776195e-02f,
    -3.01364646e-03f, 3.09665278e-02f, -5.09184934e-02f, 2.47709602e-02f, 1.72682926e-02f, 7.20229149e-02f, -1.05743773e-01f, -1.03980690e-01f,
    7.31418803e-02f, -4.96358387e-02f, 1.07034415e-01f, -2.97072716e-02f, -1.53129408e-02f, 2.20387653e-02f, -4.46592122e-02f, -2.01458663e-01f,
    1.41121924e-01f, -8.69830027e-02f, 7.67143369e-02f, 7.79716298e-02f, 1.71522632e-01f, -8.64059478e-02f, -4.14543264e-02f, -3.25422972e-01f,
    -6.57708943e-02f, -4.79431190e-02f, 3.41961682e-02f, -4.94094379e-03f, 5.59673980e-02f, -1.04826629e-01f, 8.22097715e-03f, -6.69042990e-02f,
    -1.05732400e-02f, -2.20254928e-01f, -7.33594084e-03f, 8.12454149e-03f, 1.63771078e-01f, -2.21014887e-01f, 5.97233465e-03f, 5.35189249e-02f,
    3.03827506e-02f, 1.17814578e-02f, -1.33489193e-02f, -3.55574824e-02f, -1.76707163e-01f, 9.40046087e-02f, 2.52596475e-02f, -1.28799109e-02f,
    3.99041213e-02f, -6.95210397e-02f, 8.22097063e-04f, -5.98846935e-02f, -1.14984132e-01f, -1.61004722e-01f, -9.06419903e-02f, 6.79882988e-03f,
    6.60660788e-02f, -1.10787228e-01f, -8.14902708e-02f, -1.17644750e-01f, 3.78667265e-02f, 2.69935410e-02f, -3.92869785e-02f, -2.45380536e-01f,
    -1.25600114e-01f, 7.63385668e-02f, 3.03530749e-02f, -4.86482494e-02f, 8.96604657e-02f, -3.34647223e-02f, 6.32659718e-02f, 7.00273924e-03f,
    5.31020798e-02f, -4.13802594e-01f, -5.48821427e-02f, -4.35674377e-02f, 4.09951992e-03f, -1.79112568e-01f, -3.16053659e-01f, -2.01829538e-01f,
    6.00349009e-02f, 2.25094017e-02f, 6.20675227e-03f, 7.27860108e-02f, -1.33229822e-01f, -3.36994277e-03f, 6.43783659e-02f, 1.02498844e-01f,
    1.09816261e-01f, -1.10416417e-03f, -1.23671196e-01f, 1.62758045e-02f, -8.61789584e-02f, 4.68449574e-03f, -1.12733372e-01f, 6.44850135e-02f,
    -2.61756122e-01f, -4.45678011e-02f, 6.27798662e-02f, -1.48226339e-02f, 8.65793601e-03f, -1.35539427e-01f, 1.43825784e-01f, 1.64484054e-01f,
    1.32185534e-01f, 1.08466558e-02f, 4.59383726e-02f, 3.90724391e-02f, -9.25880745e-02f, -5.80105372e-02f, -2.90024187e-03f, 8.36276785e-02f,
    1.83736701e-02f, 1.11505888e-01f, -9.03868303e-02f, 1.02288097e-01f, 9.43754539e-02f, 5.43950349e-02f, 2.13061254e-02f, -9.85480286e-03f,
    -1.26933148e-02f, -1.69349182e-02f, 1.83152974e-01f, -1.81707162e-02f, 1.07529886e-01f, -7.48934522e-02f, 1.11643940e-01f, 2.94193625e-02f,
    3.88758704e-02f, 4.71982472e-02f, 4.92731743e-02f, 8.13340843e-02f, -2.71140039e-01f, -4.90974784e-01f, -8.99716839e-02f, 1.42135173e-02f,
    -4.53985035e-02f, -2.86659575e-04f, -6.27903417e-02f, -1.07093789e-01f, 4.56585214e-02f, -2.04578750e-02f, 7.60844722e-02f, -1.05347395e-01f,
    -3.64851989e-02f, -8.62813648e-03f, 2.81055756e-02f, 9.95845161e-03f, -6.67923614e-02f, -6.80063665e-02f, 8.66967291e-02f, -3.36022563e-02f,
    -2.94148952e-01f, -1.55489832e-01f, 1.03382073e-01f, -2.76948735e-02f, 2.51920111e-02f, 8.96462873e-02f, 1.29873836e-02f, 7.83751607e-02f,
    1.03027839e-02f, -6.28010929e-02f, -1.24570720e-01f, -8.81496966e-02f, 1.91280618e-02f, -8.43861979e-03f, -1.43664293e-02f, -1.30303502e-02f,
    9.80597883e-02f, 5.42970747e-02f, 6.82757795e-02f, 4.78737205e-02f, -1.24026291e-01f, 3.24196778e-02f, -7.90850371e-02f, 2.88319420e-02f,
    -2.25959569e-02f, 5.06565627e-03f, -1.29502460e-01f, -3.21954697e-01f, -2.61223465e-01f, 3.62525955e-02f, 3.00667491e-02f, 8.24044049e-02f,
    1.10637546e-02f, 1.06341988e-01f, 1.75700206e-02f, 1.09713383e-01f, -1.53841358e-02f, 8.17788094e-02f, 3.45203355e-02f, 5.92067093e-02f,
    -1.21530868e-01f, -2.70434558e-01f, -6.21624328e-02f, 1.66320689e-02f, -2.44457573e-02f, 5.69040701e-02f, -1.35338485e-01f, 7.78658390e-02f,
    -6.44708946e-02f, 6.17769025e-02f, -1.57673076e-01f, -8.01934823e-02f, 4.18906026e-02f, -5.03127798e-02f, 9.51303169e-02f, -1.86095722e-02f,
    -1.26926079e-02f, -7.80585557e-02f, 3.91610013e-03f, 2.54445383e-03f, -6.01259544e-02f, -1.02780610e-01f, -8.65050703e-02f, 2.30972711e-02f,
    -5.71147203e-02f, 6.49357364e-02f, -1.55786835e-02f, -5.14788665e-02f, -1.13024436e-01f, 1.46127760e-01f, -1.71199471e-01f, -7.99876675e-02f,
    1.13197729e-01f, 1.06265113e-01f, 4.14370820e-02f, 1.27667114e-01f, 1.85687039e-02f, 9.57102776e-02f, 1.82084158e-01f, 1.14071712e-01f,
    -8.04562047e-02f, 5.37437089e-02f, 1.42440557e-01f, 2.45467350e-01f, 2.28586018e-01f, 3.31170931e-02f, 2.04912439e-01f, 1.81867197e-01f,
    9.53155681e-02f, 1.26264542e-01f, 7.80237317e-02f, 1.39681473e-01f, 1.65590018e-01f, 1.66417018e-01f, 7.00206757e-02f, 2.04076737e-01f,
    6.81370422e-02f, 5.08139506e-02f, 7.48655573e-02f, 1.05410330e-01f, 1.45236671e-01f, 1.35277644e-01f, 1.40266150e-01f, 1.28077149e-01f,
    1.63356140e-01f, -9.12029147e-02f, -1.46219656e-01f, -3.62476110e-02f, 1.64883584e-01f, 1.52049186e-02f, 1.13328770e-01f, 1.07369140e-01f,
    -5.21540493e-02f, 3.39886993e-02f, 2.82703782e-03f, -6.33679703e-02f, -4.80852984e-02f, 5.81911355e-02f, 4.99966517e-02f, 2.67168414e-03f,
    1.43417090e-01f, 6.21051341e-02f, 2.03211278e-01f, 1.01799890e-01f, -3.31866890e-02f, 7.13207573e-02f, 1.45195261e-01f, 1.19895749e-01f,
    5.52339666e-02f, 1.72469556e-01f, 5.83242998e-02f, 2.57479958e-03f, 7.66105652e-02f, 1.21415816e-01f, -3.92855667e-02f, 7.36586452e-02f,
    1.44214615e-01f, -3.99652496e-02f, 1.29066510e-02f, 8.32901523e-03f, 4.93918583e-02f, 1.55900091e-01f, 1.55986652e-01f, 1.46213427e-01f,
    -1.88764781e-02f, 8.01365450e-03f, -2.77701183e-03f, 8.38624910e-02f, -6.16753846e-03f, -6.68000132e-02f, -3.40560675e-02f, 2.47504916e-02f,
    1.11473165e-01f, 5.22979610e-02f, -6.09457958e-03f, -5.93795441e-02f, 1.74242817e-02f, 4.98503447e-02f, 8.17597564e-03f, 8.41449052e-02f,
