/* nn_weights.h — AUTO-GENERATED by export_c.py. DO NOT EDIT. */
#ifndef NN_WEIGHTS_H
#define NN_WEIGHTS_H

#define AMC_NUM_CLASSES 19

static const char * const AMC_CLASS_NAMES[AMC_NUM_CLASSES] = {
    "AM",
    "FM",
    "PM",
    "CW",
    "BPSK/DBPSK",
    "QPSK/DQPSK",
    "8PSK",
    "OQPSK",
    "2FSK",
    "4FSK",
    "8FSK",
    "8QAM",
    "16QAM",
    "16APSK",
    "32APSK",
    "64APSK",
    "128APSK",
    "256APSK",
    "OOK",
};

/* L0_CONV_W  [672] */  /* shape (32, 3, 7) */
static const float L0_CONV_W[672] = {
    -2.49432307e-02f, -8.16075802e-02f, -2.78792262e-01f, 3.17677468e-01f, 1.69095591e-01f, -1.87569782e-02f, -8.27875268e-03f, -2.31192703e-03f,
    -5.37617272e-03f, -5.41824222e-01f, 2.80290574e-01f, 1.43021539e-01f, 5.25185764e-02f, 4.73957844e-02f, -1.58143435e-02f, 3.55277560e-04f,
    1.06977835e-01f, -5.88729093e-03f, 2.02914253e-02f, -7.32734334e-03f, -1.12333323e-03f, 7.12396726e-02f, 2.36400485e-01f, 9.60742310e-02f,
    -5.04614353e-01f, -4.84542996e-01f, -1.32008910e-01f, 8.87446776e-02f, -8.81874189e-03f, -3.99198420e-02f, 5.40294833e-02f, -3.36596280e-01f,
    -1.59651265e-01f, 8.41887370e-02f, 5.56584299e-02f, 4.91704121e-02f, 4.73808758e-02f, -1.72685087e-03f, -7.73354918e-02f, -8.02112371e-02f,
    -5.13171330e-02f, -6.22733776e-03f, -7.45917410e-02f, 6.55559897e-02f, 2.40570411e-01f, -7.44391009e-02f, 1.82554871e-01f, 1.96465865e-01f,
    8.38402510e-02f, -2.81789675e-02f, -7.24924654e-02f, -9.53411162e-02f, -1.07854821e-01f, -1.55335918e-01f, -9.85722393e-02f, -4.87517528e-02f,
    2.18449123e-02f, 4.77217278e-03f, -3.11626017e-01f, 7.36138448e-02f, 1.04866892e-01f, 1.12738818e-01f, 5.88418692e-02f, -6.11701980e-02f,
    -2.55145311e-01f, -4.70133632e-01f, -1.45329207e-01f, -1.42194495e-01f, -8.13696533e-02f, -4.89556827e-02f, 7.18474910e-02f, 5.79591431e-02f,
    3.55344340e-02f, 6.96221516e-02f, -7.35398708e-03f, -1.72242653e-02f, -1.59701630e-02f, 2.27234643e-02f, -5.76355793e-02f, -6.16110265e-02f,
    2.32191220e-01f, -3.19653034e-01f, -2.29843751e-01f, -4.20420431e-02f, -1.25337154e-01f, 6.22543812e-01f, 6.31535113e-01f, 6.52616918e-01f,
    4.50011939e-01f, 5.85791059e-02f, 5.54776080e-02f, 4.99840304e-02f, -1.68468475e-01f, -3.46472673e-02f, 5.76380454e-02f, 6.34431615e-02f,
    8.25580861e-03f, 3.51696304e-04f, -4.09438126e-02f, -7.09225833e-02f, -2.61986330e-02f, 1.29033457e-02f, 2.31667943e-02f, 1.84097874e-03f,
    5.74771501e-03f, -1.42171919e-01f, -1.33368745e-01f, -1.30514815e-01f, -2.12837875e-01f, -2.55021006e-01f, -2.25217506e-01f, 5.82257025e-02f,
    -1.19434437e-02f, -9.99746844e-03f, 3.70841380e-03f, 9.63260140e-03f, 8.34000576e-03f, -4.18114988e-03f, -6.75142882e-03f, 2.11827625e-02f,
    1.72962043e-02f, 1.42442688e-01f, 5.83375037e-01f, 2.16457680e-01f, 4.69293892e-02f, 2.76053119e-02f, -2.61648476e-01f, 1.19927704e+00f,
    1.98431581e-01f, 3.82423520e-01f, 3.31528485e-01f, 2.01162890e-01f, 2.41462484e-01f, -5.68873761e-03f, 4.80607636e-02f, 6.27362111e-04f,
    2.02392302e-02f, 2.59176157e-02f, 1.18295401e-02f, -8.98221880e-03f, 4.42123450e-02f, 1.30901784e-01f, -2.50947744e-01f, -1.47238895e-01f,
    -1.02417395e-01f, -7.00599849e-02f, -5.29105775e-02f, -6.24510944e-02f, -1.53932661e-01f, 3.27689685e-02f, -3.67460281e-01f, -2.91636616e-01f,
    -1.98733106e-01f, 7.30838329e-02f, -3.97623749e-03f, -9.37587023e-03f, 1.87772028e-02f, 9.40919737e-04f, -9.56909452e-03f, -7.31885573e-03f,
    -9.17868502e-03f, 3.96791734e-02f, 4.94006537e-02f, -2.73015741e-02f, -5.33381402e-01f, -2.16546997e-01f, -5.11086658e-02f, -6.79291179e-03f,
    -8.03922117e-02f, 6.58864379e-02f, 6.31661654e-01f, -6.77534938e-01f, -2.06932142e-01f, 3.59689333e-02f, 7.87145644e-02f, 2.20650416e-02f,
    -4.00087014e-02f, -2.61752844e-01f, 2.13702142e-01f, -3.72678004e-02f, -5.84162883e-02f, -5.07169515e-02f, 1.95811000e-02f, 1.81854162e-02f,
    6.00194260e-02f, -3.66786085e-02f, 1.61187649e-02f, -5.03587117e-03f, 3.76777782e-04f, -2.04747822e-02f, 5.86426929e-02f, -2.69231975e-01f,
    2.26408929e-01f, 8.72484297e-02f, 3.63148227e-02f, 2.26281025e-02f, -4.58631758e-03f, 6.46513933e-03f, 1.06448878e-03f, -1.16170663e-02f,
    -6.26118202e-03f, 4.12748428e-03f, 1.56860217e-03f, -1.73424799e-02f, -1.63740337e-01f, -4.39121962e-01f, -4.01843935e-01f, -9.97567177e-02f,
    -6.76329806e-03f, -5.34010399e-03f, -1.96364120e-01f, -1.65490523e-01f, 3.12830001e-01f, 1.11065768e-01f, 1.44917235e-01f, -3.52074318e-02f,
    -1.21200306e-03f, 3.24050635e-02f, 8.70018452e-02f, 5.98735437e-02f, 8.03401619e-02f, 2.95120239e-01f, 2.56319642e-01f, 4.87375595e-02f,
    -1.27891481e-01f, -5.64065054e-02f, -2.81852931e-01f, 1.07326567e-01f, 1.66930303e-01f, 1.35233685e-01f, 9.54744890e-02f, 4.65365089e-02f,
    2.68417802e-02f, -4.25736560e-03f, 3.18457782e-02f, 1.27289861e-01f, -5.53345121e-02f, 4.49546218e-01f, -1.53456524e-03f, -6.62380038e-03f,
    -1.61729138e-02f, -1.01160994e-02f, -9.93558392e-03f, -1.09571507e-02f, 2.80682091e-02f, -3.35571803e-02f, -3.10683399e-02f, -1.09905712e-02f,
    -1.07453866e-02f, 3.07740886e-02f, 2.50761420e-01f, 6.28969371e-01f, -2.43111536e-01f, 4.79364634e-01f, 2.77556121e-01f, 7.55880028e-02f,
    1.58931881e-01f, 1.32621080e-01f, 1.33486986e-01f, -9.37583949e-03f, -7.17896502e-03f, 1.60561744e-02f, 1.42776892e-02f, -9.51485068e-04f,
    -3.77809070e-03f, -3.90322739e-03f, 1.85625888e-02f, -2.67798938e-02f, 4.14680511e-01f, 1.14404127e-01f, 2.72678081e-02f, -1.25487363e-02f,
    5.24642505e-03f, 3.31246525e-01f, 2.55698651e-01f, -1.80228859e-01f, 3.43531370e-01f, -5.20627797e-01f, -1.93334222e-01f, 1.88445240e-01f,
    -1.25515997e-01f, -7.93550014e-02f, 9.86246690e-02f, 4.47790414e-01f, 7.73101896e-02f, -2.96279658e-02f, -1.08678021e-01f, 7.02811778e-02f,
    9.96997207e-02f, 1.32635891e-01f, 1.34217143e-01f, -1.00154102e-01f, -1.06949255e-01f, -9.77470428e-02f, 3.40982199e-01f, -4.74430293e-01f,
    3.06902546e-03f, 5.33039905e-02f, 2.99406908e-02f, -4.28435579e-02f, -4.75202687e-02f, -4.65423986e-03f, 1.46949040e-02f, 1.96205657e-02f,
    1.62195098e-02f, 5.51971095e-03f, -6.80501282e-04f, -7.01232522e-04f, 3.06986570e-02f, 3.41833562e-01f, 2.68899500e-01f, 6.67601079e-02f,
    -8.13900214e-03f, -1.93331596e-02f, -1.02963923e-02f, -1.30504772e-01f, -9.42741707e-02f, -3.17980498e-02f, -1.87756177e-02f, 3.29672128e-01f,
    -2.96936244e-01f, -1.26360491e-01f, -1.77848730e-02f, -5.08704185e-02f, -4.34502251e-02f, -6.78191483e-02f, -2.63634920e-02f, -2.26463638e-02f,
    -1.91324130e-02f, -5.13078272e-02f, -8.23999792e-02f, -1.91591427e-01f, -3.66007864e-01f, -4.86045212e-01f, -1.16399213e-04f, -5.47398999e-02f,
    7.73999810e-01f, 7.87624419e-02f, -1.95799381e-01f, -1.01117171e-01f, 3.33953351e-01f, 1.88320011e-01f, 1.43675447e-01f, 2.95678228e-01f,
    8.70019644e-02f, -1.54416033e-04f, -6.65771142e-02f, -1.51974216e-01f, -5.14855459e-02f, -1.95334554e-02f, -2.45731622e-02f, -1.76236499e-02f,
    -6.24136021e-03f, -1.52688997e-03f, 1.74772704e-03f, -8.76312517e-03f, -1.40076829e-02f, -2.04231992e-01f, -3.91106337e-01f, -4.81175214e-01f,
    -3.21043193e-01f, -7.28279501e-02f, -3.41911726e-02f, 5.53558916e-02f, -2.18185410e-01f, -4.70174216e-02f, 5.89737333e-02f, 9.86929387e-02f,
    3.15205567e-02f, 2.56173834e-02f, 4.74002445e-03f, 3.78210172e-02f, 1.90274213e-02f, 2.57616788e-02f, 2.50935294e-02f, 3.38034495e-03f,
    2.73405970e-03f, 1.13295298e-03f, -1.25582039e-01f, -2.27922812e-01f, -3.32031339e-01f, -2.13037640e-01f, -2.43395925e-01f, -1.52675480e-01f,
    6.09940791e-04f, 5.23992218e-02f, 5.35020009e-02f, 3.94930616e-02f, 5.16176857e-02f, -6.85218573e-02f, -8.54494721e-02f, -5.41296862e-02f,
    8.05221125e-03f, -2.69699544e-02f, -5.80111258e-02f, -1.72088165e-02f, 3.43061030e-01f, 1.26574680e-01f, 2.00686306e-02f, 5.50970174e-02f,
    4.70891744e-01f, 7.63437450e-01f, 7.31171131e-01f, 2.55077064e-01f, -9.12877172e-02f, -5.51092401e-02f, -1.25549752e-02f, 1.58968028e-02f,
    -3.95950722e-03f, -1.14180865e-02f, -2.10283068e-03f, 1.00021549e-02f, 7.52335554e-03f, 6.31160811e-02f, 5.33971675e-02f, 1.44837841e-01f,
    1.55767024e-01f, 6.22708462e-02f, 9.99890082e-03f, 1.51866358e-02f, 5.76729536e-01f, 1.48529857e-01f, -3.03604513e-01f, -2.17814282e-01f,
    5.97969890e-01f, 3.64804685e-01f, 1.91515639e-01f, -2.04971060e-01f, -1.05317593e-01f, 5.15707694e-02f, 3.45360450e-02f, 1.63414940e-01f,
    7.08028078e-02f, 2.39521246e-02f, 9.15526878e-03f, -9.93833505e-03f, -8.98961630e-03f, 6.13940181e-03f, 2.83924695e-02f, -8.36148672e-03f,
    -2.71022692e-03f, 6.36056736e-02f, 2.41168529e-01f, 3.58987868e-01f, -1.49884030e-01f, -1.85184658e-01f, 2.48997599e-01f, -7.83160925e-02f,
    1.77754872e-02f, 3.76917683e-02f, 7.35076293e-02f, 4.96332198e-02f, 3.27133052e-02f, -9.07219760e-03f, -1.92068098e-03f, -3.81242894e-02f,
    -5.40054403e-02f, -1.66556224e-01f, -3.86665285e-01f, -3.42936307e-01f, -3.65226984e-01f, -7.82848075e-02f, -3.50690559e-02f, 1.58406626e-02f,
    -1.63891792e-01f, 1.13545150e-01f, -2.18519390e-01f, -3.74590427e-01f, -2.65521586e-01f, -7.62529159e-03f, -5.74438721e-02f, -2.32374761e-02f,
    -2.85115633e-02f, 3.01960614e-02f, 4.50689904e-02f, 1.47146750e-02f, 2.62289140e-02f, 3.87867214e-03f, -4.47979458e-02f, -1.18434548e-01f,
    6.18352294e-01f, -2.41759628e-01f, -3.36997211e-02f, -1.45787865e-01f, 1.19715059e+00f, -5.11061996e-02f, -9.20981392e-02f, -5.97873665e-02f,
    1.42268553e-01f, 1.97586790e-01f, 1.33747782e-03f, -1.30697349e-02f, -9.75634623e-03f, -9.60555952e-03f, -9.40231979e-03f, 6.67789159e-03f,
    3.08477646e-03f, 2.22535226e-02f, -1.78457107e-02f, 5.11322469e-02f, 5.45422360e-03f, -8.49909731e-04f, 1.39746610e-02f, 1.85676031e-02f,
    2.15255991e-01f, 4.47136968e-01f, 3.93026173e-01f, 3.87141407e-01f, 3.29659283e-01f, 1.04883574e-01f, -6.08443283e-02f, 3.97523977e-02f,
    -1.09355338e-02f, -1.27038866e-01f, -2.47996509e-01f, -2.29509294e-01f, 3.62534821e-02f, -5.50875347e-03f, -1.31319715e-02f, -4.29471806e-02f,
    -1.52663976e-01f, -2.09667668e-01f, -1.56514198e-01f, -9.67181325e-02f, 7.50760594e-03f, 1.45989478e-01f, 2.53132403e-01f, -9.29500237e-02f,
    -4.80852187e-01f, -6.55177295e-01f, -6.60351157e-01f, -4.48682010e-01f, 4.48946701e-03f, -3.76739167e-03f, 5.10442629e-03f, 3.99287511e-03f,
    -3.37558822e-03f, -8.81642802e-04f, 2.17057881e-03f, -4.47673119e-05f, 4.77796933e-03f, 8.88253388e-04f, 1.23261129e-02f, 7.41217984e-03f,
    9.21358913e-03f, 6.14374550e-03f, 5.97213544e-02f, 1.13209426e-01f, -7.60855302e-02f, 1.66807368e-01f, -1.80946663e-01f, 4.73091334e-01f,
    1.35200799e-01f, 3.48066874e-02f, -1.00429794e-02f, -3.43317240e-02f, -8.99154022e-02f, -8.24328363e-02f, -1.88931093e-01f, 5.60797155e-02f,
    1.80708095e-02f, 3.43449749e-02f, 1.44086285e-02f, 9.17043816e-03f, 1.67105719e-01f, 4.73373123e-02f, -3.37679684e-01f, 1.47213742e-01f,
    -1.59127206e-01f, -2.29085416e-01f, -3.24188173e-01f, -2.41933033e-01f, -5.27223311e-02f, 4.89426963e-02f, -3.55949998e-02f, 1.85952231e-03f,
    1.41200249e-03f, 1.01703722e-02f, 1.84675138e-02f, 1.09065752e-02f, 1.51687476e-03f, -5.41152120e-01f, -1.00658098e-02f, 2.50428524e-02f,
    4.51766839e-03f, 1.82373880e-03f, 1.29095428e-02f, 1.43022239e-02f, 3.56358916e-01f, 4.94021833e-01f, 4.70297009e-01f, -8.52499455e-02f,
    -1.71977915e-02f, 1.59592688e-01f, -7.19845444e-02f, 5.78848086e-02f, 5.73640950e-02f, 3.18997204e-02f, -1.11799976e-02f, -5.45657389e-02f,
    -8.79886299e-02f, -5.26018925e-02f, -5.70265949e-02f, -1.08830251e-01f, 4.25788499e-02f, 2.52577662e-01f, 2.22122863e-01f, 1.40752837e-01f,
    3.47160622e-02f, -3.62186506e-02f, 6.46805717e-03f, 2.49902740e-01f, -3.59166324e-01f, 4.10988957e-01f, 9.26073864e-02f, 2.13691637e-01f,
    1.04568545e-02f, 1.29029499e-02f, 1.57700572e-03f, 3.35153453e-02f, 2.68612243e-02f, 2.44859047e-02f, 1.46714170e-02f, 1.46908574e-02f,
    -2.60586938e-04f, -3.33850943e-02f, -3.35745633e-01f, -4.35480297e-01f, -4.34832601e-03f, 4.51872945e-02f, 6.52177026e-03f, -7.76089802e-02f,
    -2.00284228e-01f, -1.10904323e-02f, 1.93854183e-01f, -6.39435470e-01f, 7.42775574e-02f, -6.78776624e-03f, 6.44220710e-02f, 1.37486279e-01f,
    2.22555131e-01f, 2.71286607e-01f, -1.59295276e-01f, 3.38616103e-01f, 2.70114783e-02f, 4.14231606e-02f, 5.95971458e-02f, 8.23758617e-02f,
    8.65781754e-02f, -1.53277931e-03f, -7.30669647e-02f, 4.66985889e-02f, -7.46131167e-02f, -4.76324618e-01f, 2.52374977e-01f, 1.64508913e-02f,
    3.65652214e-03f, -8.20940882e-02f, -1.16600404e-02f, -1.43804736e-02f, 6.16371864e-03f, 1.39209209e-02f, 3.49447224e-03f, 4.81712492e-03f,
    4.15268494e-03f, -4.12471546e-03f, 1.45712793e-01f, 3.90744388e-01f, 4.08040971e-01f, 1.36870472e-02f, -3.45085934e-02f, -1.87000595e-02f
};


/* L0_CONV_B  [32] */
static const float L0_CONV_B[32] = {
    2.79555675e-02f, 1.89394414e-01f, 2.62586847e-02f, 1.49362624e-01f, -2.32408822e-01f, 1.36065349e-01f, 4.64021266e-02f, 9.02530774e-02f,
    2.27227166e-01f, -4.73759808e-02f, -6.31418228e-02f, 2.15598587e-02f, 1.47242352e-01f, 2.82888770e-01f, 1.59192204e-01f, -2.46655658e-01f,
    -4.45766151e-02f, -1.53540283e-01f, 1.49048895e-01f, 8.54868516e-02f, 5.12455851e-02f, -2.79685501e-02f, 1.70414403e-01f, -2.25363329e-01f,
    1.75751716e-01f, -1.24031454e-01f, 1.77636877e-01f, -1.93712845e-01f, 2.42813844e-02f, -2.45940477e-01f, 2.01188534e-01f, -2.58479655e-01f
};


/* L0_BN_SCALE  [32] */  /* gamma/sqrt(var+eps) */
static const float L0_BN_SCALE[32] = {
    9.63925481e-01f, 9.24272478e-01f, 1.02264106e+00f, 9.16727245e-01f, 1.44801319e+00f, 1.30676091e+00f, 1.31317186e+00f, 1.32819915e+00f,
    1.24887156e+00f, 1.76924014e+00f, 6.55340433e-01f, 1.27405500e+00f, 1.50584960e+00f, 8.25841963e-01f, 1.76277781e+00f, 1.02364445e+00f,
    1.23133659e+00f, 1.63476765e+00f, 1.34625626e+00f, 1.66963005e+00f, 1.23712254e+00f, 1.16195881e+00f, 8.19493115e-01f, 1.75492704e+00f,
    9.51750755e-01f, 2.30881214e+00f, 8.14258099e-01f, 1.24747527e+00f, 1.27147734e+00f, 1.26157045e+00f, 6.89502716e-01f, 1.50362873e+00f
};


/* L0_BN_SHIFT  [32] */  /* beta - mean*scale */
static const float L0_BN_SHIFT[32] = {
    -6.79417968e-01f, 3.11555713e-01f, -7.71887720e-01f, 1.00777352e+00f, -2.70862031e+00f, 1.23133135e+00f, -2.44541287e+00f, 9.20040727e-01f,
    -3.02385300e-01f, -6.69498265e-01f, -1.48663089e-01f, -1.30753064e+00f, -1.91563296e+00f, -6.14511311e-01f, -6.98023796e-01f, 7.19338417e-01f,
    -1.05998731e+00f, 2.36454964e+00f, 1.66888690e+00f, -3.42654395e+00f, -1.40408778e+00f, -3.77074778e-01f, 5.51406741e-01f, -1.16528583e+00f,
    -1.80371070e+00f, 4.41808653e+00f, -8.57010722e-01f, 9.57311928e-01f, -1.56245923e+00f, -8.47280264e-01f, 7.40956068e-02f, 3.09834540e-01f
};


/* L1_CONV_W  [10240] */  /* shape (64, 32, 5) */
static const float L1_CONV_W[10240] = {
    1.60323572e-03f, -4.82791364e-02f, -5.50425425e-02f, 2.36438401e-02f, -2.02185754e-02f, -1.07550137e-01f, -1.36736020e-01f, -1.69163907e-03f,
    -9.24802735e-04f, 2.76443008e-02f, 4.71559539e-02f, -1.81123801e-02f, -1.11721411e-01f, 2.73120217e-02f, 9.81716532e-03f, -4.41277884e-02f,
    -2.25082502e-01f, -4.85634394e-02f, -2.10176315e-02f, 1.58952363e-02f, 5.09893931e-02f, 1.15496300e-01f, 1.04617961e-01f, 2.18572281e-03f,
    -6.27454147e-02f, -3.12882997e-02f, -3.55732113e-01f, -1.28249243e-01f, 9.37822983e-02f, 2.30457038e-02f, 7.62206465e-02f, 8.56130421e-02f,
    4.62234728e-02f, 1.81630738e-02f, -2.42620390e-02f, -8.06129351e-02f, -3.72194231e-01f, -2.65431181e-02f, 4.27430980e-02f, -2.05596164e-02f,
    -2.65862457e-02f, 1.65379979e-02f, 3.07371970e-02f, -4.81631011e-02f, 3.38114537e-02f, 7.76555315e-02f, -5.44655882e-02f, -1.86838984e-01f,
    7.29283914e-02f, 4.86874860e-03f, 7.76958559e-03f, -4.59781289e-03f, -1.11236505e-01f, 4.16657664e-02f, 3.15097943e-02f, -1.91827998e-01f,
    7.90701956e-02f, -3.39397267e-02f, 3.39847244e-02f, 4.26067188e-02f, 1.00271851e-01f, -3.67846079e-02f, -1.11347355e-01f, -8.38641375e-02f,
    -4.65495279e-03f, -7.26526603e-02f, -2.72676051e-02f, 1.58906076e-02f, -1.79845002e-03f, 2.11864803e-02f, -4.05887701e-03f, 5.42444102e-02f,
    -1.59441993e-01f, 1.18780345e-01f, 5.08738980e-02f, -4.25631441e-02f, -1.00380018e-01f, -2.00123060e-02f, 1.49767213e-02f, 5.71343414e-02f,
    9.45216715e-02f, 6.47345185e-02f, 4.81898934e-02f, 3.56352590e-02f, -3.87618616e-02f, 1.09863747e-02f, -1.51318252e-01f, -2.52366692e-01f,
    4.01689522e-02f, -5.12479916e-02f, -6.71724379e-02f, -3.39950532e-01f, -7.82793611e-02f, -1.96084287e-02f, -1.80121362e-02f, 1.13981716e-01f,
    1.52730614e-01f, 2.05668688e-01f, -1.83042639e-03f, -2.71047428e-02f, 1.54376447e-01f, 6.84494376e-02f, 3.78587954e-02f, 1.92432832e-02f,
    -5.24654351e-02f, -7.19584674e-02f, -5.14446641e-04f, 5.74168079e-02f, -7.62796076e-03f, 8.61280505e-03f, -1.56173795e-01f, -1.79846257e-01f,
    4.95460667e-02f, 5.76805742e-03f, 2.62100808e-02f, 4.34609875e-02f, -2.42791362e-02f, 1.56583965e-01f, 4.97568399e-02f, 2.88075698e-03f,
    9.50579718e-02f, 1.43222511e-01f, 1.06546953e-01f, 3.02101858e-02f, -3.34540233e-02f, -2.85196304e-01f, 9.46412235e-03f, 4.99661826e-02f,
    4.64872364e-03f, -5.10131866e-02f, 5.90491295e-03f, -1.87424999e-02f, 1.95624847e-02f, -3.15972231e-03f, 4.16322239e-02f, -1.09745692e-02f,
    -7.21872598e-02f, -1.17469996e-01f, -1.93971992e-01f, 4.43637855e-02f, 5.83219388e-03f, 9.63572878e-03f, 1.45190075e-01f, 6.88914151e-04f,
    -2.98008658e-02f, 7.25079104e-02f, -7.04016015e-02f, 5.61177060e-02f, 4.70968382e-03f, 3.53254303e-02f, -5.15621901e-02f, 1.08877607e-02f,
    1.53704984e-02f, 1.43654943e-02f, 9.17361976e-05f, 2.29216069e-02f, -5.10871112e-02f, -1.95986211e-01f, 9.26002115e-02f, -4.59918790e-02f,
    -9.79276821e-02f, 7.93939903e-02f, 1.89567432e-01f, 1.52620867e-01f, 7.87352398e-02f, -7.99809545e-02f, 1.86696369e-03f, 3.24622877e-02f,
    6.57003969e-02f, 9.98200476e-02f, -3.29934439e-04f, 4.72338684e-02f, 3.06228064e-02f, 3.75643782e-02f, 1.20620877e-01f, 1.29207158e-02f,
    5.33084311e-02f, -2.94598415e-02f, 1.17012616e-02f, 1.17712304e-01f, -2.00901795e-02f, 1.08931579e-01f, -8.43596645e-03f, -2.13846024e-02f,
    -5.80157749e-02f, -1.39952421e-01f, -8.62700492e-02f, -9.13343355e-02f, -1.95154306e-02f, 4.18439023e-02f, -4.49067354e-02f, -6.43802658e-02f,
    9.42021459e-02f, 1.49900258e-01f, 8.52824301e-02f, -1.43886074e-01f, -2.04459563e-01f, -9.26975161e-02f, -5.04418015e-02f, -3.62365767e-02f,
    -3.33655588e-02f, -2.39260513e-02f, 8.84092301e-02f, 5.31512313e-02f, 4.31773141e-02f, 4.88496665e-03f, -4.17258501e-01f, -4.77942824e-01f,
    -3.10199708e-02f, 2.43297938e-04f, 2.81482339e-02f, -5.90827763e-02f, 2.07658149e-02f, 1.17595844e-01f, 2.02485561e-01f, -7.34310076e-02f,
    -1.04674287e-01f, 3.55707668e-02f, -2.92156525e-02f, 6.30197674e-02f, 6.49805441e-02f, 4.38680127e-02f, 4.47182581e-02f, -1.99749647e-03f,
    -2.36045830e-02f, 4.33125012e-02f, 9.19054374e-02f, 2.15956774e-02f, -3.38244960e-02f, 6.79765642e-02f, 1.15863465e-01f, -3.28157544e-02f,
    3.68191488e-02f, 8.79016593e-02f, 8.73246863e-02f, -2.44959146e-01f, -5.56910813e-01f, -7.96090811e-02f, 3.39662395e-02f, -1.69484019e-02f,
    4.19132598e-02f, 3.26323174e-02f, 2.90606357e-02f, 1.12620443e-01f, 2.88853701e-02f, -5.25434241e-02f, -6.39919341e-02f, -1.05747357e-01f,
    5.35079986e-02f, 4.04290967e-02f, -1.48000687e-01f, -6.18534163e-02f, 4.60589565e-02f, 1.78745463e-02f, 1.18560351e-01f, -2.55664382e-02f,
    -4.96638529e-02f, -4.27716561e-02f, -6.90960884e-02f, -9.71939340e-02f, -8.28419253e-02f, 6.63188919e-02f, -2.55041569e-02f, 2.27720216e-02f,
    -1.06745418e-02f, -3.36050153e-01f, -3.77613574e-01f, -1.55682070e-02f, 1.42710647e-02f, 6.58857599e-02f, 1.36377558e-01f, 8.56751949e-02f,
    -3.90968006e-03f, 1.14175506e-01f, 8.39528143e-02f, 7.58384839e-02f, 1.63487017e-01f, -3.21525708e-02f, 5.29227778e-02f, -1.70913581e-02f,
    -1.92616373e-01f, -2.08185166e-01f, 1.78847928e-02f, 4.79572900e-02f, -3.01482305e-02f, 1.82118756e-03f, -1.08195372e-01f, -2.24612281e-03f,
    3.10510751e-02f, -1.85897201e-02f, -1.52385682e-02f, -2.67794672e-02f, 4.69006738e-03f, 1.78750768e-01f, 7.42153451e-02f, -2.13873088e-02f,
    3.73736350e-03f, -5.25118560e-02f, -1.77241907e-01f, -1.96434627e-03f, -3.94266881e-02f, -9.75302048e-03f, -8.03635642e-02f, -7.64929652e-02f,
    4.11287285e-02f, -1.78045750e-01f, -2.24258736e-01f, -8.29023123e-02f, 1.21293947e-01f, -1.01659531e-02f, 1.87894590e-02f, 1.62980959e-01f,
    1.99806735e-01f, 1.06545776e-01f, 1.48962453e-01f, -9.20154750e-02f, -1.31588086e-01f, -9.65553671e-02f, 1.02970071e-01f, 4.49472032e-02f,
    7.65158981e-02f, 7.93909431e-02f, -7.84435049e-02f, 2.99478900e-02f, -9.25180316e-02f, 4.46556956e-02f, 4.22086529e-02f, 1.59120876e-02f,
    -2.36487743e-02f, -5.61558306e-02f, 1.35926083e-01f, 1.74607575e-01f, 7.76986554e-02f, 9.72781703e-03f, 1.62249625e-01f, 8.25799555e-02f,
    7.49661028e-02f, 6.28917962e-02f, -6.85759634e-02f, -6.15403466e-02f, 4.69014868e-02f, 1.23224646e-01f, 1.43658459e-01f, 1.41750630e-02f,
    -1.31195545e-01f, 1.23898007e-01f, 2.51480769e-02f, -1.44723937e-01f, 1.74523424e-02f, -8.41701627e-02f, 1.60006911e-01f, 9.32758749e-02f,
    -2.62115654e-02f, -3.37199382e-02f, -1.16035193e-01f, 2.83017401e-02f, -5.08307405e-02f, 6.99701756e-02f, -5.37156798e-02f, -7.38558322e-02f,
    1.26085561e-02f, -4.01487090e-02f, 1.94704812e-02f, -4.42591198e-02f, -3.16649629e-03f, 3.90662737e-02f, 7.66661987e-02f, -1.47951871e-01f,
    1.43389761e-01f, -9.18604359e-02f, 1.12171650e-01f, 1.56646356e-01f, 1.04379788e-01f, 1.80896401e-01f, 8.59848484e-02f, 1.27594853e-02f,
    1.83862016e-01f, -4.38146032e-02f, -8.59186873e-02f, -4.65589762e-02f, 1.59148648e-01f, 5.40731698e-02f, -1.09672192e-02f, 1.22167967e-01f,
    -8.95746946e-02f, 1.24616981e-01f, 9.40668508e-02f, 3.48809548e-02f, 1.93373743e-03f, -4.04747687e-02f, -2.01974306e-02f, 1.41505748e-01f,
    -6.01825230e-02f, 7.63222277e-02f, -5.69421425e-02f, 4.44927812e-02f, -1.01220302e-01f, 7.37859979e-02f, -2.18353998e-02f, 6.14506230e-02f,
    1.27441034e-01f, 2.65390664e-01f, 1.44784674e-01f, -2.31815800e-02f, -6.89174756e-02f, -9.03557017e-02f, -9.19815153e-02f, -8.22697580e-02f,
    -1.08633652e-01f, -5.80053963e-02f, 6.42911196e-02f, 2.16032136e-02f, 1.33189391e-02f, -8.56425166e-02f, -5.72610348e-02f, 1.67771310e-01f,
    6.05621822e-02f, 2.02093303e-01f, 6.84290975e-02f, -4.86029163e-02f, 1.09758243e-01f, 1.73515618e-01f, 6.09718934e-02f, 8.90540034e-02f,
    -3.66137736e-02f, 1.33733541e-01f, -1.01354189e-01f, 1.25855267e-01f, 6.62896335e-02f, -4.54116538e-02f, -1.08523909e-02f, 6.07520640e-02f,
    -8.33683684e-02f, -3.04794665e-02f, -4.97450009e-02f, 5.34859896e-02f, -1.30687699e-01f, 5.18330559e-02f, -7.27517977e-02f, 7.46826176e-03f,
    2.26533916e-02f, 2.95319520e-02f, 2.42013037e-02f, 7.96841606e-02f, 4.48158389e-04f, -1.58955708e-01f, -1.04718655e-01f, -1.75811902e-01f,
    -8.93231183e-02f, -8.34020227e-02f, 8.10063407e-02f, 9.54354275e-03f, 2.02232227e-02f, 2.43648440e-02f, -5.80167584e-02f, -1.46759935e-02f,
    4.52454351e-02f, 1.95697829e-01f, -4.79795896e-02f, 3.96623202e-02f, 1.40057653e-01f, 4.73610014e-02f, 2.58955479e-01f, 2.05777884e-02f,
    2.80399509e-02f, 1.60075024e-01f, -6.24625497e-02f, 2.12569222e-01f, 7.95281678e-02f, 9.46184918e-02f, 5.62184080e-02f, 1.97886080e-02f,
    9.63546559e-02f, 1.88214123e-01f, 2.57317675e-03f, -4.24520448e-02f, 8.25054869e-02f, -1.18821658e-01f, 7.27101862e-02f, -1.08979404e-01f,
    1.06163770e-02f, 4.24511321e-02f, -7.91902840e-02f, 3.75255942e-02f, -8.57092720e-03f, 9.67929885e-03f, -5.33528738e-02f, 2.74958074e-01f,
    3.78918350e-02f, -1.87243205e-02f, 1.85300801e-02f, -1.83672532e-02f, -7.99019262e-02f, -1.21299736e-01f, 8.64586085e-02f, 4.26399009e-03f,
    9.63045564e-03f, 9.89984721e-02f, 2.35901460e-01f, 1.02464855e-01f, -1.05908923e-02f, 8.64013191e-03f, 6.20065220e-02f, 5.50059453e-02f,
    1.60572931e-01f, 3.99505235e-02f, -1.71392504e-02f, 2.05094427e-01f, 2.04873532e-01f, 6.82821348e-02f, 6.91120476e-02f, 2.16175686e-03f,
    9.04727504e-02f, 1.22190803e-01f, 3.07702720e-02f, -2.81820688e-02f, -3.77420336e-02f, 1.44356951e-01f, 2.06204221e-01f, 5.88764325e-02f,
    2.01317053e-02f, -7.67815486e-02f, 7.00544491e-02f, -2.18617052e-01f, -5.66254891e-02f, 4.13695350e-02f, 2.72166785e-02f, -1.04773259e-02f,
    2.88240075e-01f, 1.15033127e-01f, -4.98420522e-02f, 3.13203782e-02f, -1.20463245e-01f, -1.11826554e-01f, 7.43927658e-02f, -2.20852569e-02f,
    1.04420453e-01f, 6.29572719e-02f, 2.72437595e-02f, 4.54016998e-02f, 4.72755283e-02f, 6.89026564e-02f, 1.66197598e-01f, 1.88258052e-01f,
    1.24796152e-01f, -3.87167209e-03f, -1.39471255e-02f, 5.90131730e-02f, 8.90619978e-02f, -6.59342930e-02f, 1.96941644e-02f, 8.70165154e-02f,
    4.22157608e-02f, -2.27414072e-02f, 1.11089535e-02f, -1.54962149e-02f, 1.62689500e-02f, 1.53477594e-01f, 1.44892991e-01f, 2.66021863e-02f,
    3.87287065e-02f, 3.50066908e-02f, -5.24222888e-02f, 1.63810134e-01f, -4.19242643e-02f, 2.12099217e-03f, -3.05910073e-02f, -1.02420815e-03f,
    1.81544855e-01f, 1.53801024e-01f, -3.03313788e-02f, -1.48860514e-02f, 6.41672611e-02f, 1.76463857e-01f, 1.13632657e-01f, 5.58276363e-02f,
    5.01989834e-02f, 2.30814815e-02f, 4.77893353e-02f, 5.91056533e-02f, 1.47765968e-02f, 3.61232683e-02f, -5.86083755e-02f, 3.60902064e-02f,
    -4.95110899e-02f, -3.80861610e-02f, -6.86558662e-03f, 1.37233600e-01f, -6.43869489e-02f, 1.34265088e-02f, -2.58776844e-02f, 2.39756405e-02f,
    9.31525007e-02f, 1.08830340e-01f, 7.03789145e-02f, 1.68500356e-02f, -7.01473802e-02f, -8.11544284e-02f, -1.77095234e-01f, -1.40369767e-02f,
    -1.78247951e-02f, -4.03679609e-02f, -4.56040017e-02f, 1.49036786e-02f, -6.98021948e-02f, -8.75652581e-02f, 1.25745177e-01f, 2.57056475e-01f,
    1.10294312e-01f, -3.60457711e-02f, -1.15903923e-02f, 3.87130156e-02f, 5.40150702e-02f, 1.60783324e-02f, 4.58490811e-02f, 3.50623801e-02f,
    3.36432755e-02f, 1.13678865e-01f, 1.84288070e-01f, 9.25721228e-02f, 2.19258834e-02f, -7.53848031e-02f, 3.48847620e-02f, 7.00318217e-02f,
    1.81981630e-03f, 7.88726732e-02f, -7.12435618e-02f, 1.31037995e-01f, 3.18224877e-02f, 1.71785560e-02f, -2.82760244e-02f, 1.98839735e-02f,
    -5.35089336e-02f, -5.91956675e-02f, -1.69844381e-04f, -1.27012646e-02f, 4.21377085e-03f, 2.80772056e-02f, 1.19331650e-01f, 3.87732289e-03f,
    -5.21251783e-02f, -2.32818857e-01f, -6.60146251e-02f, -1.06885031e-01f, -9.12139937e-02f, -8.39206055e-02f, 3.80101725e-02f, -8.01022425e-02f,
    -2.37573832e-02f, -1.51430756e-01f, -8.78623575e-02f, 1.46496827e-02f, -1.77761186e-02f, -8.72808546e-02f, -1.15066200e-01f, 7.78855989e-03f,
    1.30026966e-01f, -5.78711592e-02f, 1.66014180e-01f, 5.17333252e-03f, 9.12483633e-02f, 4.33095247e-02f, 8.78798869e-03f, -1.04167543e-01f,
    -7.19958767e-02f, -1.57559156e-01f, 6.94408491e-02f, -7.16309017e-03f, -4.60161529e-02f, -1.39756147e-02f, 8.73575658e-02f, 1.58595964e-02f,
    -1.86241940e-01f, 2.55038381e-01f, 9.31935087e-02f, -1.36678740e-01f, -1.68189220e-02f, -6.13396615e-02f, -3.16453874e-02f, 1.21903410e-02f,
    -1.73037156e-01f, -1.00179784e-01f, -1.61659122e-01f, -1.37087554e-02f, -4.07998040e-02f, -1.27787217e-01f, -8.48775432e-02f, 2.68846214e-01f,
    9.94387083e-03f, -1.08308837e-01f, 6.43034577e-02f, 1.27998320e-02f, -1.15277562e-02f, -7.85140172e-02f, -1.27727509e-01f, 2.80103862e-01f,
    7.52740502e-02f, 9.81800631e-02f, 7.39588365e-02f, 5.57123460e-02f, -2.83821486e-02f, -1.52783811e-01f, 1.24270238e-01f, -1.78273737e-01f,
    1.44047039e-02f, -2.17389539e-01f, -4.72933985e-02f, -1.01418614e-01f, -1.52811006e-01f, -1.00856915e-01f, -6.83182925e-02f, -2.11725160e-01f,
    1.71216935e-01f, -5.69934398e-02f, 1.46899104e-01f, 2.29350161e-02f, 4.29875702e-02f, -1.24425767e-02f, 4.01174910e-02f, 4.45489511e-02f,
    8.60515889e-03f, 1.37768509e-02f, 7.79871196e-02f, -4.23556427e-03f, -2.12710463e-02f, 1.95911396e-02f, -6.90026656e-02f, 2.58521624e-02f,
    -2.48137843e-02f, -5.17828576e-02f, -1.07473247e-01f, 2.02085413e-02f, -8.93268958e-02f, 3.06230541e-02f, -1.21726580e-01f, -1.68910354e-01f,
    6.06799610e-02f, 1.07220262e-01f, 3.63910850e-03f, -1.40721738e-01f, -1.18152000e-01f, -9.02248025e-02f, -5.48122674e-02f, -5.39601296e-02f,
    -6.04394637e-02f, 1.91509724e-01f, 8.22587609e-02f, -9.13313683e-03f, 2.98098996e-02f, 9.71339718e-02f, -6.47712275e-02f, 1.06007695e-01f,
    3.74638736e-02f, 5.48255332e-02f, -2.30726996e-03f, -9.68048871e-02f, 1.12007402e-01f, 8.92540812e-02f, -2.86691673e-02f, -2.07575392e-02f,
    -4.81279157e-02f, -1.33988291e-01f, -1.84653684e-01f, -3.64541635e-02f, -5.87746222e-03f, 6.74870387e-02f, 7.22462535e-02f, -5.64790238e-03f,
    -4.37499620e-02f, -6.24357648e-02f, -1.31675124e-01f, 8.41161236e-02f, -7.07525834e-02f, 4.48656362e-03f, 5.73671050e-02f, 6.16019890e-02f,
    1.19295260e-02f, -4.11721580e-02f, 2.91737132e-02f, -9.60112587e-02f, -7.63731152e-02f, 2.34598711e-01f, 1.24213072e-02f, 6.73817769e-02f,
    6.57814145e-02f, -5.29977679e-02f, 1.00150645e-01f, -1.24858901e-01f, -8.83176625e-02f, -1.47818789e-01f, -7.84588628e-04f, -1.07632495e-01f,
    -2.48539951e-02f, -2.36311093e-01f, -1.11061223e-01f, -5.87239005e-02f, -1.57560468e-01f, 1.91753536e-01f, -6.92046136e-02f, 1.87180135e-02f,
    -3.84742469e-02f, -6.68877363e-02f, 4.77473438e-03f, -9.44713950e-02f, -3.22858468e-02f, -1.45290261e-02f, 3.89654785e-02f, -1.44125864e-01f,
    -1.58711910e-01f, 5.72447032e-02f, 2.50533093e-02f, 8.49460214e-02f, 2.51352880e-02f, -2.10421562e-01f, -1.27924636e-01f, -6.20275550e-02f,
    -1.00610062e-01f, -1.39018476e-01f, -3.18090737e-01f, -2.70720452e-01f, -7.40620075e-03f, -4.83190082e-02f, -7.46647827e-03f, 9.85577926e-02f,
    4.21279520e-02f, 2.92778425e-02f, -1.23470249e-02f, -7.61234909e-02f, -1.74015447e-01f, -5.76572083e-02f, -7.26358294e-02f, -1.45688308e-02f,
    1.32839931e-02f, -8.86875242e-02f, -7.02797174e-02f, -9.80873665e-05f, 1.08386884e-02f, -1.53372675e-01f, -2.11482108e-01f, -1.61140129e-01f,
    2.32573412e-02f, 5.74388425e-04f, -2.39005893e-01f, -5.21636829e-02f, -5.78055233e-02f, 4.56007905e-02f, -2.97828522e-02f, 8.52044225e-02f,
    -4.82287668e-02f, -6.83285818e-02f, 1.66656636e-02f, 6.20239526e-02f, 2.76989844e-02f, -1.03966758e-01f, -3.47789787e-02f, -2.62538288e-02f,
    -1.71813697e-01f, -1.45808533e-01f, -1.57162115e-01f, -6.66146427e-02f, -5.50349131e-02f, -3.27539891e-02f, 9.84575972e-02f, -1.39442042e-01f,
    -1.34220719e-01f, -5.57528920e-02f, 1.78720430e-02f, 6.35992587e-02f, 9.99570452e-03f, 2.13566184e-01f, 2.13319268e-02f, -7.48663247e-02f,
    3.28593031e-02f, -9.76484418e-02f, -1.77592766e-02f, 3.37676853e-02f, -3.97681035e-02f, -9.95793939e-02f, -7.80302584e-02f, 8.01078230e-02f,
    4.21405770e-02f, 6.96546361e-02f, 1.40065312e-01f, 5.18390648e-02f, 1.08583272e-01f, 7.99445901e-03f, 4.34961058e-02f, -3.47635075e-02f,
    1.28969103e-01f, 8.36874768e-02f, -7.24145323e-02f, -3.97018492e-02f, -1.38869703e-01f, -1.43476352e-01f, -1.63734127e-02f, 2.28812974e-02f,
    -1.05067648e-01f, 1.06240772e-01f, 1.26620203e-01f, 9.69674960e-02f, 6.62859157e-02f, 9.42428634e-02f, 3.10302097e-02f, 5.85756525e-02f,
    7.54288360e-02f, 1.11070648e-02f, 2.65953448e-02f, 7.33767450e-02f, 4.71781418e-02f, 1.12003922e-01f, -1.01714015e-01f, -2.33416796e-01f,
    -4.88383681e-01f, -2.62883097e-01f, -1.06790997e-01f, -2.47113761e-02f, 4.94876876e-03f, -1.81932691e-02f, 7.53661916e-02f, 8.71042162e-02f,
    -3.55026312e-03f, 5.76523468e-02f, 2.22395863e-02f, 1.55563667e-01f, 6.81125224e-02f, 9.98785645e-02f, 9.52841938e-02f, 2.23587379e-01f,
    -4.52609286e-02f, -8.80732294e-03f, -5.89064546e-02f, -2.52457000e-02f, -1.11723706e-01f, -2.14168072e-01f, -7.83883408e-02f, -3.40699553e-02f,
    1.20705031e-02f, -2.22937033e-01f, -2.16137305e-01f, -4.66095060e-01f, 3.90537381e-02f, 8.03610981e-02f, 3.33498940e-02f, 1.35588676e-01f,
    8.03150982e-02f, -7.85118416e-02f, 9.31728259e-02f, -9.62161049e-02f, -1.89522713e-01f, -1.23415947e-01f, -1.08022522e-03f, -4.33614738e-02f,
    -1.23214245e-01f, -1.57405943e-01f, 4.28175963e-02f, 9.35646519e-03f, -8.96635056e-02f, 1.90926399e-02f, -1.24758363e-01f, -1.23964883e-01f,
    -4.16109934e-02f, 5.44329621e-02f, -5.22915311e-02f, -1.37901334e-02f, 1.47698540e-02f, 3.76777388e-02f, -2.11079754e-02f, -1.12102646e-02f,
    -1.68846861e-01f, -1.04155749e-01f, -9.90862846e-02f, -8.10902640e-02f, 2.84264646e-02f, 8.53609666e-02f, -1.72481965e-02f, -2.27280334e-02f,
    -3.22486237e-02f, 2.66514607e-02f, 1.65217556e-02f, 4.45536859e-02f, 4.28798869e-02f, 1.61692612e-02f, -1.07038662e-01f, -5.59586287e-02f,
    -4.12918540e-04f, 9.43124574e-03f, 2.82191895e-02f, -1.65855393e-01f, -2.85866205e-02f, -4.08336595e-02f, -3.54969539e-02f, -3.10063064e-02f,
    2.89807409e-01f, 6.70382157e-02f, 1.01350598e-01f, -2.74199247e-02f, -1.16436586e-01f, -8.59399959e-02f, 2.52117906e-02f, 2.42545810e-02f,
    -1.36597037e-01f, -1.46919742e-01f, 5.33550121e-02f, 4.80628163e-02f, 5.02270088e-02f, -5.11285514e-02f, 9.62490588e-02f, -7.40951747e-02f,
    -5.46875224e-02f, -1.47095937e-02f, 5.60430810e-03f, -1.42243162e-01f, -1.70652300e-01f, -9.82733667e-02f, -4.85109054e-02f, -3.74721773e-02f,
    -1.29180863e-01f, 2.72170659e-02f, 8.10948908e-02f, -5.12651578e-02f, -9.87789854e-02f, 3.15930784e-01f, -1.13228783e-01f, -5.15443273e-02f,
    2.57523116e-02f, 5.85886836e-02f, -5.95905632e-02f, -1.26286611e-01f, -1.60433482e-02f, 7.63936937e-02f, -7.39097968e-02f, 7.51856267e-02f,
    -1.61766946e-01f, -2.24840268e-01f, 2.20342409e-02f, -1.65364280e-01f, -3.06659967e-01f, -1.28914937e-02f, 9.89065245e-02f, 9.73322801e-03f,
    -2.29533501e-02f, 2.16938794e-01f, -2.23858971e-02f, 1.23572387e-01f, 4.49918676e-03f, 4.33521643e-02f, 1.69068680e-03f, 1.05732540e-02f,
    -3.86875618e-05f, -6.04281761e-02f, 7.82726109e-02f, -2.26928040e-01f, -4.54746559e-02f, -3.37801389e-02f, 5.32952510e-02f, 8.96134749e-02f,
    7.34688565e-02f, -6.65308982e-02f, -1.09701969e-01f, -1.70550495e-02f, 5.46898469e-02f, 1.05558604e-01f, -1.10973470e-01f, -6.94979541e-03f,
    1.47554744e-02f, -1.40618131e-01f, -7.76774436e-02f, 2.49193851e-02f, -1.20330201e-02f, 4.86973561e-02f, 1.04977570e-01f, -3.06853801e-02f,
    5.92902415e-02f, 4.20331173e-02f, 2.62564644e-02f, 1.14153117e-01f, 2.47780178e-02f, 1.33581394e-02f, 7.50280619e-02f, 5.26241213e-02f,
    -1.72926918e-01f, -2.07461774e-01f, 1.33321196e-01f, 1.25134349e-01f, 1.37918532e-01f, 4.01153006e-02f, 1.37357814e-02f, 1.78411558e-01f,
    1.23207778e-01f, 3.08331084e-02f, 2.44342461e-02f, -1.30036175e-01f, 6.66860193e-02f, 1.12733170e-01f, 1.59559652e-01f, -2.89583392e-02f,
    -7.06217298e-03f, -7.18745589e-02f, -2.26646755e-02f, 3.23537476e-02f, 6.59145564e-02f, -8.95269439e-02f, -2.45879844e-01f, 3.80876362e-02f,
    -2.12847311e-02f, 9.26268846e-02f, -9.60753188e-02f, -6.20368347e-02f, -1.19932674e-01f, 1.51093081e-02f, -1.55585721e-01f, -3.50644290e-02f,
    -6.50705919e-02f, -3.17920223e-02f, 9.61415656e-03f, -2.32811585e-01f, 7.34531581e-02f, -1.15346245e-01f, 6.78824335e-02f, 4.98962589e-02f,
    6.84620664e-02f, 6.62458315e-02f, -9.90804210e-02f, 1.03188448e-01f, -5.26701808e-02f, -5.01343384e-02f, 7.62315616e-02f, -8.32149982e-02f,
    -8.73861313e-02f, -1.37506634e-01f, -9.80040058e-02f, -9.53722224e-02f, 9.02212411e-03f, -2.12065745e-02f, 1.75956506e-02f, -4.50160392e-02f,
    3.43231894e-02f, -9.67838392e-02f, -1.27159819e-01f, -4.41928878e-02f, 1.33580938e-01f, -4.93929982e-02f, -3.07168029e-02f, 1.17868155e-01f,
    9.23012570e-02f, 7.01757940e-03f, 2.34361272e-02f, -2.17985213e-02f, 7.53752738e-02f, -8.83297250e-02f, 9.21113417e-02f, 1.01617269e-01f,
    2.07023636e-01f, 6.16568141e-03f, 6.09364435e-02f, 1.52650699e-01f, -5.19933105e-02f, 2.76889391e-02f, -4.37110327e-02f, -2.07282051e-01f,
    -3.87422950e-03f, -1.08403683e-01f, 1.79082174e-02f, 1.71021577e-02f, -6.53462708e-02f, 1.97692975e-01f, -1.83831155e-02f, 8.16849023e-02f,
    -8.41476470e-02f, -1.13381529e-02f, -1.63305551e-01f, -1.27161920e-01f, 1.47671223e-01f, -2.14911234e-02f, -1.08418040e-01f, 7.43770376e-02f,
    -1.41035035e-01f, 1.14854667e-02f, -4.01904769e-02f, 1.55172599e-02f, 3.83138396e-02f, 2.07158536e-01f, 1.52520984e-02f, -2.19209958e-02f,
    -8.50501880e-02f, 3.76498550e-02f, 5.74769042e-02f, 9.78397112e-03f, 1.82257831e-01f, -2.51384713e-02f, 1.42501786e-01f, 4.33671102e-02f,
    9.33005661e-02f, 8.68428219e-03f, -1.49828359e-01f, 1.13142960e-01f, -7.65767097e-02f, -1.46905938e-03f, -1.22642606e-01f, -1.54297769e-01f,
    -3.11064813e-02f, -5.76332957e-02f, 1.79900780e-01f, -8.64098147e-02f, 1.16008997e-01f, -2.60984786e-02f, -5.12194224e-02f, -3.52514461e-02f,
    -1.75470486e-02f, -1.42204473e-02f, 1.11192308e-01f, 2.22335905e-02f, 2.56121550e-02f, -5.97973131e-02f, -5.79155572e-02f, -3.87702249e-02f,
    -1.21519811e-01f, -1.97298110e-01f, -2.50208806e-02f, 1.40732080e-02f, 7.54662827e-02f, -1.44706041e-01f, -7.29842409e-02f, 7.91437328e-02f,
    4.13637124e-02f, -7.49267936e-02f, 6.23604432e-02f, -2.43448257e-01f, -5.21595962e-02f, -4.25029509e-02f, 8.66046026e-02f, 3.67798135e-02f,
    1.64507180e-02f, -1.29501954e-01f, -1.10738643e-01f, -4.26251255e-02f, 5.43803647e-02f, -1.20363504e-01f, 1.24145731e-01f, 5.78844585e-02f,
    -1.32061960e-02f, -6.36973977e-02f, 6.46594912e-02f, 2.25550309e-02f, 1.45603254e-01f, -1.56428199e-02f, 5.44915982e-02f, -1.23294763e-01f,
    -2.78611124e-01f, -2.04736322e-01f, 7.23622218e-02f, 1.86334595e-01f, -5.51972687e-02f, -8.28584135e-02f, -8.46953169e-02f, 1.34776592e-01f,
    7.02376366e-02f, -8.83741677e-03f, 7.04406798e-02f, -2.79953852e-02f, -2.30645072e-02f, -1.68503135e-01f, -3.47170010e-02f, 5.36042228e-02f,
    5.11929318e-02f, -1.67247672e-02f, -1.34724155e-01f, 4.80127521e-03f, 4.10901979e-02f, 1.89766902e-02f, -1.13248557e-01f, -1.44858479e-01f,
    6.39719889e-02f, 2.77343690e-02f, -1.81396097e-01f, 2.70155445e-02f, 9.26954765e-03f, 1.21181801e-01f, 3.15413997e-02f, -2.02446938e-01f,
    1.81481779e-01f, -3.63761522e-02f, -6.32574037e-02f, -7.66596422e-02f, 7.76843354e-02f, -7.52952471e-02f, -4.24260367e-03f, 1.75676979e-02f,
    7.43726939e-02f, -5.38969077e-02f, 6.38179928e-02f, 9.04263258e-02f, -6.35390952e-02f, 3.06441747e-02f, -1.20499246e-02f, 3.75254336e-03f,
    -1.86020195e-01f, -1.02776818e-01f, 4.23738770e-02f, 1.38866007e-01f, -3.01297917e-03f, 3.32089402e-02f, 3.77947576e-02f, -6.09446429e-02f,
    -8.08209777e-02f, 9.93572772e-02f, 4.94693741e-02f, -1.16959952e-01f, -1.78837460e-02f, -6.74388111e-02f, -8.82268921e-02f, -2.54462153e-01f,
    -1.07071146e-01f, 1.57537058e-01f, 1.06530366e-02f, -8.75898302e-02f, -1.70123547e-01f, -4.21851836e-02f, -2.58758850e-02f, -6.61705732e-02f,
    -1.15435153e-01f, -4.63304110e-02f, 2.81841238e-03f, 3.42363790e-02f, -1.37580052e-01f, 7.52399117e-02f, -5.31981811e-02f, -1.12032123e-01f,
    1.21469488e-02f, -8.17643404e-02f, 8.51145387e-02f, 1.17284037e-01f, 1.72004756e-02f, -1.16898753e-01f, 5.55398576e-02f, 1.81143582e-01f,
    6.91362843e-02f, 1.13725185e-01f, 7.75473341e-02f, 2.23818887e-02f, 2.75367536e-02f, -1.05664104e-01f, 4.50365692e-02f, -1.40714675e-01f,
    -4.45901155e-02f, 3.39698531e-02f, -5.38440607e-02f, 4.30828484e-04f, -1.92663986e-02f, -3.29886526e-02f, 1.27459705e-01f, -6.54722899e-02f,
    1.42400086e-01f, -1.29411310e-01f, 9.82919335e-02f, 7.39663392e-02f, -1.30389482e-01f, -5.93126379e-02f, 5.82480766e-02f, 9.86411199e-02f,
    1.59410626e-01f, 4.98200115e-03f, 1.36845559e-02f, -8.16602930e-02f, -9.37233493e-03f, -3.56859080e-02f, -5.92647046e-02f, -2.61716675e-02f,
    -2.07134634e-02f, 9.22400802e-02f, -8.57473444e-03f, 8.90594944e-02f, -1.09053627e-01f, 3.53269242e-02f, -7.92993382e-02f, 2.85923742e-02f,
    6.63910732e-02f, 1.60674170e-01f, 1.19194552e-01f, -6.87744245e-02f, 1.91491514e-01f, 2.85671838e-02f, 9.33921114e-02f, 6.33091629e-02f,
    -1.28946221e-02f, -9.73684900e-03f, -3.35220218e-01f, 4.71570417e-02f, 6.46897331e-02f, 1.10792331e-01f, -7.38060400e-02f, 1.69721916e-02f,
    -1.22508399e-01f, 7.99278263e-03f, -7.94553384e-02f, -6.49365783e-02f, 1.04586892e-01f, -1.21017642e-01f, -8.40685368e-02f, -7.63736516e-02f,
    6.95973486e-02f, -1.28449887e-01f, -1.36880398e-01f, 1.27632529e-01f, 4.24761213e-02f, -1.42296210e-01f, -1.07736118e-01f, 9.09496024e-02f,
    1.03010461e-01f, 7.30661452e-02f, -3.38193439e-02f, 1.09041736e-01f, 4.35124664e-03f, 1.32717535e-01f, 8.89102295e-02f, -1.83648802e-02f,
    -6.55468777e-02f, -1.31045148e-01f, -3.95277828e-01f, -8.85611624e-02f, 9.14124399e-02f, 2.17290819e-01f, -1.17665984e-01f, -6.98947236e-02f,
    -1.12486303e-01f, 7.29303481e-03f, -7.17710257e-02f, -1.46615757e-02f, 4.43475926e-03f, -5.96684441e-02f, -6.82205036e-02f, 6.89393356e-02f,
    1.03358306e-01f, -1.91828199e-02f, 8.73888656e-02f, 1.01620138e-01f, -5.20971753e-02f, 1.20917000e-01f, 6.37970120e-03f, 1.79191947e-01f,
    1.59638628e-01f, -5.64590730e-02f, -1.07977912e-01f, -2.48464141e-02f, 9.08416584e-02f, 3.08127198e-02f, -4.48448882e-02f, -1.02811903e-01f,
    -4.59927693e-03f, 1.61514990e-02f, -3.63091044e-02f, -6.09126361e-03f, 1.37519017e-02f, -1.21757746e-01f, -1.41260087e-01f, 4.71930876e-02f,
    -3.96639705e-02f, -1.36442482e-01f, -8.35911408e-02f, -8.42493773e-02f, -1.14233531e-01f, -8.53345618e-02f, 8.69202092e-02f, -3.74229923e-02f,
    -7.35787768e-03f, 4.67900150e-02f, 2.46620947e-03f, -7.84957781e-02f, -4.37619574e-02f, -2.72689164e-02f, 5.30647039e-02f, -8.13265219e-02f,
    1.65314414e-02f, -8.38487521e-02f, 3.09473444e-02f, 3.24035101e-02f, 1.49190705e-02f, 7.09129646e-02f, -4.51253094e-02f, -1.29595138e-02f,
    1.79779544e-01f, 1.53279334e-01f, 9.65586454e-02f, 1.09772496e-01f, -1.87224969e-01f, 3.04994024e-02f, 1.31254047e-02f, -3.80151044e-03f,
    1.09076157e-01f, 3.07044983e-02f, -4.74591590e-02f, -2.05638245e-01f, -2.68340915e-01f, -1.48201222e-02f, 8.56704861e-02f, 2.68165171e-02f,
    1.45994812e-01f, 7.80076385e-02f, 2.84836628e-02f, 7.05364123e-02f, 3.47460210e-02f, 1.29142493e-01f, -8.10870528e-02f, -8.67709592e-02f,
    4.20389101e-02f, -4.97733392e-02f, -1.81886137e-01f, -1.03791527e-01f, -1.79310337e-01f, -1.27034768e-01f, 1.77216873e-01f, 1.16212033e-02f,
    -2.54836194e-02f, -1.51310623e-01f, 1.30403368e-02f, -1.96690354e-02f, -5.83529994e-02f, 1.99558842e-03f, 2.95182019e-02f, -5.11290319e-02f,
    2.96806604e-01f, 2.65901506e-01f, -4.57153842e-02f, -2.53586859e-01f, -2.73067951e-01f, -2.83663452e-01f, 2.09236387e-02f, -6.18657321e-02f,
    -1.44183170e-02f, 7.97771849e-03f, 2.01498762e-01f, -7.10984808e-04f, -6.33542016e-02f, -1.24793380e-01f, -1.36297628e-01f, -1.30484696e-03f,
    4.87039471e-03f, 3.15828510e-02f, 4.32455214e-03f, 1.14177085e-01f, -2.47974873e-01f, -3.23554784e-01f, -1.12331741e-01f, 6.12540804e-02f,
    3.04361749e-02f, 1.06531069e-01f, 1.22733519e-03f, -3.36190015e-02f, -2.15027016e-02f, -7.82799795e-02f, -4.56729680e-02f, 2.02113111e-02f,
    1.05163768e-01f, -2.60936692e-02f, 7.91110918e-02f, -1.69124380e-01f, -1.14657767e-01f, 3.53718139e-02f, 8.21232144e-03f, 5.30884750e-02f,
    -1.04461230e-01f, 5.59740551e-02f, -4.40797359e-02f, -2.23721024e-02f, -1.20422013e-01f, -1.93890959e-01f, -7.36969709e-02f, 2.26731766e-02f,
    3.55588235e-02f, -3.02993366e-03f, 1.16998717e-01f, 4.54778001e-02f, 2.00568467e-01f, -5.61855733e-03f, -1.63681164e-01f, 5.85333556e-02f,
    1.00649400e-02f, 2.97202207e-02f, -2.03064177e-02f, 3.39743868e-02f, 2.16797367e-01f, 7.74938390e-02f, -2.33592629e-01f, -1.89941898e-01f,
    -1.90281987e-01f, 2.12975517e-01f, 3.05139720e-02f, 8.76971409e-02f, -2.78508663e-02f, 1.79974154e-01f, -8.83410592e-03f, -1.03488505e-01f,
    -7.69515559e-02f, 3.53061967e-02f, 1.51547670e-01f, -1.16514735e-01f, 4.19032350e-02f, 1.04498090e-02f, 9.94566455e-02f, 7.67351687e-02f,
    -3.22461396e-01f, 3.06111693e-01f, 1.94262080e-02f, 3.70184854e-02f, -8.75111222e-02f, 7.79632553e-02f, 7.59125352e-02f, -3.56514640e-02f,
    2.78467573e-02f, 4.85261641e-02f, 1.71945855e-01f, -3.25756744e-02f, -1.86663955e-01f, -4.89799269e-02f, 1.15162320e-01f, -8.27924311e-02f,
    -1.17895193e-01f, -1.72616299e-02f, -1.20513719e-02f, 4.95533012e-02f, 6.99939281e-02f, 1.88074633e-01f, 4.41391356e-02f, -3.61089975e-01f,
    -3.68898325e-02f, 2.08441783e-02f, 6.57833889e-02f, -8.46238062e-02f, 8.18341002e-02f, 5.77044152e-02f, -8.47962797e-02f, -4.77352962e-02f,
    2.81905215e-02f, 1.35751754e-01f, 1.79224238e-02f, 3.90086584e-02f, 1.33420965e-02f, -9.05461237e-02f, 3.39670922e-03f, 5.46465181e-02f,
    3.04951131e-01f, 2.95303520e-02f, -3.20668399e-01f, -1.05622575e-01f, 1.24495521e-01f, -3.38680781e-02f, 8.22947302e-04f, 2.98227947e-02f,
    4.22594398e-02f, -4.42494117e-02f, -1.21370874e-01f, -8.84358883e-02f, -3.32959816e-02f, -1.02638103e-01f, -4.13431004e-02f, -3.57467420e-02f,
    -3.19227464e-02f, -3.30342054e-02f, 1.06617454e-02f, -7.88924843e-03f, -9.90575254e-02f, -8.26153532e-02f, -1.09137930e-02f, 1.80798937e-02f,
    3.01263034e-02f, -1.19048089e-01f, 8.61127675e-02f, 7.49587640e-02f, -2.71214936e-02f, 6.21276200e-02f, -9.93331075e-02f, -3.46886367e-02f,
    6.50493056e-02f, 1.18142538e-01f, 1.02229916e-01f, 1.01646937e-01f, 1.59785280e-03f, -2.08918061e-02f, -5.04714809e-02f, -5.30726183e-03f,
    1.75976846e-02f, -5.64543545e-01f, -2.45639414e-01f, 1.77607358e-01f, 2.35100724e-02f, 6.54434711e-02f, 7.04601631e-02f, -1.18132532e-01f,
    -5.11824794e-04f, 1.22948110e-01f, -1.22353792e-01f, -1.33114427e-01f, -3.06564011e-02f, -7.78760223e-05f, 9.04553831e-02f, -2.54963655e-02f,
    1.82634089e-04f, -6.96109384e-02f, 5.49769141e-02f, -1.17638148e-01f, -4.75679822e-02f, 3.17641526e-01f, 1.96311306e-02f, -1.99120015e-01f,
    -1.09550603e-01f, -1.16389990e-01f, -3.74089740e-02f, 1.36694700e-01f, -3.25060613e-03f, 4.48377691e-02f, 6.70608282e-02f, -2.56116558e-02f,
    -1.76935419e-02f, -2.49083396e-02f, 1.79502200e-02f, 7.26677105e-02f, 7.18272254e-02f, 5.69899157e-02f, 2.10561361e-02f, 5.36179766e-02f,
    1.95338771e-01f, -1.67104993e-02f, -1.34467050e-01f, -2.65367646e-02f, 1.17939509e-01f, 7.92890321e-03f, -1.65155884e-02f, 3.04159634e-02f,
    -5.99351227e-02f, -3.43907028e-02f, -1.18491445e-02f, -2.48004556e-01f, -4.07494009e-02f, 4.45849113e-02f, 6.26841886e-03f, 3.33831050e-02f,
    -5.12116216e-02f, 5.13030309e-03f, -1.20824076e-01f, 3.32380347e-02f, -1.66463330e-01f, -2.21459523e-01f, 1.36872213e-02f, 4.85235974e-02f,
    -1.84788741e-02f, -7.50934333e-02f, 5.86914271e-02f, -9.69661283e-04f, 2.70061046e-02f, -4.16030511e-02f, -7.20725134e-02f, 7.15792775e-02f,
    8.03544372e-02f, -5.97043410e-02f, -1.26308367e-01f, 8.81390050e-02f, 7.17238709e-02f, -6.04986735e-02f, 3.68197374e-02f, -8.73978902e-03f,
    5.60717471e-02f, -5.46519421e-02f, 4.15089503e-02f, 1.56921353e-02f, 5.84336929e-02f, -6.51298612e-02f, 9.31862928e-03f, -6.65472895e-02f,
    2.22375020e-02f, -5.38121583e-03f, -4.15855320e-03f, 2.52131484e-02f, 4.31084484e-02f, -6.23372346e-02f, 9.62829962e-02f, 5.38336821e-02f,
    -7.39308372e-02f, -1.02793992e-01f, 9.75084212e-03f, 3.58314402e-02f, -3.37834246e-02f, -1.84461828e-02f, -7.95020387e-02f, 5.83081448e-04f,
    5.29108522e-03f, -3.07234563e-02f, 1.34174839e-01f, 1.07471086e-01f, -2.39679009e-01f, -2.23050088e-01f, 1.85204651e-02f, -2.64447778e-02f,
    -9.66542866e-03f, 4.31423523e-02f, 3.99481170e-02f, 2.17075436e-03f, 1.59236968e-01f, 3.26974243e-02f, -1.59114644e-01f, -3.21167409e-02f,
    -3.13390009e-02f, 2.96750683e-02f, 7.25762360e-03f, 9.12972018e-02f, 2.30270484e-03f, 2.07333323e-02f, -4.18872312e-02f, 2.79548049e-01f,
    -1.71910122e-01f, -3.67988855e-01f, -2.62575559e-02f, 1.06493570e-01f, 8.46535489e-02f, 5.81395142e-02f, 7.21201897e-02f, 1.58909976e-01f,
    2.81461496e-02f, -1.67865574e-01f, -1.66156575e-01f, -1.38612971e-01f, 4.90661226e-02f, -3.83605994e-02f, 1.29514188e-01f, -4.02616896e-02f,
    -9.28867906e-02f, -7.45476484e-02f, 2.64984537e-02f, 1.44626405e-02f, 3.65681909e-02f, 6.50873128e-03f, 3.66730653e-02f, -6.76431656e-02f,
    2.42310122e-01f, -2.24480461e-02f, -2.69551575e-01f, -5.34756742e-02f, 2.10417315e-01f, 1.44126564e-01f, -1.22160502e-01f, -1.50756136e-01f,
    -2.57003903e-02f, -4.01854776e-02f, -7.31702968e-02f, -3.88325914e-03f, 2.48184912e-02f, -1.66218095e-02f, -4.61485470e-03f, -6.47380650e-02f,
    -6.68254867e-02f, 1.19870575e-02f, 3.65451947e-02f, 8.21390450e-02f, -7.08580464e-02f, -4.34398726e-02f, 9.33649484e-03f, 1.31933549e-02f,
    7.20325345e-03f, 3.39947939e-02f, 2.19731089e-02f, -5.37895970e-02f, 3.78405340e-02f, -7.77732581e-02f, 2.96666455e-02f, 2.54672691e-02f,
    5.89286163e-02f, -3.96029167e-02f, 1.72656938e-01f, 3.71997766e-02f, -2.16593027e-01f, -5.87319620e-02f, 6.59635244e-03f, -8.67277309e-02f,
    -6.51818812e-02f, 6.00805506e-02f, 5.57589857e-03f, 1.17575889e-02f, 1.17205627e-01f, -1.87018719e-02f, -3.40891816e-02f, -2.90474389e-02f,
    7.10604116e-02f, -1.90430880e-02f, 7.88705572e-02f, 1.00787850e-02f, 1.27672970e-01f, 2.88068019e-02f, -1.85913313e-02f, -9.95845795e-02f,
    -4.83586341e-02f, -4.82320338e-02f, -6.79872259e-02f, -8.38496536e-02f, -1.48373498e-02f, 6.07944541e-02f, 1.49041936e-02f, 2.63879746e-02f,
    6.61809072e-02f, -7.84459636e-02f, 1.05857641e-01f, -1.14696279e-01f, 3.27949487e-02f, 8.83756056e-02f, 2.94118691e-02f, -3.43807265e-02f,
    2.68060286e-02f, -8.03279504e-02f, 1.84489042e-01f, 5.50926365e-02f, -7.80753121e-02f, -2.86949519e-02f, -4.05597985e-02f, -3.16313980e-03f,
    1.41257206e-02f, -1.68012399e-02f, 1.14647942e-02f, 6.89651594e-02f, -2.33289786e-02f, 2.87849009e-01f, -7.80628845e-02f, -3.35856885e-01f,
    -9.43642929e-02f, -3.36282887e-02f, -2.44350329e-01f, -1.93325490e-01f, 1.12175010e-01f, -2.95099076e-02f, -1.22349769e-01f, -2.27181405e-01f,
    -7.93301985e-02f, -7.09741116e-02f, 9.22513679e-02f, 1.21201225e-01f, -2.73008905e-02f, 1.90500040e-02f, -1.01553649e-01f, 1.14183232e-01f,
    1.11775041e-01f, 1.00617990e-01f, -1.82488471e-01f, -7.48129934e-02f, -2.36951690e-02f, 1.69651769e-02f, -1.02397807e-01f, 8.03827941e-02f,
    9.80903208e-02f, -1.53408921e-03f, 7.12983683e-03f, 8.72308621e-04f, 1.46486670e-01f, -5.12282215e-02f, 1.01106890e-01f, 7.65865520e-02f,
    1.68972779e-02f, -1.24258557e-02f, 1.29761444e-02f, -1.49229197e-02f, -1.81795303e-02f, 3.64906341e-02f, 1.02958217e-01f, 1.31421944e-03f,
    5.51110357e-02f, -8.25115480e-03f, -1.27038032e-01f, -7.39298165e-02f, -2.82428384e-01f, -6.30277582e-03f, -4.75669689e-02f, 3.36105190e-02f,
    1.15559213e-01f, 2.03548148e-01f, -4.21074256e-02f, -1.18494458e-01f, -1.26523897e-01f, 1.86229628e-02f, 1.34929374e-01f, 1.27713904e-01f,
    5.22796884e-02f, 1.91993844e-02f, -1.59041688e-01f, 6.45354018e-03f, 8.05218816e-02f, -6.07756861e-02f, -3.80294770e-02f, -4.69450802e-02f,
    1.51098192e-01f, -2.58386713e-02f, -2.21199673e-02f, -2.23309234e-01f, 4.05291654e-02f, 8.45022723e-02f, 1.00104352e-02f, 8.46306160e-02f,
    9.42857713e-02f, -3.99152599e-02f, -1.27742337e-02f, 2.21848115e-02f, -3.18345577e-02f, -1.16507567e-01f, -4.18201350e-02f, -5.71406782e-02f,
    2.30328497e-02f, -5.00706583e-02f, 9.75228567e-03f, -6.28030822e-02f, -4.01112288e-01f, 8.06821510e-02f, -1.90053717e-03f, -1.42353028e-02f,
    -1.03587680e-01f, -2.11101204e-01f, -5.76863773e-02f, -4.36064117e-02f, -1.53718829e-01f, -2.08667085e-01f, -5.60669228e-02f, -7.74443075e-02f,
    -5.57261594e-02f, -9.81665179e-02f, -7.04008266e-02f, 6.21115156e-02f, 1.69406470e-03f, 8.02598894e-02f, -1.11171968e-01f, -6.03444502e-02f,
    1.21311925e-01f, 9.12264958e-02f, 1.35304853e-01f, 1.51205987e-01f, -1.80818930e-01f, -1.87142983e-01f, 7.41527751e-02f, 5.44532351e-02f,
    2.38503218e-02f, 1.91731956e-02f, 1.21285357e-02f, -1.68256536e-02f, 1.71771422e-02f, 1.32432198e-02f, 1.53304311e-02f, -3.66671570e-02f,
    4.47258577e-02f, -2.14419633e-01f, -2.36073732e-02f, -1.56125307e-01f, -4.25540566e-01f, -6.24511167e-02f, -4.98733930e-02f, 1.90403983e-02f,
    7.48824030e-02f, -5.87788224e-02f, 8.47881567e-03f, -5.12381829e-02f, 1.37327872e-02f, -8.15650448e-02f, -7.80874789e-02f, 7.18150437e-02f,
    -1.02397753e-02f, -1.78182460e-02f, 3.16780992e-02f, 9.57177654e-02f, 2.04548649e-02f, -1.40005928e-02f, 8.21587164e-03f, -1.04606487e-01f,
    -6.32213354e-02f, 2.99612749e-02f, -3.27055529e-02f, -1.74565446e-02f, -4.09004800e-02f, -1.28520541e-02f, -4.04593237e-02f, -3.83522749e-01f,
    -5.13012893e-02f, 1.66538641e-01f, 2.13399038e-01f, -5.37995156e-03f, -5.36799356e-02f, 1.11720271e-01f, 7.87784457e-02f, -2.15075389e-02f,
    7.44500086e-02f, 4.14083116e-02f, -3.57536301e-02f, 4.11376394e-02f, 1.27320036e-01f, -1.79736659e-01f, -1.14378855e-01f, -1.12369411e-01f,
    -2.59883124e-02f, 2.50964854e-02f, -8.70220885e-02f, -1.84031203e-02f, 9.23870206e-02f, 3.52518708e-02f, 8.34722966e-02f, -1.01501584e-01f,
    -3.19385948e-03f, 2.26408076e-02f, 5.59293628e-02f, -1.73501112e-03f, 1.01636015e-01f, 6.58205897e-02f, 7.36991968e-03f, 5.71705513e-02f,
    5.04282787e-02f, -6.01933785e-02f, -5.10721318e-02f, 4.84272502e-02f, 1.38452321e-01f, 1.96660250e-01f, -3.05241682e-02f, 8.35204904e-04f,
    -1.34454414e-01f, -1.69124097e-01f, -1.87160894e-01f, -2.37288754e-02f, -3.24759930e-02f, -7.49909040e-03f, -1.43600240e-01f, -2.92324666e-02f,
    -6.17724806e-02f, -6.88168705e-02f, -6.98637813e-02f, -1.28931358e-01f, -1.15176700e-01f, -7.73212835e-02f, -7.72352740e-02f, -7.41645098e-02f,
    -1.34329617e-01f, 1.45093650e-02f, -6.10217415e-02f, -3.71915102e-02f, 1.31682307e-01f, 1.31033838e-01f, 3.10678687e-02f, -1.08569395e-02f,
    -6.15405738e-02f, 6.04911596e-02f, 1.75230846e-01f, -5.56262285e-02f, -1.20474003e-01f, -1.90209225e-01f, 1.18485885e-02f, 4.01907712e-02f,
    9.11198109e-02f, -8.33002031e-02f, -3.34847048e-02f, 5.08275032e-02f, 1.80376202e-01f, 1.91902712e-01f, -9.90028083e-02f, -2.68652365e-02f,
    5.62949590e-02f, 1.51075289e-01f, 2.83480912e-01f, 8.97752866e-02f, 5.42047853e-03f, 8.59341621e-02f, 2.11579785e-01f, 9.58662131e-04f,
    6.57562017e-02f, -9.90037993e-03f, -2.09571365e-02f, 5.07828332e-02f, 1.07581519e-01f, -4.30891849e-02f, -5.74693317e-03f, 6.04258105e-03f,
    5.09895943e-02f, 1.48647368e-01f, -5.44837117e-02f, 5.31472042e-02f, -3.52692269e-02f, 8.50174129e-02f, 3.71642262e-02f, -1.32042810e-01f,
    -4.86403890e-02f, -8.71522352e-02f, 8.18337221e-03f, 7.71013796e-02f, 1.21454060e-01f, 6.44699261e-02f, -1.67344213e-02f, 1.18890695e-01f,
    2.08788633e-01f, 1.65564001e-01f, 9.41405222e-02f, 1.64910018e-01f, 1.69493601e-01f, -3.81769314e-02f, -7.07320347e-02f, -5.50710857e-02f,
    -2.01908410e-01f, -1.59898698e-01f, -4.61082049e-02f, -3.86222415e-02f, -2.69377939e-02f, -1.48447631e-02f, 3.68515891e-03f, 1.64466128e-02f,
    1.25207558e-01f, 1.63695186e-01f, 6.76859617e-02f, 2.93445885e-02f, 2.20411383e-02f, 1.97867192e-02f, -1.63776986e-02f, -7.58133307e-02f,
    4.22095209e-02f, -2.25692522e-02f, -2.89607346e-02f, -2.01323837e-01f, -9.63899642e-02f, 2.34912913e-02f, -3.28121111e-02f, 3.48253474e-02f,
    -7.31013566e-02f, -6.65866013e-04f, -2.24062018e-02f, -3.02399676e-02f, 1.50389075e-01f, 4.35935101e-03f, -2.27678251e-02f, 2.22311169e-01f,
    1.70469657e-01f, -1.48616433e-01f, -1.30009577e-01f, -1.21020645e-01f, 5.15495501e-02f, -1.06993258e-01f, -6.92490488e-02f, -7.11466447e-02f,
    -1.05117179e-01f, -6.22847155e-02f, -9.65795442e-02f, 6.87291771e-02f, -2.25473288e-02f, -1.21540427e-01f, 6.92207143e-02f, 2.81049192e-01f,
    -2.15623081e-02f, 8.65743756e-02f, -7.84681439e-02f, -2.47318093e-02f, -9.32691153e-03f, 1.05632856e-01f, -1.30616471e-01f, 4.78470810e-02f,
    -9.09921229e-02f, -3.91560942e-02f, 5.80485761e-02f, 3.60627938e-03f, -7.94619396e-02f, -1.00316331e-02f, 3.79219875e-02f, 1.02566279e-01f,
    -1.24458179e-01f, -1.39913887e-01f, -9.24125838e-04f, 3.56412046e-02f, -2.13726349e-02f, -1.68478593e-01f, 2.39852238e-02f, -6.54180720e-02f,
    -1.82059314e-02f, 4.46098037e-02f, -4.94741872e-02f, -1.72307938e-01f, 4.52731326e-02f, 3.08334120e-02f, 7.13919988e-03f, -5.12135960e-02f,
    4.97604720e-03f, 1.85163952e-02f, 6.27974868e-02f, 9.69661847e-02f, -1.81628630e-01f, -1.97087049e-01f, 9.46575627e-02f, 2.44310424e-02f,
    1.10206660e-02f, -1.31093487e-02f, 1.38818651e-01f, 2.61491258e-03f, 1.72068849e-02f, -1.41264619e-02f, 3.48088928e-02f, -1.98684499e-01f,
    1.13668986e-01f, -7.56522492e-02f, -2.02763081e-02f, 1.71149597e-02f, -8.82138312e-02f, -8.73844698e-03f, 8.74251500e-03f, -1.34599343e-01f,
    1.01710126e-01f, -3.29110213e-02f, 9.68662575e-02f, -3.76843996e-02f, -1.64594352e-02f, 1.33896500e-01f, -8.67571011e-02f, 3.80197056e-02f,
    3.53313945e-02f, 2.43758261e-02f, 1.77608971e-02f, 4.76734228e-02f, 5.08151613e-02f, -3.37642618e-02f, -2.33273134e-02f, 1.31575435e-01f,
    -7.84008056e-02f, 1.00217253e-01f, 7.57783093e-03f, -3.88611928e-02f, -8.20806529e-03f, 2.10503004e-02f, -7.51441112e-03f, 2.49323994e-02f,
    -1.07535487e-02f, 7.48939738e-02f, 4.14250791e-02f, 6.94846511e-02f, -4.98451740e-02f, -8.39773193e-03f, -6.87252283e-02f, -2.95845389e-01f,
    -6.57050759e-02f, 9.59597714e-03f, 6.32388145e-02f, -1.21626005e-01f, -1.21002503e-01f, -2.14385195e-03f, 1.11565981e-02f, 1.17654456e-02f,
    -1.60055742e-01f, -9.93005931e-02f, 4.32753786e-02f, -7.45901614e-02f, -8.88270978e-03f, 1.43205538e-01f, 9.47025418e-02f, 8.31901506e-02f,
    -2.30965372e-02f, -2.46739909e-02f, 5.31555898e-02f, 2.22674385e-02f, -5.83384968e-02f, 9.09550488e-03f, -6.85109496e-02f, -6.58577308e-02f,
    -1.02034083e-03f, -3.25270486e-03f, -2.87440955e-04f, 1.45160824e-01f, 6.69906810e-02f, 1.57565683e-01f, 1.28820539e-01f, 8.66095349e-03f,
    4.07391079e-02f, 9.41058341e-03f, -1.59334596e-02f, 6.30183751e-03f, 3.76292062e-03f, -1.63988858e-01f, -7.30568886e-01f, -4.01651040e-02f,
    1.68541968e-01f, -1.32288095e-02f, -9.80774015e-02f, 1.82249639e-02f, 2.06163675e-02f, 5.93549125e-02f, 2.69764941e-02f, 5.71440421e-02f,
    -2.42534298e-02f, 6.40053824e-02f, -1.94710702e-01f, -5.35337115e-03f, 6.72894418e-02f, -1.04803089e-02f, 5.09551167e-02f, 1.88412517e-02f,
    3.80260125e-03f, 1.05929330e-01f, -6.36931360e-02f, 6.04968071e-02f, -1.87286455e-02f, 8.06233287e-02f, -3.19621637e-02f, 8.92001465e-02f,
    4.36851047e-02f, 1.03125963e-02f, -6.99520996e-03f, -4.38878983e-02f, 7.73594007e-02f, -2.40528092e-01f, 8.18451643e-02f, -8.31752941e-02f,
    3.23548540e-02f, 1.04068451e-01f, 4.04305607e-02f, -1.89520001e-01f, -1.08347021e-01f, 9.88886580e-02f, 3.17018665e-02f, 6.99013993e-02f,
    6.30758107e-02f, -5.47766276e-02f, 9.59541202e-02f, 2.97905803e-02f, 1.97410762e-01f, 1.96315214e-01f, 1.61966950e-01f, 1.03884460e-02f,
    -2.63344143e-02f, -9.32361186e-02f, 4.08340469e-02f, -5.06430753e-02f, 8.58177468e-02f, -1.23021491e-01f, -1.43724874e-01f, 1.14058949e-01f,
    5.75447232e-02f, 1.17247244e-02f, 1.23135261e-02f, 4.13039885e-03f, 2.00279765e-02f, 4.34947945e-03f, -5.15295845e-03f, 1.79546103e-02f,
    4.85500060e-02f, 1.06764426e-02f, -4.10210527e-02f, 1.00019366e-01f, 2.45520705e-03f, -1.76507346e-02f, 6.92104921e-02f, -2.84866840e-02f,
    9.40251816e-03f, 1.83579884e-02f, 1.71112895e-01f, 2.31323451e-01f, 9.77872014e-02f, 1.47175044e-01f, -9.76137295e-02f, 2.37497151e-01f,
    -1.61753953e-01f, 6.91062137e-02f, 6.13108687e-02f, 1.65263891e-01f, -1.11820772e-01f, -2.88503200e-01f, -9.73144323e-02f, 3.95471901e-02f,
    -1.05097130e-01f, 4.08994891e-02f, 2.21311469e-02f, 6.33566529e-02f, 7.38742873e-02f, -4.32242118e-02f, 1.67381868e-01f, -1.45500347e-01f,
    3.75131927e-02f, -1.14809237e-01f, 1.25723839e-01f, 8.21543410e-02f, -3.49669345e-02f, -1.83370654e-02f, 6.75845146e-02f, -4.24512429e-03f,
    3.05952691e-02f, -1.96808904e-01f, -7.07630813e-02f, 3.60907875e-02f, 1.52710930e-01f, -1.01778165e-01f, -2.75655631e-02f, -4.59078886e-02f,
    4.76320647e-03f, -1.41504660e-01f, 1.88489899e-01f, 1.89294025e-01f, -2.37952098e-01f, 4.24932130e-03f, -8.40620473e-02f, -4.41201553e-02f,
    3.35961133e-02f, -7.44598806e-02f, -1.41577065e-01f, 3.61986123e-02f, 5.29357903e-02f, 4.17733192e-02f, -1.72458753e-01f, 2.14139908e-03f,
    -4.63389717e-02f, 3.27832960e-02f, 1.12924017e-02f, -7.20095187e-02f, 3.99753004e-02f, 9.72632095e-02f, -2.62920737e-01f, -2.00980321e-01f,
    9.82742384e-02f, -1.62364438e-01f, -5.82337901e-02f, -6.51533380e-02f, 6.56197518e-02f, -1.29376069e-01f, 5.03466018e-02f, -7.42913038e-02f,
    -4.38614450e-02f, 3.62508371e-02f, 5.11136390e-02f, -2.95813978e-02f, 5.14678583e-02f, 2.07449291e-02f, 8.29735696e-02f, 3.65220979e-02f,
    4.11137566e-02f, -1.75321978e-02f, 1.14992492e-01f, 9.62553546e-02f, 4.79591303e-02f, 3.00421827e-02f, 8.45713392e-02f, -2.77575701e-02f,
    -5.51581522e-03f, 5.98294437e-02f, 4.54471521e-02f, 4.89657186e-02f, 1.55241251e-01f, 7.66997710e-02f, -4.51266952e-03f, 5.07899188e-02f,
    6.48971871e-02f, -1.35912091e-01f, -1.09516187e-02f, -1.23802729e-01f, -8.33345801e-02f, 4.19434421e-02f, 7.47293457e-02f, 3.01902313e-02f,
    -1.32125616e-01f, 8.63654763e-02f, 7.15362560e-03f, -2.64127180e-02f, 1.01228014e-01f, 4.76044565e-02f, 1.26758650e-01f, 2.55277216e-01f,
    -1.03170082e-01f, -7.04252347e-02f, -8.82881954e-02f, 1.44804597e-01f, -1.96976662e-01f, 6.67254953e-03f, -2.04284310e-01f, 9.85158458e-02f,
    9.72898975e-02f, -1.53994277e-01f, -3.57856482e-01f, -1.57745048e-01f, -9.94517282e-02f, -1.71513453e-01f, -1.13593593e-01f, -3.09454262e-01f,
    -1.44229785e-01f, 4.94302548e-02f, -4.63158414e-02f, -1.37403920e-01f, 9.84342620e-02f, -9.48668197e-02f, 5.77038527e-02f, 6.15528189e-02f,
    3.43912803e-02f, 7.64555717e-03f, -1.00351283e-02f, 2.98553463e-02f, 1.15240216e-02f, -2.32566804e-01f, -1.11946859e-03f, -4.85548936e-02f,
    -2.10336670e-02f, -9.07668546e-02f, -2.31396198e-01f, -5.56014813e-02f, 3.31515260e-02f, 8.18100572e-02f, 9.51780006e-02f, 1.89275742e-01f,
    2.86760386e-02f, -9.62280110e-02f, 8.45873505e-02f, -1.80878267e-01f, -5.90244308e-02f, 1.05032353e-02f, 2.68611126e-02f, 8.02130550e-02f,
    -2.27866381e-01f, -5.00724986e-02f, -9.37541947e-02f, -1.13764428e-01f, -4.19992283e-02f, 1.19420633e-01f, -1.12240419e-01f, -1.75841916e-02f,
    3.04222573e-02f, 4.11180519e-02f, -5.07400557e-03f, -2.80326873e-01f, -6.42296067e-03f, -1.14420980e-01f, -2.83735488e-02f, -4.46167700e-02f,
    9.36336368e-02f, 6.70660436e-02f, 7.83522148e-03f, 1.07133202e-01f, 1.49260640e-01f, -9.46153514e-03f, -1.14195690e-01f, 1.37223452e-01f,
    -2.92886142e-03f, -6.25818893e-02f, -2.42383167e-01f, -3.81384522e-01f, -3.98053927e-03f, 1.01653174e-01f, 1.05422074e-02f, -8.20892230e-02f,
    -2.11550146e-01f, -5.33081703e-02f, 6.22308291e-02f, -1.05228715e-01f, 7.13786110e-02f, -1.25149608e-01f, 1.33009613e-01f, 2.47851968e-01f,
    1.60509184e-01f, 2.77099609e-02f, 6.94624558e-02f, -1.14378020e-01f, -5.43012545e-02f, -3.53085473e-02f, 2.29169466e-02f, -7.10828006e-02f,
    -1.35382026e-01f, -6.00592345e-02f, -1.16166860e-01f, -2.77833384e-03f, -3.88273560e-02f, -8.57159719e-02f, 8.04082453e-02f, -7.14393407e-02f,
    -8.90771598e-02f, -1.15212649e-02f, 1.27907783e-01f, 2.42571812e-02f, 2.76727583e-02f, -3.00413817e-01f, -8.98290426e-02f, -6.48393929e-02f,
    -9.44824591e-02f, 7.61856958e-02f, 2.74377912e-02f, 4.72568795e-02f, -1.67387109e-02f, -1.19455382e-01f, 7.64257163e-02f, 5.62189892e-02f,
    1.36503689e-02f, -1.38941212e-02f, -2.10399483e-03f, -4.26348597e-02f, 6.44054338e-02f, 6.71743155e-02f, 1.61288410e-01f, -7.79871270e-02f,
    -1.12762943e-01f, 9.04788543e-03f, -2.01646723e-02f, -9.25183892e-02f, 6.12601191e-02f, -6.07908331e-02f, 8.67844224e-02f, -4.58987243e-02f,
    -6.10707374e-03f, -9.02225263e-03f, -2.05158852e-02f, -7.46320784e-02f, -4.35924195e-02f, -4.45817597e-02f, 1.73377655e-02f, 1.27951592e-01f,
    1.66791305e-01f, -2.50946116e-02f, 3.28181684e-02f, 5.54151870e-02f, -1.70254689e-02f, 2.26443261e-02f, 6.93890825e-02f, -3.15691307e-02f,
    6.33521229e-02f, -4.42167856e-02f, -1.20848261e-01f, -1.33281752e-01f, -1.16491169e-01f, -1.06994689e-01f, -5.71411885e-02f, -2.56886333e-01f,
    -1.47159711e-01f, -3.34397778e-02f, -4.67646830e-02f, 3.24845202e-02f, -1.06496483e-01f, -5.43047599e-02f, 1.12488084e-01f, 5.48246875e-02f,
    2.37126946e-01f, 9.23544914e-02f, 3.90209779e-02f, -2.02837847e-02f, 7.61450008e-02f, -4.54001762e-02f, 1.89535424e-01f, -1.17286913e-01f,
    9.81593654e-02f, 1.53073575e-02f, -1.23334453e-01f, -1.18837290e-01f, 7.88480043e-02f, -7.21395528e-03f, 2.54675187e-02f, -6.92279637e-02f,
    -4.39528786e-02f, 1.37778046e-02f, -4.98497076e-02f, -9.51138213e-02f, -4.30326611e-02f, -9.76001993e-02f, -1.79324284e-01f, 7.13027939e-02f,
    -5.29224845e-03f, -7.77660832e-02f, 7.00171441e-02f, 3.74558046e-02f, 9.95245203e-03f, -1.89533569e-02f, -4.21567000e-02f, 3.90513353e-02f,
    2.52732486e-02f, -6.52991161e-02f, -3.43759693e-02f, -1.29509419e-01f, -1.88118946e-02f, -4.59371731e-02f, -3.10945464e-03f, -2.99628880e-02f,
    -1.77053869e-01f, 7.45245144e-02f, -2.28312165e-02f, 1.78830728e-01f, -5.90610243e-02f, 8.88850167e-02f, -1.20044820e-01f, 2.17644587e-01f,
    -1.74372375e-01f, 1.54246062e-01f, 7.84665570e-02f, -1.77941650e-01f, 7.75568187e-02f, -7.20169544e-02f, 3.09772952e-03f, 2.33787566e-01f,
    -1.61712065e-01f, 1.00541532e-01f, -1.14097655e-01f, 1.22888520e-01f, 1.30467072e-01f, -9.22496319e-02f, 5.63641191e-02f, -4.92632762e-02f,
    7.78700858e-02f, 4.37663719e-02f, 3.33590843e-02f, -8.42498522e-03f, 1.64896935e-01f, 1.26251817e-01f, 2.16140315e-01f, -7.62878805e-02f,
    2.38542289e-01f, -1.32405549e-01f, 9.94747579e-02f, -1.05540164e-01f, 8.49512592e-02f, 6.03561923e-02f, -2.17451323e-02f, -7.15833381e-02f,
    3.02956570e-02f, 5.47909960e-02f, 1.71928734e-01f, -1.45376306e-02f, 1.00776494e-01f, -1.42561182e-01f, -4.29514647e-02f, 3.53972167e-02f,
    -3.86108235e-02f, -7.78618157e-02f, -1.33789420e-01f, 5.61525375e-02f, -1.03908151e-01f, -2.04368830e-02f, -4.46367823e-02f, 9.84787792e-02f,
    -9.34682265e-02f, 1.01437811e-02f, -1.04574084e-01f, 9.57326125e-03f, 1.48736373e-01f, 1.59124658e-02f, 1.04050532e-01f, -1.14866802e-02f,
    4.55814227e-02f, 7.42211491e-02f, 1.27464041e-01f, 2.02042181e-02f, 7.59098828e-02f, 2.84311939e-02f, -6.29708171e-02f, 8.71893251e-04f,
    -1.03617370e-01f, 2.93426234e-02f, 4.67930883e-02f, -9.87840667e-02f, 1.20508157e-01f, -5.07754553e-03f, 1.78597927e-01f, -9.43162143e-02f,
    -7.87018761e-02f, 1.21529944e-01f, 9.96257924e-03f, 1.54223675e-02f, -1.51014458e-02f, 2.50445902e-02f, 5.77962995e-02f, -1.24033922e-02f,
    -2.27836259e-02f, -5.39454224e-04f, 1.07439393e-02f, 5.59314154e-02f, 3.78286541e-02f, 7.95852616e-02f, 6.24634922e-02f, -7.99876004e-02f,
    9.29787531e-02f, -1.99316621e-01f, 1.53950229e-01f, -1.33623943e-01f, -3.69651057e-02f, 1.03804737e-01f, -2.17043087e-02f, 7.73655623e-02f,
    -3.52884158e-02f, -1.46128416e-01f, 1.61796033e-01f, -1.13356993e-01f, 1.23126023e-01f, -1.29973516e-01f, 1.20643035e-01f, -6.43209964e-02f,
    -3.17413285e-02f, 5.74215241e-02f, 1.03596717e-01f, 1.46223903e-02f, -9.41785872e-02f, 1.91563234e-01f, -1.27841622e-01f, 7.67689496e-02f,
    1.30807325e-01f, 1.63223371e-01f, 1.99375097e-02f, -6.41091019e-02f, 6.34731427e-02f, 9.59537830e-03f, -1.03033565e-01f, 4.65636104e-02f,
    -2.73587182e-03f, -1.34009887e-02f, -1.51356071e-01f, 2.26951167e-01f, 1.93806570e-02f, 1.06983915e-01f, 6.16903510e-03f, -2.73248255e-02f,
    -4.64784987e-02f, -1.31736249e-01f, 9.96656716e-02f, -7.31366575e-02f, -4.92176898e-02f, -5.70554473e-02f, -4.31211554e-02f, -3.94436978e-02f,
    -9.69758555e-02f, -1.28945991e-01f, -1.86899930e-01f, -5.00878459e-03f, -1.21794321e-01f, -7.43319094e-02f, -1.57163087e-02f, 1.36067957e-01f,
    -1.20823830e-01f, 6.34909645e-02f, -2.33167276e-01f, -1.68542042e-01f, -1.25103235e-01f, -1.39555195e-02f, -1.01538591e-01f, -4.26618308e-02f,
    2.00911108e-02f, -6.34207353e-02f, 5.36471829e-02f, 1.11171059e-01f, -2.67241504e-02f, -8.51201862e-02f, 1.29805980e-02f, -1.44991249e-01f,
    9.84470248e-02f, -1.50676340e-01f, -6.03181720e-02f, 1.12004817e-01f, 9.02338773e-02f, 1.31329179e-01f, 9.96434689e-02f, -4.95090783e-02f,
    7.46427104e-02f, 9.54117775e-02f, 1.75639316e-02f, 1.26245603e-01f, 1.21497326e-01f, -3.60879183e-01f, 8.26501548e-02f, -2.62445789e-02f,
    1.67450741e-01f, 3.50717120e-02f, -5.27304672e-02f, -1.40493229e-01f, -3.86312865e-02f, -4.01969403e-02f, 2.95927003e-02f, -9.28048864e-02f,
    -9.09699425e-02f, -3.93287651e-02f, 1.09605633e-01f, -1.96054652e-02f, -2.52819844e-02f, 2.68009119e-02f, -6.34230524e-02f, -3.36441211e-02f,
    6.23112805e-02f, 1.27652854e-01f, 7.51422544e-04f, 4.08200398e-02f, 1.32669443e-02f, -1.09409064e-01f, -3.60197723e-02f, -6.65272996e-02f,
    -2.89012361e-02f, -6.62591532e-02f, -2.34922692e-01f, 3.90139781e-02f, -9.38390475e-03f, -2.73849312e-02f, 2.49755532e-02f, -1.47348672e-01f,
    -2.41099522e-01f, -1.41588107e-01f, -4.85249572e-02f, 5.35374060e-02f, 1.03373490e-02f, 6.43835962e-02f, 1.86184589e-02f, -1.35934353e-02f,
    -1.06855892e-02f, 1.05023839e-01f, -9.43240523e-02f, 4.19674478e-02f, -5.79117388e-02f, -2.18046028e-02f, -6.72405958e-02f, 1.42094987e-02f,
    4.01087329e-02f, 7.97724202e-02f, -1.25572225e-02f, -2.35347003e-02f, -4.80288193e-02f, 8.71297047e-02f, -6.03370853e-02f, 3.01895142e-02f,
    -4.09285054e-02f, 9.21044126e-02f, 2.64192844e-04f, -9.08752251e-03f, -5.94051145e-02f, -9.77611467e-02f, 6.71538636e-02f, 1.22544371e-01f,
    2.43548844e-02f, -4.05505784e-02f, -1.38164282e-01f, 1.12487234e-01f, 5.90708442e-02f, 7.26986974e-02f, -3.65369432e-02f, 1.85118113e-02f,
    1.24037946e-02f, 1.00982085e-01f, -1.37815759e-01f, 1.12082779e-01f, -2.68858165e-01f, -1.29681816e-02f, -7.61046335e-02f, 6.37156367e-02f,
    4.41474654e-02f, 2.08845064e-02f, 6.70575202e-02f, 1.54232517e-01f, 4.36499044e-02f, 3.87093127e-02f, 3.50599699e-02f, 6.94381678e-03f,
    7.86407441e-02f, -6.63971379e-02f, -3.91815498e-04f, 4.33199480e-02f, -3.04266751e-01f, 5.03414534e-02f, -8.70705992e-02f, 2.47221105e-02f,
    2.24991962e-02f, -2.74230223e-02f, 1.66702140e-02f, -1.01739123e-01f, -1.91271022e-01f, -2.55462378e-02f, -5.54324053e-02f, -1.42870143e-01f,
    -8.46249908e-02f, 4.09813672e-02f, 3.85619029e-02f, 5.07446565e-03f, 4.86939326e-02f, 8.93349648e-02f, -5.28419428e-02f, 2.19903570e-02f,
    -5.62472120e-02f, -1.17320001e-01f, -2.39555866e-01f, -3.73906307e-02f, 3.50224897e-02f, 5.54156452e-02f, -6.14163913e-02f, 1.85178593e-01f,
    1.30481526e-01f, 3.84334102e-02f, 9.62546691e-02f, 9.15297419e-02f, -1.42996773e-01f, -2.15156153e-02f, 9.07622278e-02f, 1.42230779e-01f,
    7.77651370e-02f, -6.74223080e-02f, 8.94384831e-03f, 2.29755733e-02f, 3.77982156e-03f, 1.08505085e-01f, -4.95629519e-01f, 9.82964858e-02f,
    5.03120273e-02f, -1.65000428e-02f, -6.88840151e-02f, -8.34646150e-02f, 1.79126374e-02f, 2.37104786e-03f, 3.97590026e-02f, 7.82851130e-02f,
    1.79450437e-02f, -3.53598535e-01f, -6.16128650e-03f, 4.12126034e-02f, 4.98070009e-02f, 3.81708033e-02f, -9.04034637e-03f, 6.37306273e-03f,
    -1.09486459e-02f, -1.25364617e-01f, 6.05513006e-02f, 1.16029456e-01f, 8.02657455e-02f, -7.05741793e-02f, 5.99485636e-02f, 7.21578598e-02f,
    3.21769081e-02f, -4.66179699e-02f, -4.07596529e-02f, -6.61807060e-02f, 3.66833732e-02f, 9.17228498e-03f, -1.59930866e-02f, 5.50863184e-02f,
    7.90543631e-02f, -4.89761345e-02f, -1.51610196e-01f, 6.54795617e-02f, 4.13722396e-02f, 3.69334430e-03f, -3.10955226e-01f, -2.84579955e-02f,
    -7.40748197e-02f, -5.06125204e-02f, -4.42335382e-02f, 5.73160313e-02f, 5.52025177e-02f, 1.41861960e-02f, -1.34109973e-03f, -3.84089611e-02f,
    -1.30874604e-01f, 6.55916482e-02f, 4.07197922e-02f, -7.05369283e-03f, 3.41137946e-02f, -1.40710056e-01f, -5.61483316e-02f, 3.63032259e-02f,
    -3.09526529e-02f, -1.37723818e-01f, 6.21877313e-02f, 1.90415144e-01f, -7.19263107e-02f, -5.60499355e-02f, 3.50877345e-02f, 1.04353510e-01f,
    2.63794302e-03f, 6.75757080e-02f, 1.36592731e-01f, -2.40591094e-02f, -7.40874261e-02f, -1.61636602e-02f, 6.41262680e-02f, -3.00560910e-02f,
    -6.89632222e-02f, -5.07979700e-03f, -8.04464892e-03f, 6.79318458e-02f, -1.52451769e-02f, 6.60592094e-02f, -2.69299261e-02f, 1.72686428e-01f,
    2.44904384e-02f, 6.09570406e-02f, 4.79806960e-02f, -4.14118282e-02f, 7.94624723e-03f, -6.65981770e-02f, 5.09854332e-02f, -2.59199947e-01f,
    8.46690834e-02f, 6.90725306e-03f, 3.22144963e-02f, -9.88226756e-02f, -9.06684697e-02f, 2.21365634e-02f, -5.02570458e-02f, 1.67839259e-01f,
    8.11047554e-02f, 8.09846669e-02f, -1.38670150e-02f, -4.99759167e-02f, 3.88806537e-02f, -6.27357373e-03f, 1.50715277e-01f, -1.82376131e-02f,
    1.15026638e-01f, 4.53969762e-02f, 2.16833875e-02f, 1.11474313e-01f, -3.09548616e-01f, 1.44408211e-01f, -4.34534252e-03f, 5.89120481e-03f,
    -5.25641106e-02f, -4.56925705e-02f, -3.48637626e-02f, 2.91385222e-02f, 1.02460250e-01f, 1.99531671e-02f, -1.45641401e-01f, -1.17111824e-01f,
    -2.60320991e-01f, -1.08398512e-01f, 5.58066927e-02f, 1.01375856e-01f, 1.87193036e-01f, -2.32583359e-01f, -1.23858713e-01f, 4.84381877e-02f,
    7.95836076e-02f, 1.78665370e-01f, -2.43008621e-02f, 1.10575538e-02f, 1.53565942e-03f, -8.65551531e-02f, 3.01229972e-02f, -6.42337576e-02f,
    -6.05623536e-02f, -1.60580054e-01f, -3.28147970e-02f, 6.23902045e-02f, -1.53385317e-02f, 1.11958925e-02f, -9.55695100e-03f, 2.05747545e-01f,
    8.40048939e-02f, -2.27652192e-01f, -4.43253070e-02f, -4.37435135e-02f, -3.51318009e-02f, 7.29483962e-02f, 6.54921383e-02f, 5.00868037e-02f,
    -6.71919137e-02f, -1.39592245e-01f, -9.75122899e-02f, -8.55283067e-02f, 1.66798308e-02f, 1.62403714e-02f, 2.54791807e-02f, 1.07436962e-02f,
    5.67690097e-02f, 9.24904346e-02f, 2.60029554e-01f, 2.81756938e-01f, 2.73428001e-02f, -1.24749176e-01f, -6.82249591e-02f, -6.23557456e-02f,
    -8.38483274e-02f, 7.92844892e-02f, -1.39981881e-01f, -3.05752549e-02f, -2.06545983e-02f, 9.53434873e-03f, -6.24536653e-04f, 3.21341380e-02f,
    -3.43534127e-02f, 1.48320034e-01f, 4.88310717e-02f, 1.48313344e-01f, -3.85775678e-02f, -1.31136805e-01f, 4.92930748e-02f, -1.56415418e-01f,
    2.66333986e-02f, -2.03300685e-01f, -8.13977867e-02f, 2.92398464e-02f, 1.26756057e-01f, 1.38964012e-01f, -1.57077700e-01f, -2.50695825e-01f,
    1.53867021e-01f, -1.17422096e-01f, 1.23020276e-01f, -3.92489210e-02f, 8.24388862e-03f, 9.58923846e-02f, 1.10418782e-01f, 3.89297470e-03f,
    -4.98433448e-02f, 1.06572043e-02f, -5.77183478e-02f, 6.53851731e-03f, 7.49831498e-02f, -2.23000020e-01f, -1.45259053e-01f, -3.29894526e-03f,
    -4.27706242e-02f, 6.47797957e-02f, -1.52659163e-01f, -2.35975217e-02f, 4.23134677e-02f, 5.73720410e-02f, -2.57480145e-02f, -2.54864633e-01f,
    -8.80926698e-02f, 1.15248881e-01f, 1.58649627e-02f, 2.76828278e-02f, -1.21331654e-01f, -1.21036783e-01f, -4.13455032e-02f, 1.21666841e-01f,
    1.46030813e-01f, -8.48563910e-02f, -8.24699104e-02f, -3.68170924e-02f, 2.61762757e-02f, 6.91050589e-02f, 4.17713113e-02f, 9.81800724e-03f,
    3.06395069e-02f, 4.99257147e-02f, 1.31381810e-01f, 4.60172147e-02f, 8.98442790e-02f, 7.96398427e-03f, 7.67215639e-02f, -4.65617776e-02f,
    2.63024699e-02f, 1.04789965e-01f, 1.01391166e-01f, 6.68441504e-02f, 8.31541494e-02f, 7.33811036e-02f, -7.89722875e-02f, -1.10703282e-01f,
    -1.34018837e-02f, 1.81820057e-03f, -2.91134845e-02f, 6.92408904e-02f, 8.91603231e-02f, 1.69140488e-01f, 1.83532149e-01f, 6.12046868e-02f,
    1.48663400e-02f, -2.21709423e-02f, 4.35885489e-02f, -7.24464878e-02f, -1.14373006e-01f, 6.26658052e-02f, -6.23744279e-02f, 3.64371901e-03f,
    -2.93850433e-02f, -1.59399197e-01f, -1.29032329e-01f, -1.70990691e-01f, 1.63116708e-01f, 1.35589987e-01f, -2.03030765e-01f, -1.86998814e-01f,
    -6.97227046e-02f, 4.62117717e-02f, 1.38791546e-01f, -1.53171733e-01f, -8.24052989e-02f, 7.12396279e-02f, -1.02694668e-01f, 8.41709301e-02f,
    7.21338717e-03f, -5.53811640e-02f, -6.85895085e-02f, -1.49289429e-01f, -3.04062627e-02f, 5.32495268e-02f, 2.53288019e-02f, 6.48195064e-03f,
    1.04644604e-01f, 4.94142435e-02f, 1.49685517e-01f, 1.26404464e-01f, 5.86039424e-02f, -1.22990146e-01f, 6.14218088e-03f, -2.99138874e-02f,
    -2.65129387e-01f, -1.09976545e-01f, -9.93777961e-02f, 2.69922279e-02f, -6.38111234e-02f, 4.51899879e-02f, 1.02019243e-01f, -6.98140189e-02f,
    -7.90929347e-02f, 1.23375185e-01f, 1.53578632e-02f, 2.31864695e-02f, 3.39238755e-02f, 5.39440066e-02f, 3.75830233e-02f, -1.20652355e-01f,
    -2.08634168e-01f, 7.22976625e-02f, 2.01718509e-02f, 1.07577546e-02f, -1.18691221e-01f, -1.17773943e-01f, 1.36336898e-02f, -9.73066539e-02f,
    1.04796462e-01f, 3.06631196e-02f, 1.08901579e-02f, 1.32577136e-01f, 9.84849222e-03f, 6.93367422e-02f, -3.18912752e-02f, -8.28995466e-01f,
    -5.00487760e-02f, 3.24910730e-02f, 7.05358759e-02f, 1.85543671e-01f, -1.72379124e-03f, -9.51656327e-02f, -4.36111577e-02f, -2.93508824e-02f,
    1.41885336e-02f, 3.62342820e-02f, 5.04042581e-02f, 1.77353192e-02f, 3.58457165e-03f, -1.84392650e-02f, 9.88769233e-02f, -5.90799414e-02f,
    5.80681823e-02f, 1.50333941e-02f, -2.67333705e-02f, -5.72637767e-02f, 3.81571427e-02f, 2.75393073e-02f, 4.14670855e-02f, -4.56425548e-02f,
    4.56555327e-03f, -3.25188600e-03f, 1.48903187e-02f, 6.64991438e-02f, -4.22643930e-01f, -5.28246164e-01f, -2.07926165e-02f, -2.59701870e-02f,
    -6.53215274e-02f, -7.30296448e-02f, -4.81003895e-02f, -8.09656233e-02f, -9.06334072e-03f, -1.43872714e-02f, -2.31440756e-02f, -6.93949983e-02f,
    -6.80176988e-02f, 2.44374238e-02f, -1.29872030e-02f, 1.62361879e-02f, -8.70345086e-02f, -6.32237419e-02f, -5.10456078e-02f, -4.60567698e-02f,
    1.77026205e-02f, 8.82766694e-02f, 1.15074784e-01f, 7.25650489e-02f, -5.98411597e-02f, -8.30597878e-02f, -3.44578773e-02f, -6.13691621e-02f,
    5.89344557e-03f, -3.11616110e-03f, -4.86461997e-01f, -2.77142435e-01f, 1.01678088e-01f, 9.39567294e-03f, -7.71294022e-03f, 1.28886672e-02f,
    -7.96777382e-02f, -2.84127006e-03f, -3.89035456e-02f, 2.77898367e-02f, 9.82572809e-02f, 5.66405877e-02f, 1.61860157e-02f, -3.82831730e-02f,
    3.35993506e-02f, -7.84098357e-02f, -9.79313329e-02f, 2.74734516e-02f, -1.76276229e-02f, -1.39157744e-02f, -1.55517921e-01f, -9.20027196e-02f,
    5.28933480e-02f, -2.52156835e-02f, -4.67500836e-02f, 4.08446379e-02f, -4.18744013e-02f, 2.84393365e-03f, -2.57281889e-03f, -4.78782272e-03f,
    4.94105974e-03f, -2.17687152e-02f, -3.51636380e-01f, -1.53667256e-01f, -4.64593247e-03f, 3.77666019e-02f, 8.27527791e-02f, 1.44534539e-02f,
    -2.47492474e-02f, 1.60888523e-01f, -2.57976830e-01f, -2.76477188e-01f, 2.42203306e-02f, -8.31915624e-03f, 9.42787379e-02f, 4.88786027e-02f,
    8.50503445e-02f, 7.07172975e-02f, 3.23988385e-02f, 1.08928727e-02f, -2.84700040e-02f, -9.86031145e-02f, 3.43693234e-03f, -6.54471165e-04f,
    -1.58343107e-01f, -1.35468870e-01f, -1.67201132e-01f, -1.32704601e-01f, -9.79736671e-02f, 5.03405519e-02f, -9.06579569e-02f, -2.37738118e-02f,
    2.01008618e-02f, 9.08812101e-04f, 5.72928451e-02f, 7.57203028e-02f, -1.85405873e-02f, -3.33449394e-02f, -2.68830415e-02f, -6.12735301e-02f,
    2.47271918e-02f, -5.49084209e-02f, 1.93108432e-02f, 1.22022182e-01f, 1.73786597e-03f, -6.49468839e-01f, -2.08173558e-01f, 1.36673987e-01f,
    7.36211315e-02f, 7.82383606e-03f, 4.01968695e-02f, -8.66221916e-03f, 6.08299747e-02f, -3.67596443e-03f, 6.68225139e-02f, -4.36487049e-02f,
    7.36255199e-02f, 4.87057641e-02f, 8.10125917e-02f, 7.51725119e-03f, 2.48099063e-02f, -6.31739795e-02f, 4.08593714e-02f, 8.66457149e-02f,
    -2.94683371e-02f, -1.35235220e-01f, -2.61871591e-02f, -9.20139924e-02f, -3.78691740e-02f, -1.28724962e-01f, 6.38060793e-02f, 9.88321379e-03f,
    8.98068696e-02f, 5.21976128e-02f, 1.47957340e-01f, 1.38287917e-02f, -3.10186092e-02f, -3.12135555e-02f, 7.59230182e-02f, -2.05687210e-02f,
    5.14562167e-02f, 2.54705418e-02f, 1.57731965e-01f, -1.03602465e-02f, -1.28377020e-01f, 6.04778267e-02f, 2.95532811e-02f, 1.14890888e-01f,
    6.46036072e-03f, -1.47289380e-01f, -1.96213827e-01f, 1.18894778e-01f, 1.66912060e-02f, 3.89326131e-03f, -1.97033957e-02f, 8.83928016e-02f,
    7.10217953e-02f, 7.08299968e-03f, -7.54384100e-02f, 1.72593847e-01f, -3.11403070e-02f, 5.51797748e-02f, 1.34299761e-02f, 2.47133877e-02f,
    -8.58080685e-02f, -1.25289217e-01f, -7.20846504e-02f, -2.09718160e-02f, 5.93314040e-03f, 1.13792971e-01f, -2.87139297e-01f, -1.54128253e-01f,
    1.76627077e-02f, 1.25166848e-01f, 9.55304131e-02f, -1.05384797e-01f, -1.38069838e-02f, 1.01380654e-01f, 3.51890065e-02f, 1.92563817e-01f,
    -1.76729798e-01f, -2.73013204e-01f, 1.20372355e-01f, 5.79397827e-02f, -2.66120374e-01f, -3.34337175e-01f, -8.10313448e-02f, -4.68539968e-02f,
    1.92464832e-02f, -3.93541949e-03f, 6.86779097e-02f, 4.25238796e-02f, -7.12919682e-02f, 7.37813413e-02f, -1.53343931e-01f, -7.56826475e-02f,
    8.69978592e-02f, 5.86730912e-02f, 8.07192251e-02f, 6.05191849e-02f, 1.74459312e-02f, -4.26652245e-02f, -2.12585226e-01f, 8.22114479e-03f,
    4.20208536e-02f, -1.25865281e-01f, -1.22871377e-01f, -1.34735689e-01f, 6.39023213e-03f, -1.50879979e-01f, -1.52439862e-01f, 5.66138551e-02f,
    2.26933658e-02f, 2.34013330e-02f, 1.88133132e-03f, -5.72363809e-02f, 2.87041813e-02f, 4.21051271e-02f, 1.15029760e-01f, -1.83183607e-02f,
    -2.05704942e-01f, 2.26161303e-03f, -1.88636705e-02f, 9.30023100e-03f, 4.50925753e-02f, -1.56006506e-02f, -1.19823374e-01f, -2.89513990e-02f,
    1.82914408e-03f, -3.38651985e-02f, -1.09856978e-01f, -3.68736312e-02f, -5.51542193e-02f, 2.53432710e-02f, -2.36906596e-02f, -3.51140946e-02f,
    -3.62056904e-02f, 3.45547087e-02f, 5.81750320e-03f, -2.02875193e-02f, 1.08235471e-01f, -3.24042663e-02f, 1.26564607e-01f, 1.62833873e-02f,
    2.95664668e-02f, 1.84736252e-02f, 2.96421330e-02f, 3.76287177e-02f, -5.95969744e-02f, -2.03264598e-02f, 1.15578517e-01f, -8.63714889e-03f,
    -1.22662082e-01f, -1.34753389e-02f, -3.73559855e-02f, -3.71163160e-01f, -6.95289951e-03f, 1.03866756e-02f, -2.15343870e-02f, 2.73750909e-03f,
    -1.55273499e-02f, 6.26043081e-02f, -5.04400358e-02f, -7.20116869e-02f, -2.60004867e-02f, 4.15536063e-03f, -1.91029161e-02f, 3.54960933e-02f,
    3.10832281e-02f, -3.02314237e-02f, -1.69267640e-01f, -2.00984210e-01f, -1.59849301e-01f, -7.68178478e-02f, 6.60403669e-02f, 1.14822827e-01f,
    2.64969110e-01f, -1.68139189e-01f, -1.05287738e-01f, 7.10416511e-02f, 3.47605050e-02f, 3.54217663e-02f, -8.56002700e-03f, 4.53432240e-02f,
    1.04506901e-02f, 9.48009938e-02f, 3.67015041e-02f, -4.10063192e-02f, 5.24380943e-03f, 1.02812767e-01f, -4.78944927e-03f, 2.38729373e-01f,
    1.14840209e-01f, -6.63821399e-02f, 7.90762231e-02f, -6.41347840e-02f, -1.96493283e-01f, 1.10060729e-01f, -1.06659174e-01f, -4.16340493e-02f,
    -2.15359151e-01f, -8.96935910e-02f, 4.41694930e-02f, -6.40536547e-02f, 6.98197400e-03f, -4.49847132e-02f, -6.70310110e-02f, -4.52901721e-02f,
    -6.04240969e-02f, -1.36995334e-02f, 2.43055355e-02f, -7.83793777e-02f, -9.43443701e-02f, -4.60293144e-02f, -2.43368722e-03f, -8.37479346e-03f,
    -3.81785631e-01f, -1.89233601e-01f, -6.82650506e-02f, 4.35637012e-02f, -4.37260279e-03f, 2.65404526e-02f, -9.52138659e-03f, -3.82013023e-02f,
    1.18171640e-01f, 1.07180951e-02f, 1.78044438e-01f, 5.61628044e-02f, -5.27362078e-02f, 3.26880738e-02f, -1.20342523e-01f, -7.20646325e-03f,
    -1.23312119e-02f, -6.09026626e-02f, -1.05507530e-01f, -6.15538098e-03f, -3.36779803e-02f, -3.20474394e-02f, -7.76857063e-02f, 4.63083088e-02f,
    -8.43710676e-02f, -2.23581567e-01f, -1.56543612e-01f, -3.76655534e-02f, -1.59768183e-02f, -2.27782670e-02f, 1.31394297e-01f, 2.76554446e-03f,
    -6.74030408e-02f, -1.48161367e-01f, 1.63093567e-01f, -5.92388362e-02f, -2.85912938e-02f, -1.24898246e-02f, -1.01267248e-01f, 4.01918925e-02f,
    -1.62201151e-02f, -5.37506714e-02f, -6.49047345e-02f, -7.40146115e-02f, -1.10875936e-02f, -6.44334778e-02f, 4.48207632e-02f, 1.67037085e-01f,
    -1.33678705e-01f, 1.07180133e-01f, 1.54039726e-01f, -2.77254451e-02f, -5.79534955e-02f, -9.65141505e-02f, 1.45926028e-01f, 8.15514773e-02f,
    -3.01628225e-02f, 1.34506999e-02f, 6.90263417e-03f, -1.30762994e-01f, -4.52294722e-02f, -2.51746718e-02f, -5.86755462e-02f, -8.56153294e-02f,
    9.11389198e-03f, -4.85309362e-02f, 1.04553670e-01f, 8.91096517e-02f, -7.49818310e-02f, -3.28014702e-01f, -2.84899622e-01f, -1.00432383e-02f,
    4.58633974e-02f, -4.88062091e-02f, 1.80025205e-01f, 1.51665807e-01f, -3.46439257e-02f, -4.65368889e-02f, 2.55913716e-02f, -1.30956033e-02f,
    -9.57610272e-03f, -5.36918547e-03f, -4.67348471e-02f, 1.42420204e-02f, -9.67974737e-02f, -1.51893482e-01f, -2.23159313e-01f, 7.52498582e-03f,
    -3.79003887e-03f, -1.05477631e-01f, -4.30174142e-01f, 3.50374617e-02f, 6.79604188e-02f, -2.64225435e-02f, -1.38875604e-01f, -4.68825176e-02f,
    -5.17499745e-02f, -1.26845799e-02f, 5.45642078e-02f, 7.04335645e-02f, -2.86431778e-02f, -8.92105252e-02f, -8.30499679e-02f, 4.84550931e-02f,
    -3.86441946e-02f, -1.33554012e-01f, -1.31179944e-01f, 4.78789918e-02f, -1.30213713e-02f, -1.25717372e-01f, 1.22771718e-01f, 2.34167315e-02f,
    -3.83777618e-02f, 4.47260477e-02f, 8.32517967e-02f, -9.92950648e-02f, 4.68634106e-02f, 1.26448292e-02f, 4.88482341e-02f, 6.39356077e-02f,
    -7.00407708e-03f, 3.84553447e-02f, -8.49754363e-03f, -5.98834548e-03f, 2.09087860e-02f, -5.59903421e-02f, -3.54451761e-02f, -2.70483270e-03f,
    8.23342279e-02f, 1.36956483e-01f, 1.21868111e-01f, -1.14718184e-01f, -1.10071339e-01f, -7.47726932e-02f, 2.18216345e-01f, -1.88868463e-01f,
    2.46530920e-01f, -5.05287051e-02f, -5.63263334e-02f, -9.92514864e-02f, -7.11048841e-02f, -1.49160147e-01f, -5.33143803e-02f, -6.82924762e-02f,
    1.73841655e-01f, 3.44300643e-02f, 1.05646074e-01f, 2.21012309e-02f, -2.29432229e-02f, 1.25907004e-01f, -1.49708688e-01f, 2.23918892e-02f,
    -1.02694750e-01f, 1.86787862e-02f, -1.34768724e-01f, -2.83104070e-02f, 7.12437183e-02f, -1.11708261e-01f, -6.86143525e-03f, -2.14667656e-02f,
    -9.52616185e-02f, 6.04832470e-02f, -1.04683754e-03f, 4.11536619e-02f, -7.52751827e-02f, 2.70692948e-02f, -4.57595810e-02f, 5.24206311e-02f,
    -6.85127601e-02f, -3.36139612e-02f, -1.13478161e-01f, -3.66665363e-01f, -2.84380484e-02f, 5.01386859e-02f, 1.54835144e-02f, -1.53183341e-01f,
    -1.93263218e-01f, -1.20121025e-01f, 7.31331483e-02f, -6.59412965e-02f, -6.86754361e-02f, -5.06559201e-02f, 1.59516465e-02f, 6.03073388e-02f,
    1.81997865e-02f, -5.84146567e-02f, -1.70246791e-02f, -1.57124724e-03f, 3.67046334e-02f, -8.48554075e-02f, -1.38378158e-01f, 3.39509249e-01f,
    -2.44107656e-02f, 3.06834225e-02f, -1.21430777e-01f, 1.19778082e-01f, 4.25441600e-02f, 7.25134164e-02f, 4.52205651e-02f, -3.90429236e-02f,
    3.61488163e-02f, -4.47044615e-03f, 3.57223190e-02f, 6.27661124e-02f, 1.45149538e-02f, 6.32102787e-02f, -1.98754072e-02f, 6.73272088e-02f,
    4.20511030e-02f, -1.04121506e-01f, 2.43077781e-02f, -8.85516703e-02f, -1.29480343e-02f, 2.34007537e-02f, -4.33717594e-02f, 3.95278968e-02f,
    1.10202417e-01f, -5.52841760e-02f, -6.71267975e-03f, 5.94917536e-02f, -2.91160960e-02f, -1.19632021e-01f, 2.95123067e-02f, 7.02608451e-02f,
    1.92156490e-02f, 2.14425903e-02f, -6.79190382e-02f, 3.79765704e-02f, 1.33073693e-02f, -3.51217687e-02f, -1.12596720e-01f, -9.10302401e-02f,
    7.33411983e-02f, 4.28346498e-03f, -1.04368813e-01f, 7.93296024e-02f, -3.89424339e-02f, 3.33800353e-02f, -1.01438195e-01f, -1.79234937e-01f,
    -6.17453791e-02f, -6.02797978e-02f, -4.28012349e-02f, -3.83280963e-02f, 9.61092040e-02f, -1.99335411e-01f, 2.29257032e-01f, 1.13782473e-02f,
    -1.03899695e-01f, 1.24430083e-01f, -3.51293162e-02f, -2.22713873e-01f, -2.20701560e-01f, 4.46081646e-02f, -1.86146408e-01f, 1.07116878e-01f,
    -2.06320032e-01f, -3.81936505e-02f, -8.26370437e-03f, -3.61471139e-02f, -2.56973393e-02f, 2.54495889e-02f, -1.06099829e-01f, 7.81665966e-02f,
    -4.70739901e-02f, 2.43463134e-03f, -4.30722162e-02f, -3.33011150e-02f, 1.97927151e-02f, 2.58591752e-02f, -2.12132290e-01f, -1.43209115e-01f,
    1.08262457e-01f, 5.64853549e-02f, -2.28210855e-02f, -2.17780340e-02f, -2.85373605e-03f, 3.45497765e-02f, 6.42953143e-02f, 5.22462018e-02f,
    9.54104736e-02f, 8.73103216e-02f, -2.66166665e-02f, 3.47724892e-02f, -1.11305036e-01f, -6.63646311e-02f, -6.07886687e-02f, 5.14977379e-03f,
    1.51680661e-02f, -2.34128892e-01f, -1.58142790e-01f, -1.46931112e-02f, 1.05148286e-01f, -8.89338702e-02f, 2.50749469e-01f, -1.55081511e-01f,
    2.31988654e-01f, -1.02978259e-01f, -1.02012560e-01f, -5.64351380e-02f, -6.82383850e-02f, -1.12415753e-01f, -3.08745131e-02f, -9.01282057e-02f,
    1.94222763e-01f, -8.32522660e-02f, 1.54678345e-01f, 1.10629871e-02f, 5.15002236e-02f, 1.99224979e-01f, -2.44157687e-02f, 5.11072390e-02f,
    -7.69933537e-02f, -4.72174585e-02f, -4.34703343e-02f, -1.32493665e-02f, -2.76630193e-01f, -6.97652204e-03f, -2.42611151e-02f, 8.13935027e-02f,
    -5.91818877e-02f, 9.85576138e-02f, -1.69339001e-01f, 3.64891738e-02f, -1.28930554e-01f, 1.35636777e-01f, -5.44310361e-02f, 3.31967957e-02f,
    -1.83354004e-03f, -1.47654742e-01f, -7.58032575e-02f, 1.77529514e-01f, -5.99242710e-02f, 2.19817366e-02f, -8.98394063e-02f, -1.49766192e-01f,
    1.83368046e-02f, 6.54763877e-02f, -5.23891896e-02f, -9.35030356e-02f, 3.13154869e-02f, -9.35330912e-02f, -5.88315129e-02f, -1.13636982e-02f,
    1.27071692e-02f, -3.82296331e-02f, 8.72702375e-02f, 2.32465863e-02f, -6.81443661e-02f, 3.04726698e-02f, -2.78672993e-01f, -3.59300345e-01f,
    1.48770334e-02f, 1.99446268e-02f, -7.28671849e-02f, 1.13550071e-02f, -2.35886909e-02f, 9.48459655e-02f, 1.41812980e-01f, 4.73136781e-03f,
    -2.40480509e-02f, 3.22191529e-02f, 1.20865842e-02f, 5.95557876e-02f, -4.97277118e-02f, 8.39007795e-02f, 2.96459254e-02f, 1.19615883e-01f,
    -1.31046250e-01f, -1.48281008e-01f, -8.56547733e-04f, 1.99708678e-02f, -2.34217327e-02f, -3.63974087e-02f, 1.02712894e-02f, 1.98546238e-02f,
    -1.13926483e-02f, -8.54214560e-03f, -9.04873461e-02f, -1.04492858e-01f, -5.83939590e-02f, 2.08259298e-04f, 1.38620399e-02f, 1.69697031e-01f,
    3.01458631e-02f, 8.47278759e-02f, -1.64261758e-01f, 1.17128700e-01f, -1.67718511e-02f, 7.10545806e-03f, -3.14157195e-02f, -4.70634922e-02f,
    -2.38491204e-02f, 9.55478773e-02f, -7.08326232e-03f, 4.92137820e-02f, -1.13314733e-01f, 9.29809958e-02f, -1.10440208e-02f, 1.35155246e-01f,
    -1.71667904e-01f, -1.37301102e-01f, 1.28727744e-03f, -4.30879518e-02f, 1.08271904e-01f, -2.49316171e-01f, 2.58358508e-01f, -4.45541777e-02f,
    -5.23010604e-02f, -5.03997914e-02f, -6.52445666e-03f, -7.26093873e-02f, -4.46866304e-02f, -1.27996560e-02f, 3.64805222e-03f, 7.57733872e-03f,
    -3.65501493e-02f, 3.96365393e-03f, 4.67386879e-02f, 4.53427359e-02f, 1.63607057e-02f, -4.78254519e-02f, -6.81578740e-02f, 5.01044169e-02f,
    1.06700450e-01f, 3.46034300e-03f, -1.36296079e-01f, -3.56684253e-02f, 8.79430249e-02f, -4.33949009e-02f, 2.28482317e-02f, 5.39690666e-02f,
    1.06440783e-02f, 1.03007615e-01f, 1.76429406e-01f, -5.24227023e-02f, -3.76804024e-01f, 9.43875909e-02f, 7.63717890e-02f, -8.02656859e-02f,
    6.64110929e-02f, 6.21696115e-02f, 1.22425752e-02f, 3.37253399e-02f, 1.89366281e-01f, -4.17153835e-02f, -2.54988492e-01f, -6.47282526e-02f,
    4.07252088e-02f, -5.77565609e-03f, -4.82267402e-02f, 2.66947271e-03f, -8.43901746e-03f, 8.15852061e-02f, 1.54861078e-01f, 1.55940786e-01f,
    -2.27587074e-01f, -5.15731722e-02f, 4.75363284e-02f, -4.64639142e-02f, -2.28889361e-02f, -6.71380311e-02f, -7.55487308e-02f, 1.89487338e-01f,
    -2.17837691e-01f, -2.28365645e-01f, -3.97466086e-02f, -7.05032200e-02f, 3.54011804e-02f, 9.87759084e-02f, 1.24813400e-01f, -1.13765664e-01f,
    -8.14431682e-02f, 9.24755484e-02f, 4.53518257e-02f, -6.59017861e-02f, -9.12025794e-02f, -3.60788181e-02f, 1.34857938e-01f, 2.73278411e-02f,
    2.24941716e-01f, -9.73388180e-02f, -1.91117734e-01f, 3.94180343e-02f, 8.37508887e-02f, -1.23284049e-01f, -3.68798524e-02f, 2.57675648e-02f,
    -4.47225000e-04f, 1.89022776e-02f, -7.14251818e-03f, -1.27212420e-01f, 1.66980810e-02f, 3.98182087e-02f, -1.25418426e-02f, 8.11730698e-02f,
    -2.01879553e-02f, 4.18075360e-02f, 7.35231787e-02f, 1.01327226e-01f, -8.25825781e-02f, -6.95148632e-02f, -4.56936359e-02f, 1.30883619e-01f,
    3.60639133e-02f, 1.47024781e-01f, 2.17823926e-02f, -6.51823282e-02f, -1.35921806e-01f, 2.71257870e-02f, -3.59879434e-02f, -1.10066868e-01f,
    2.99458597e-02f, 5.34090437e-02f, 9.49109271e-02f, -4.82111089e-02f, 6.91933185e-02f, 1.13760225e-01f, 5.48643172e-02f, 2.70202719e-02f,
    -1.68085918e-01f, -6.67185858e-02f, -1.02023654e-01f, -2.76208092e-02f, -5.29679768e-02f, -2.76358753e-01f, -8.61631557e-02f, 8.88868049e-02f,
    -8.48380774e-02f, -1.37233168e-01f, -1.08611606e-01f, 1.99398980e-01f, 4.15983573e-02f, -5.33088446e-02f, 9.39727128e-02f, -3.06013048e-01f,
    -3.51232253e-02f, -2.30947211e-02f, 7.83762261e-02f, 9.70993191e-02f, -1.49597198e-01f, -3.27279675e-04f, -3.09147649e-02f, 6.47305250e-02f,
    4.74318787e-02f, -2.12334637e-02f, -5.11390157e-02f, -1.35589659e-01f, -2.83172429e-02f, -4.97166105e-02f, -2.11222440e-01f, -1.08716385e-02f,
    2.13638935e-02f, 1.09659489e-02f, 8.38084519e-02f, -7.83990994e-02f, -1.22127324e-01f, -3.44956741e-02f, 9.90204047e-03f, -3.87650095e-02f,
    4.73741442e-02f, 2.34282594e-02f, -2.11526547e-02f, 9.16167870e-02f, 4.93458621e-02f, 1.54424548e-01f, -2.84390926e-01f, 4.64655161e-02f,
    4.06681076e-02f, 8.31274837e-02f, -3.76013756e-01f, 9.02722105e-02f, 1.43797234e-01f, 9.99780893e-02f, -9.73090306e-02f, -1.77056745e-01f,
    1.03058018e-01f, 7.66324773e-02f, -1.55024556e-02f, 4.81758453e-02f, 4.03273758e-03f, -1.38560593e-01f, 2.30615065e-01f, 8.77264068e-02f,
    4.77193929e-02f, -9.83470976e-02f, -7.41796792e-02f, 5.17384149e-02f, 9.66525599e-02f, -1.77141532e-01f, 1.89564779e-01f, 4.36486825e-02f,
    -1.81193873e-01f, 5.32039702e-02f, 1.17118701e-01f, -1.04708217e-01f, 3.97523269e-02f, -2.99990401e-02f, 1.55995302e-02f, -2.12956034e-02f,
    1.90542415e-02f, -7.46754184e-02f, -8.16274621e-03f, 6.14593811e-02f, 1.13406159e-01f, -2.57582068e-02f, 9.52171385e-02f, -5.63534116e-03f,
    -9.70316827e-02f, -1.34516820e-01f, 5.25076576e-02f, 2.72763018e-02f, -2.32196860e-02f, 8.40654969e-02f, 8.59999582e-02f, -6.47730101e-03f,
    2.73589995e-02f, 5.75484708e-02f, 2.98816599e-02f, -1.88107699e-01f, -5.08353263e-02f, -1.46586090e-01f, 4.86336946e-02f, -5.66433482e-02f,
    -6.40151128e-02f, 5.80738261e-02f, -3.06628831e-02f, -6.37203157e-02f, 3.98683958e-02f, 3.49488407e-02f, 2.93787755e-02f, -1.40543669e-01f,
    -5.83874993e-02f, 4.32477631e-02f, 1.73511896e-02f, -3.85483980e-01f, 1.35969907e-01f, -7.89104626e-02f, 4.09065299e-02f, 2.49546710e-02f,
    8.65403488e-02f, -4.52544875e-02f, 6.72540143e-02f, -1.31104430e-02f, 6.19556801e-03f, 5.34854867e-02f, 6.31026253e-02f, 1.01057012e-02f,
    -1.19846538e-01f, 6.21406212e-02f, 2.34174624e-01f, -2.74354905e-01f, 1.26857385e-01f, 4.34001461e-02f, -2.00356487e-02f, -2.98014190e-02f,
    1.15810141e-01f, -7.53436312e-02f, 1.24365287e-02f, 6.05430044e-02f, -2.09754676e-01f, -3.09303645e-02f, 2.75553893e-02f, -9.75938812e-02f,
    2.58177379e-03f, 6.58857450e-02f, -7.66974986e-02f, -8.19090009e-02f, 5.63622490e-02f, -1.44887686e-01f, -2.06536293e-01f, 2.77752995e-01f,
    -1.12769775e-01f, -3.29219922e-02f, 5.90321654e-03f, -5.23939580e-02f, 1.55473854e-02f, -5.63775823e-02f, -1.62818134e-02f, -1.18192188e-01f,
    -3.69670540e-02f, 7.80526698e-02f, -4.26439941e-02f, -4.85510901e-02f, -1.65723567e-03f, -1.63173173e-02f, 4.49813530e-02f, -1.14509352e-01f,
    -5.54976007e-03f, -1.79501191e-01f, 1.72683582e-01f, 1.99545044e-02f, 5.96278487e-03f, 6.04376718e-02f, -9.58162546e-02f, -6.03793077e-02f,
    1.14230953e-01f, -1.99926961e-02f, -2.27627277e-01f, 1.27677517e-02f, -8.64408016e-02f, 6.94260970e-02f, 5.28939813e-02f, -4.26870771e-03f,
    4.74863946e-02f, -3.46186347e-02f, 1.92626845e-03f, -1.78281888e-01f, 4.93378099e-03f, 5.37768528e-02f, -1.19223483e-01f, 4.82759848e-02f,
    8.58890638e-02f, 3.59565835e-03f, -7.89913461e-02f, -1.04637481e-01f, -1.03992326e-02f, 2.34921370e-02f, 2.92864591e-02f, -7.09913820e-02f,
    -1.41642168e-01f, 1.28428176e-01f, 1.64599977e-02f, 1.40308971e-02f, 5.56025654e-02f, 7.20544159e-02f, 6.46745265e-02f, 9.80675444e-02f,
    -8.02717581e-02f, -3.86350155e-01f, 9.46011916e-02f, 6.82391552e-03f, 1.10300750e-01f, -1.10730253e-01f, 2.54044328e-02f, -1.64248556e-01f,
    3.15724360e-03f, 6.01025075e-02f, -1.52605161e-01f, -2.01226890e-01f, -6.73971698e-02f, -1.63671240e-01f, 1.79303437e-02f, -1.57170948e-02f,
    -2.74772923e-02f, -7.38104880e-02f, 3.96596082e-02f, 1.99804399e-02f, -2.56139599e-03f, -1.22722564e-02f, -5.48885874e-02f, -3.62438262e-02f,
    1.54018132e-02f, -1.93217080e-02f, -2.62572933e-02f, 1.02573439e-01f, 9.40153450e-02f, 8.02588016e-02f, -7.42413402e-02f, -1.74692515e-02f,
    6.40925989e-02f, 5.80532886e-02f, 1.66724231e-02f, -5.24410466e-03f, 6.49844902e-03f, -3.46954516e-03f, -2.52672024e-02f, 1.12788275e-01f,
    -8.42889547e-02f, 2.25999895e-02f, -1.24096870e-01f, -2.04359502e-01f, -7.59898648e-02f, -1.95924542e-03f, -5.18895648e-02f, 1.36849105e-01f,
    -9.91687062e-04f, 9.29618552e-02f, -2.09900901e-01f, -2.03741476e-01f, -1.57763194e-02f, 1.10198729e-01f, 4.59918119e-02f, 8.91284719e-02f,
    1.51437968e-02f, 4.19567414e-02f, 5.14934286e-02f, 4.75735553e-02f, -5.00336513e-02f, -1.32147729e-01f, 2.31425725e-02f, -1.03830211e-01f,
    -1.25935264e-02f, -3.39628407e-03f, -1.62466854e-01f, -2.85840523e-03f, -7.64980167e-03f, 7.63050988e-02f, -8.13430101e-02f, -6.42484426e-02f,
    3.51114646e-02f, -3.78069170e-02f, 3.82183865e-02f, 4.36145365e-02f, 5.34807593e-02f, -8.19956362e-02f, -1.74799431e-02f, 1.13018364e-01f,
    -1.39787823e-01f, 1.55273098e-02f, -3.76209259e-01f, 7.20876153e-04f, 1.38397232e-01f, 2.33259499e-02f, 4.52936441e-02f, 1.11287400e-01f,
    -1.07903399e-01f, -1.14786066e-03f, -1.36655504e-02f, -4.23011603e-03f, -8.54603201e-02f, 1.28967628e-01f, 9.50235650e-02f, 1.45224765e-01f,
    -5.11816330e-02f, -3.52265179e-01f, -1.17586710e-01f, -4.34880927e-02f, 4.54575457e-02f, -6.15177378e-02f, 9.53819454e-02f, -1.14413440e-01f,
    -2.29016431e-02f, 8.30766652e-03f, 2.35898923e-02f, -5.35931718e-03f, 1.36992037e-01f, 8.23812261e-02f, -7.53768086e-02f, 1.43941179e-01f,
    -1.35260979e-02f, -1.42476670e-02f, 7.20954090e-02f, -1.42247053e-02f, 1.57035425e-01f, -3.47642675e-02f, 4.58874181e-03f, 7.54667958e-03f,
    -9.17074680e-02f, 7.34308511e-02f, -1.36420697e-01f, -2.70538088e-02f, 8.59203190e-02f, 6.05022244e-04f, 4.18695563e-04f, -2.75515039e-02f,
    3.79349105e-02f, 9.87599720e-04f, 5.70719540e-02f, -4.78835106e-02f, -1.70215257e-02f, 5.07329106e-02f, -6.76839575e-02f, -1.74284235e-01f,
    -1.12925328e-01f, -5.91899343e-02f, 6.03082702e-02f, -2.81687677e-02f, -2.87975240e-02f, -9.25883353e-02f, -1.97100431e-01f, 1.89895909e-02f,
    2.70649474e-02f, -8.81509259e-02f, 5.46355881e-02f, -8.32842663e-02f, -2.57703438e-02f, 1.39712125e-01f, -1.81111977e-01f, -9.47752297e-02f,
    -1.33062348e-01f, -8.95775929e-02f, 1.29513100e-01f, -1.14552036e-01f, 1.36776417e-01f, 2.54474670e-01f, 5.34810452e-03f, 1.76378846e-01f,
    2.94378065e-02f, 1.44865915e-01f, -7.17206821e-02f, -4.94990535e-02f, 3.63668017e-02f, 1.64042190e-01f, -2.27264851e-01f, 1.07935825e-02f,
    1.09701650e-02f, -2.48687658e-02f, 7.46543519e-03f, 1.71191156e-01f, -1.98931023e-01f, -2.70724017e-02f, -5.96818887e-03f, 6.73879012e-02f,
    -9.63766500e-02f, -8.65463316e-02f, -4.19109687e-02f, -4.16259505e-02f, -1.35662541e-01f, -5.27618825e-02f, 1.45443618e-01f, -6.94548199e-03f,
    -4.70975600e-02f, 7.37118274e-02f, 1.28365951e-02f, -2.22905248e-01f, -2.10149586e-02f, -4.79604378e-02f, 7.50915110e-02f, 1.49394229e-01f,
    1.63315654e-01f, 9.31090340e-02f, -3.16497795e-02f, 7.25263730e-02f, -6.30638888e-03f, -2.05991074e-01f, -7.96390418e-03f, -6.32986873e-02f,
    7.89757147e-02f, -8.68078321e-02f, 1.13979012e-01f, 6.91364780e-02f, -7.14629218e-02f, 1.68754570e-02f, 2.33831570e-01f, -3.26193362e-01f,
    -2.56360713e-02f, -6.30601868e-02f, 2.59411614e-02f, 2.21300758e-02f, -1.13355942e-01f, -1.36926830e-01f, 2.18784204e-03f, -2.13682756e-01f,
    -4.53850143e-02f, 4.87303026e-02f, -6.20041825e-02f, 4.52298485e-02f, 6.81782514e-02f, 1.85299039e-01f, -8.78308713e-02f, -2.75696199e-02f,
    -4.98326719e-02f, 1.26370549e-01f, -1.29347369e-01f, -7.32835457e-02f, 8.76353979e-02f, 6.02946356e-02f, 4.12504338e-02f, 1.89318791e-01f,
    -1.57803953e-01f, -2.49514226e-02f, -2.97803455e-03f, 1.57631002e-02f, -8.34938958e-02f, -7.80382305e-02f, -5.31568900e-02f, -5.24059869e-02f,
    1.48987442e-01f, 3.07698809e-02f, -8.43498334e-02f, 1.14079669e-01f, 1.31476251e-02f, -4.24039289e-02f, 2.37022899e-02f, -6.51030168e-02f,
    -6.65098727e-02f, -9.57524776e-02f, 2.39163470e-02f, -1.14050888e-01f, -1.21024698e-01f, -9.83342305e-02f, -5.80979288e-02f, -1.13759719e-01f,
